encog,BasicNetwork,java,3.2.0,1,1379886759074
[BASIC]
[BASIC:PARAMS]
[BASIC:NETWORK]
beginTraining=0
connectionLimit=0
contextTargetOffset=0,0,0
contextTargetSize=0,0,0
endTraining=2
hasContext=f
inputCount=51
layerCounts=3,13,52
layerFeedCounts=2,12,51
layerContextCount=0,0,0
layerIndex=0,3,16
output=0.7166917181,0.0226415763,1,0.9990804181,0.000026132,0.0000060408,0.0000000824,0.0000000171,0.0000000232,0.0200593967,0.0000000003,0,0.0000000021,0.3086268498,0,1,1,0,0,0,1,0,0,1,0,1,0,0,0,0,0,1,0,0,0,0,1,0,1,0,1,0,0,1,0,0,0,0,1,1,0,0,1,0,0,0,1,0,0,1,0,1,0,0,0,1,1,1
outputCount=2
weightIndex=0,26,650
weights=0.6067975352,-0.8654936799,1.9987698439,-1.2271241204,-2.5236731633,-0.5565618645,-1.5616986412,1.1574105564,0.105208818,0.416257096,1.390051411,4.6551775534,-0.0757991443,-1.9664157359,1.3560804735,-2.1007296409,1.4698719713,2.5853398256,0.4455473409,0.6691056247,-0.6895734902,0.7191173951,-0.88449775,0.0754892835,-4.4177348794,-1.8372009127,3.8795093216,-5.2926916637,0.0933647724,3.3964979695,-2.7039020994,0.5129538363,2.8398392149,0.0706659717,0.722787809,0.7332803008,-1.9508048688,0.7123825672,3.3754251087,-5.0186440603,0.6116105369,3.4042164165,-2.4743009609,0.1022247574,4.5138100449,-0.6045631914,4.8628225137,3.1377021875,-2.6267160543,-3.9185816892,1.2362231703,-1.1302091841,0.4479589623,4.0905818278,-0.741902092,1.2203360676,0.5235024397,-1.9801247669,-3.7235227489,1.1370752609,-1.9075115978,-3.5758148659,2.6322689577,-3.3570950578,1.1938653288,0.566990235,-2.3708358135,-5.9803586008,2.4098381135,-3.3069085115,-1.7419056689,5.1403030216,-3.894585988,1.2715771945,0.9702063536,-1.8154510961,-0.8298219407,-2.8191170438,-2.5340262758,1.2033358907,1.0797514654,-0.8627491581,1.5857862238,-2.3824347785,-1.3195362281,2.662972652,-0.6538510694,-1.7988506019,2.436535745,0.2458630596,-3.8863611225,2.2579838483,-1.4799388083,-2.0700430324,0.0634734628,-2.1647865311,-3.3816636628,-1.658254949,-2.4735371334,-1.122640306,-0.4080338226,1.8585986186,-2.6630521242,0.2059440103,-0.8595413287,-2.3975400048,-0.2168573424,0.4960334149,-0.199878109,1.2803651834,1.5181064857,0.1804413926,0.3094431627,-1.2287793289,-1.6038588306,2.4898200248,0.8888812019,-1.6218624057,2.4846712316,0.8819091449,-1.1522885443,2.3320927509,-0.9182114491,-1.9027507168,0.4889767656,0.2855805223,-1.4506902236,0.9639397945,-0.9637207133,-3.4649212194,3.4083710049,-4.2669181695,0.1900086449,-0.2420396451,-3.1551226935,2.0835084061,1.1554084517,-4.0172858224,2.7187279433,1.5579760181,-5.405854109,1.2212396487,-0.0924268446,1.174828562,2.6977511219,-0.5199576604,-2.0705832532,3.0144248813,0.8987702906,-1.7015702632,-0.7857239665,1.2249103679,-3.5489679187,0.3920260568,-0.1042798954,0.9160325543,-0.9470163665,-1.1364896448,-1.3204455436,-2.6246611857,2.353176544,-1.8124787026,1.2901156346,1.7409047521,-3.1864054816,3.7301447894,2.0957029274,-2.0903949403,0.7597378354,0.9188943593,-3.5843434498,0.6826315606,1.3777416074,-3.8375446238,2.1200418473,0.5496976627,-4.968019769,0.7044376621,2.8589988077,-1.276802123,-0.31823573,-0.374978704,-6.9359635078,5.1524642212,1.1690246944,-4.8691450721,3.1157242802,-2.1965686367,-3.3189467917,6.1306068945,-1.4685636131,-2.8361054734,2.062712351,0.0365979246,-4.1191109694,3.3405681136,-2.3951990125,-2.0296476989,2.0882061979,1.016821403,-0.3472822004,3.6388127095,0.8094481266,-2.8878842375,3.7812330293,-0.7462167754,-2.439950109,0.8753897317,-0.1319874634,-0.6394850614,1.6349819371,-0.4559213398,-3.4108227663,2.180926876,-6.8254696731,-3.5448658657,3.9843157655,-1.1999874563,-0.9806821367,2.6551270077,0.5745736174,-2.4600272925,1.224173326,0.0806429107,-3.2453208265,1.6122383605,-0.8111392485,-2.8632439134,2.0246755256,0.3774351616,-2.5373247055,0.6333269362,-1.749062823,-2.7735756961,-10.5239183522,10.3419896492,0.2571267549,-7.5578326718,6.7553995757,-4.1751059724,-7.4971865444,7.6336451208,-1.274442122,-8.9637889778,8.8280555471,1.3778941282,-7.3237714666,6.4227751993,-3.1315644387,-6.5249674996,5.2888808381,3.6050083884,-3.2600432111,4.7576824049,1.583987029,-5.975267211,6.0553742858,1.3309564735,-7.3369558901,6.134749071,-1.6542041941,-6.3915791125,5.9678739306,-4.137323945,-5.9256184921,4.2878552318,-4.2902817839,-6.0277020128,6.0656235943,-3.8660288914,-4.9058349502,8.0078163452,0.9808505894,-6.8140857351,7.4996684903,-2.3988268904,-6.8008811045,6.2305485455,-1.639005513,-13.3236812207,4.3270831268,0.4196598382,-1.1072464076,5.856397134,4.2194904628,4.5684651061,0.7675274697,-1.4221545343,0.0884802833,0.2885956032,-0.3721640624,3.7915907462,4.4245014993,-4.5380500969,0.3157416906,1.2670233106,-3.7511884892,1.0899674532,-0.3470377952,-0.5208320379,1.1877373293,0.2708360699,-1.2025823611,-2.6895247958,1.2133737891,-2.3961728104,-0.1074673069,0.4303968124,-3.991749162,0.6359363784,-0.1056340698,-0.565616555,0.2255063983,-1.4067145428,0.6248102278,-1.6287103389,0.5031065293,-1.5550015752,-0.0057091548,0.0630668192,-0.4252960523,1.7082431112,0.4202609323,-2.0934126954,1.085992307,1.7759076281,-3.8117602718,2.0757042391,0.6908387724,-1.74702402,0.7309355043,0.0610774945,-2.0860584663,1.0515649991,-0.6904948928,-0.3287122849,-2.1530843137,-1.8605125883,-4.2440363291,5.7962787615,0.5298208458,-4.8932182618,5.5697916914,-1.6861163603,-4.8918261337,7.480197789,-1.395590338,-2.8956873063,6.1385482785,0.4203035078,-3.7091188401,3.4223312047,-3.4533587953,-4.2756085757,3.5081875966,-0.5318373449,-5.2223034914,3.2901456057,-4.6832244526,-3.6724734506,4.1891477322,0.1620700335,-3.5554550178,2.3407667237,-2.4077128175,-2.2749685206,2.0680145336,-0.3175487846,1.1782317211,4.6852637641,-0.2883123253,-2.3457776146,4.4060729802,-4.3508720454,-5.1361524844,4.0619436556,0.1330126235,-1.7225696756,4.1774060023,-4.7978848325,-3.8746025918,4.05549697,-0.896842092,-3.0446135227,0.4451570841,1.1464152061,-1.6019911826,2.7005072801,0.9672342688,-0.2847398367,3.0660092061,-6.4392183896,0.127717214,2.9768920472,-2.5098814092,3.668806644,5.0208676261,-8.2637852545,1.5066124532,2.6215032025,-2.7929021898,0.1918855306,3.5911099645,-4.1588665119,3.2687123168,0.955557474,-4.8575177262,-1.4777422789,3.3314491502,-4.66564703,1.1695411958,2.45988699,-7.0638756362,0.1308300932,0.9372718201,-3.3318422737,3.0363452638,-0.6871479267,-2.3647384151,-2.9380089218,1.5563978589,-7.4274159932,3.4069659888,4.0102667278,-7.5195782825,4.6069409932,2.5661350916,-5.1972596006,1.3300913155,4.0676832436,-7.2806303414,1.0302966234,2.4021481516,-6.4106758807,2.7910609074,0.3036185411,-4.2260746696,0.5712723423,0.4416447815,-1.7590328477,-2.2146592188,-4.8786210005,-4.1784948122,2.5316515557,0.1657163859,-4.3701100711,2.9228108889,-1.1769186525,-1.7555736257,1.743422015,0.050507842,-2.1077983626,1.0618474122,1.2356636554,-4.1775929174,2.1437125326,0.5876162409,-3.317484671,1.1192505923,-2.5483796404,-2.8077268522,2.2632268488,-3.1642899766,-0.0434505981,0.7842446135,1.0775614035,-3.6959351374,3.1363151686,0.8956421889,-1.8321332911,0.0443352457,-1.5615891848,-1.607667369,0.4783967246,-3.723095641,-2.6091850556,0.3756220262,0.4337007161,-2.6932716451,3.3618421749,0.5466409105,1.3094345655,-2.179879546,2.5379936392,-0.3249457263,-1.922854722,0.4666364158,1.0339666983,3.371035699,0.0965249205,-1.9202836279,2.358833022,-0.7407037569,-1.4410627632,0.8753691601,-2.8203236712,0.6642172458,2.4101667384,-4.4668161441,0.4889547223,2.7012781756,-3.4988656812,1.2781689389,2.3059406498,-4.5808939486,0.2134493677,1.2909057941,-2.4857154979,2.5957992539,0.6464693037,-2.5047416899,-0.6318886149,1.28047993,-2.8434946958,-0.8753327739,1.2653556037,-4.6722857653,-0.4548610343,1.0278870063,-2.3946230924,1.6211732943,-0.2343269169,-2.7862461461,-1.1900118253,0.3581516984,-3.6339290284,0.1399775406,1.579966053,-5.3530747721,0.896163803,0.2447893703,-2.927768645,0.048094175,1.1878714687,-4.0975146648,1.6783291558,1.6041871042,-4.114350489,0.329671185,1.2689037495,-4.3650490526,0.7759779558,-3.5014977233,1.2870720984,-3.9819143758,-3.4014515962,3.2046119293,-3.6998327674,0.7566387429,3.2496926383,-0.2610469347,1.4537287513,3.2933623098,-0.7787805371,1.7182601294,1.7031799896,-2.6194070922,0.0562800374,2.2195850366,-2.2052944489,-0.2654279464,2.2404358038,-1.5563700886,1.6884825972,2.2343982159,0.5749137198,-1.5840937692,1.813691847,-2.3415471383,-0.0791785089,1.2651305765,-0.953890352,-0.8238542313,2.3010323859,-1.754104989,-1.5355220476,-2.193146537,-2.4144957219,-2.81804034,1.7008897351,-2.2298481591,-2.1941859597,1.6703285894,-3.7216998817,0.1618891315,1.4727153256,-2.6002874926,-0.3343528018,1.6904424388,-4.0254257335,-0.634463583,3.1584136606,-1.7084313927,1.2156814104,1.5812310335,-1.4741084667,-0.72450149,-1.4427375196,5.4514268126,-9.7065560225,0.0696933333,5.2927997288,3.0916497414,0.223557064,3.4518339926,-16.9967047246,2.8945144346,3.7396878107,-14.0391411043,0.2315697128,4.1853734368,-7.3849766958,6.6539880709,1.3762836477,-6.6717724091,-2.1879588913,3.57925775,-7.8119840735,-4.7429607897,2.365554005,-14.8353695233,0.0470078254,0.7592266896,-3.8525877599,1.483594271,-0.5928690211,-7.6495796454,-5.0556648104,3.5119492923,-10.8561200992,6.1144519845,1.4589977944,-15.0920460163,4.3101917072,1.3199523123,-8.7110558915,1.3672157116,4.1941818358,-13.7335589698,5.7906052912,2.8211899859,-12.2207442743,1.4900710848,-3.0006412826,-7.6091128591,0.5734129329,1.3676504471,-3.6692365347,-3.3761066642,-2.6538621717
biasActivation=1,1,1
[BASIC:ACTIVATION]
"ActivationSigmoid"
"ActivationSigmoid"
"ActivationSigmoid"
