encog,BasicNetwork,java,3.2.0,1,1379965397314
[BASIC]
[BASIC:PARAMS]
[BASIC:NETWORK]
beginTraining=0
connectionLimit=0
contextTargetOffset=0,0,0
contextTargetSize=0,0,0
endTraining=2
hasContext=f
inputCount=78
layerCounts=3,13,79
layerFeedCounts=2,12,78
layerContextCount=0,0,0
layerIndex=0,3,16
output=0.0591566363,0.9130100141,1,0.0000155352,0.9999999927,0.0000000006,0.0000000619,0.9738271259,0.0000002025,0.0000000997,0.0000000391,0.0000000447,0.000020717,0,0.0000000018,1,1,0,0,0,1,0,0,1,0,1,0,0,1,0,0,0,1,0,0,0,1,0,1,0,0,0,1,1,0,0,0,1,0,0,1,0,0,0,1,0,1,0,0,1,0,0,1,0,0,1,0,0,1,0,0,0,0,1,0,0,1,0,0,0,1,0,1,0,0,1,0,0,1,0,0,0,1,1,1
outputCount=2
weightIndex=0,26,974
weights=-0.6597105254,-1.0448174984,1.6759672084,0.3012329648,-0.6762982595,-0.7653368771,1.3561860462,0.4333221036,0.0151353014,-0.1351339021,0.044643414,0.62301158,-1.0631597783,0.5860981898,0.9341255521,-1.5341132423,-0.2233939371,0.9527215409,0.6841727176,-1.5166039267,-0.3517787963,0.2274075641,0.3489686977,0.0875667159,-0.362698479,0.4890259128,0.3326440237,-1.3706081608,0.7814192975,1.8797105372,0.0877670366,-0.7327958621,-0.0318848617,-0.0428035115,-0.3921800747,1.0082171859,-1.092059641,-1.305271431,0.1305761836,-1.3696950771,0.0071604313,1.017118703,-1.5517625129,-0.8350233345,2.2828265397,-0.4686871845,-1.0638954329,2.6107025427,-0.1092947699,-1.3192715139,2.1147256759,-1.5203796807,0.1711470415,1.019140804,-1.0317324061,-0.4310652607,1.1720829096,-1.0307225472,-2.2662510809,0.9691355537,-2.2643885395,-1.2450878277,1.2493519159,0.0137966734,-1.1637975248,0.6383253448,-1.845150927,-1.6226932279,0.4321877271,-1.0383164305,-0.1988882518,1.0474290496,-1.8362873054,-0.6354011529,1.4211445784,-2.4968163291,-0.5276974324,2.3103763644,-1.170423045,-1.6678181679,0.5740163109,-2.5286142283,-1.7637717111,0.2329594943,-2.7485749369,-0.2652072962,1.3486875295,-1.701308657,1.2547293347,1.3059654472,-1.1188144577,-2.3990662127,1.5659105342,-1.575298108,-1.0568399699,0.4008671343,-3.570202188,-0.040682354,0.8350919325,-4.5715519047,0.4431080409,0.9130471068,0.2484254747,-0.6747814009,-1.0465643976,-6.3475417712,7.347230953,0.1536297017,-5.7901310546,6.7214326669,-0.9667278491,-5.8009950328,6.1222997058,0.3014959455,-5.5481856949,6.6547069047,-0.2235713362,-6.9392989121,6.2932615199,0.345279072,-7.3137794429,7.6402282435,0.4452017116,-5.9614950686,7.1444049167,0.4481386105,-4.8245072425,6.1714904208,0.2408280823,-5.6370762766,7.5655049528,0.0771507289,-4.4321450978,7.4604816259,0.0582889107,-4.8392489839,7.4065714411,-0.8634137029,-6.7980494654,4.1997915411,0.6057156325,-6.6054859088,4.8532160538,-1.1692547573,-5.9623241399,4.5131940481,0.7589058337,-5.3925951785,7.7650408957,0.8712695397,-5.7355099117,7.3486190741,0.14664779,-5.9482301279,5.5431397398,-0.0390227986,-5.7271032243,4.8833411472,1.6302028046,-6.0775679434,6.2110697578,0.3020895806,-6.084695009,6.8407707898,0.4061572393,-5.78913938,6.0365379349,0.3005929968,-5.9018946745,6.7423578831,-0.1738723814,-5.1036225214,6.8215344541,0.5447966556,-5.7652742842,6.134671592,0.3039118948,-6.2202876494,6.6775969813,0.5808993552,-5.1437623234,3.0509293588,-2.8213822661,-3.6739656223,2.5510337899,-3.9646353977,0.704681803,2.9512770189,-3.3522891127,2.4257574936,3.8995608417,-3.3889399387,1.9554287865,3.9897445536,-3.5538493496,2.1591013394,5.5807567085,-5.9140834724,0.0107744801,3.0501217598,-4.8083875505,1.5690127675,2.6966637453,-4.4701925003,1.1429173599,1.5225663643,-4.5119132969,1.8373835011,4.2582878307,-3.4661766437,2.1872193722,4.419602554,-4.3690435718,1.9010808946,3.6512895818,-4.9357275686,2.0229853571,2.5492772839,-3.8030823864,1.5242785164,1.7406962693,-4.5126941856,0.5529348362,3.9383987427,-3.0877794844,1.6025719747,4.3490222808,-3.5649089101,0.6658790724,4.5825120222,-4.2412460008,1.7840860449,4.455891889,-3.1974319368,0.7815134939,1.6157935607,-3.8748275756,0.8573787512,4.4406844558,-1.9418608202,1.1685997022,5.1712729452,-2.9434077707,-0.4097075511,4.7953833956,-5.9429103968,0.358153002,3.8414089076,-4.550181609,0.5736348345,1.7893544501,-3.0507698266,0.285335509,4.7941300192,-3.834545081,0.6355313471,4.7797313263,-5.4517413589,1.0488627239,1.1010690828,-4.6010935215,-4.5904084545,-6.4346358825,0.7281080427,-1.838627797,0.8382363346,1.8183844116,-2.5806367751,0.9391017145,1.4631493774,-2.7359009506,0.5641041998,0.8282347475,-3.2706587471,1.2028913381,1.3694041812,-2.530247985,1.1001020258,2.3801997233,-2.9679439036,-0.2069342986,1.0246056454,-3.1942393771,-0.1034979634,0.9154558964,-2.276754139,-1.8192714383,1.4356712647,-1.9933340794,-0.4481744078,1.6248432781,-2.1510834371,-0.0277772463,1.0513627304,-2.6136610445,1.0891646979,0.7199312594,-0.8809340349,-2.202317024,1.4108667287,-0.7948984066,-0.6814300232,0.7153374996,-1.1392668109,-0.7439203391,1.0952735135,-2.1033518091,0.113722538,0.903799611,-2.1146504384,1.2719556761,1.9426781828,-1.1973309843,0.1510151442,2.2161988411,-0.7276370267,0.3408353032,1.9205964955,-1.0311784412,-0.4567638594,1.92336185,-2.1675366724,0.8070978756,1.7008390039,-3.7571222783,0.6532539853,2.5476647873,-2.8615724427,0.699685529,2.7252214875,-2.4255043408,-1.1496533029,1.776741741,-2.337585928,0.1161184708,1.7626275865,-3.4842453796,1.2589511183,1.9450908847,-2.4083894596,-1.596794977,-1.5986553345,-4.1107749151,3.3230735415,0.8028085657,-1.1717737734,2.9269609965,-0.3254885559,-2.3432842573,1.0210576042,0.082318856,-3.6290303024,1.3017148596,-0.0641716029,-1.8063879836,2.5654432589,0.7368306695,-2.1129980626,3.4235142718,0.5552104065,-0.8831875534,3.0171550771,-0.2895928749,-0.7655380256,1.5985027292,-1.5393576319,-2.0480302568,2.3160325276,-0.1126382234,-2.1922720719,1.5074081614,0.5100355793,-1.5206903953,2.2043550333,-0.2559572856,-0.2160700106,2.1561974804,-0.0137494063,-1.4925057454,1.6315436201,-1.1349386662,-1.7617222239,2.4929240953,0.3835745084,-1.7004779092,2.1860107049,-0.9285224877,-1.4078964264,2.873565326,-0.8690453839,-1.3989473428,2.3799791398,-0.7438892952,-1.2636071965,3.014382918,-1.476223969,-1.8839130268,2.480856927,-0.7474524736,-2.1790725137,2.9681433603,0.5631493431,-1.9285740049,3.0848141774,1.2672994593,-1.2985969212,3.084803301,-0.3915277028,-1.4054796094,2.1231917124,0.6985314365,-2.3657854668,2.0148015977,1.1797567523,-3.0056392625,2.6024019702,0.590301026,-1.4826324322,2.0400806053,-1.1761086022,-2.4495294432,-1.7047598483,2.9974789284,0.0884257583,-2.3292848238,0.8666101253,-1.4271797234,-1.8331402046,0.4403109785,-0.4354389562,-1.4709779034,1.7897151861,-1.3106519539,-3.5221084241,3.4387119855,0.1583395597,-3.020353991,1.1399515721,-0.5977893127,-1.8927760746,0.3425101807,-0.2183138153,-1.4021629695,0.1852419458,-3.3687890055,-1.5583349127,0.6141807098,-0.8138226905,-0.7203249839,2.2351356411,-1.6347722076,-2.7646121563,1.3144156852,-1.1362480995,-3.7067251744,0.0352152295,-2.1585693033,-2.7715234459,0.3321942972,-3.9803232279,-2.4172905149,0.4034149283,-2.5208816431,-2.1828368915,0.9317992041,-1.4750134636,-1.7019008429,1.9680584175,-0.8632621017,-2.1347859916,0.1412753753,-2.3490823651,-2.0312973415,0.6027127051,-2.796786306,-2.1467486789,0.1597707069,-3.1919662964,-2.0895793786,1.5748069017,-0.56128349,-2.7012430095,3.1703100548,0.8398528703,-1.5946239847,2.3247798462,-1.2520909301,-2.2190715988,0.9360206468,-1.1279268731,-1.5904610081,2.0878433566,-0.2744319849,-4.1440420034,3.6845594621,0.8797774992,-0.7723188975,1.1073359036,-0.2119266269,-1.4869249465,3.688485581,-4.9133946708,1.1873281515,2.2002422711,-3.4293591797,2.6025911609,3.6541579803,-2.815139033,0.9404158705,3.9230878629,-1.5927650937,0.6099882849,4.5648090669,-5.3636082503,0.2200592651,2.6352552206,-2.9843201702,2.8835660013,1.7515432589,-3.396062082,0.685029489,0.4661993687,-3.2613757958,1.2218389655,1.9321539737,-2.5315748569,0.969739531,3.5338008532,-2.9411714614,0.5063870498,3.0549370148,-3.584340678,1.614633461,1.8630127924,-3.9263608284,2.0378906137,-0.2087275783,-3.5637444869,1.8660140896,2.5581858255,-2.7544403326,0.9311638255,3.0196662571,-3.2379513619,1.7770077464,1.3807938115,-3.3141788201,1.3116195067,0.9981406833,-3.7562680706,2.2077156098,0.4098684739,-3.8322436929,-0.4299943971,2.9902837159,-1.6622255851,0.6591638774,2.8872590068,-2.8125962183,0.8766248344,1.3574308008,-2.6920496628,0.5783496428,1.7528839873,-2.90349641,2.1352553699,1.111802729,-2.5874603744,0.2567370662,3.1019125591,-2.3334448547,1.8370667436,3.2310282393,-3.2547433428,0.0684061099,1.4318293234,-2.6362818602,-2.7916454567,-1.8138262745,5.7627404206,-6.5788525411,0.6455307969,4.7476059039,-3.53258624,1.4573089635,2.2712197279,-4.9989880669,0.2934243051,2.5387337584,-4.384429472,-0.0606329204,3.3916309132,-3.0089309171,0.5258997669,4.3517507549,-4.0268614729,0.8100341124,2.7775107362,-3.3214706363,-0.0536930042,0.4654945804,-3.239090591,-1.0322011575,1.8308525608,-4.3574390184,0.5609873555,2.4157477354,-4.2272257083,0.2898513108,2.8994584712,-3.8143708871,0.6853930252,2.042598904,-1.7064750923,-0.3883957049,0.4921895814,-2.3049193523,0.203098243,1.4765051537,-3.3584929236,0.4793679849,2.709629581,-3.6011558347,-0.6122162096,2.3711869064,-4.172345299,-1.1882056093,2.3738338912,-2.5022374714,-0.2021806274,0.8765736949,-2.7968310876,0.1677912271,2.445080028,-3.1054987913,0.5961915007,3.3150301894,-3.8071621788,-0.1962667506,2.3554401831,-4.2000101874,0.0420896895,2.1695496265,-3.3618550712,0.5644721525,1.7886712708,-2.8497056235,-1.0900078924,3.3581225291,-3.0275748661,0.5016452835,3.9946272554,-3.5232804623,1.1264791534,1.997804209,-2.1851880063,-1.9249106552,-1.4670854417,-1.7529617997,0.997708557,0.4223505914,-1.7795115404,0.8086277261,0.4371367463,-0.9869485828,-0.2184774781,0.3218102644,-1.4991692725,-0.3821623113,1.3466304299,-0.9696369074,-0.29815167,0.9159961507,-1.0740826031,0.6495431347,1.0531267767,-0.5293083416,-0.2824010348,-1.0159368208,0.2003224342,-0.3209333737,-1.2559937986,-1.4803981197,-0.5214960877,0.0441023667,-1.7375726446,-0.0837436832,0.3085865961,-1.2037256923,0.1469944649,0.3617131755,0.5041470052,-0.1421144861,-1.2304470561,-0.047524342,0.0910847848,-1.3893052744,-1.6277577462,-0.1567932845,-1.8669423344,-0.8691069509,0.0761392337,0.0034395799,-1.9052453504,1.3953531456,-0.419806014,0.2983376799,0.5305952755,-0.3307492944,0.2431241497,0.0459486374,-2.0976790666,-1.6717503433,0.0161814112,1.1096911111,-1.7261291396,0.8348679375,0.9892522021,-2.7303763015,0.8108760652,0.2573241817,-0.404989445,1.0512446535,-0.1697220366,-1.1636925963,-0.2167330819,-0.0427517162,-1.7121866065,-0.0908834607,0.6830397932,-2.1014591189,0.9501098897,1.174948207,0.0795058668,-0.2313304952,-1.0107052165,-1.7934702104,-4.4750250522,3.5652301724,0.3918446406,-2.3732455727,3.017417877,-1.0601578232,-2.6581997761,2.139288513,-1.5647223286,-2.5199042213,2.4086039274,-0.0322988797,-4.3571600455,3.4762280242,0.7571798766,-1.823618136,3.0168822878,-0.3144765073,-1.0574543275,2.208539784,-0.8272975909,-0.1154885328,2.2258460712,-2.1264300012,-1.2260089643,2.4004062813,-2.0303481368,-2.3690010828,2.3756728554,0.4994835372,-2.1842722219,1.7468225511,-1.1992181277,-0.9911741024,1.0150075108,-2.0349395408,-0.0999412832,0.4729053883,-1.5560503721,-0.8777325979,0.4374296963,-1.5907080958,-2.2393869919,1.4585999197,-0.2396270408,-2.4698863801,0.6587564851,-0.3773239558,-1.8744658725,0.2710635775,-2.4505192643,-1.1555063128,-0.2445684401,-1.8118495365,-1.3943237289,0.9540007549,-1.8745397083,-1.6205112755,1.6214103818,-0.0436249596,-2.2053543243,1.7722477074,0.6185030424,-2.3460308686,1.347405295,-0.3558490947,-1.3850320287,1.4760103792,-0.6071736257,-1.943279786,1.9251792014,0.3296560898,-2.7865782806,2.7848609069,1.4424467905,-1.0099063315,2.3480556749,-0.2930938986,-1.8539043218,-2.300310754,1.4120773949,1.0843085353,-2.0413787531,0.3671972468,0.412583364,-1.3182906792,-0.130385023,0.1336446769,-1.9771293197,1.4370286713,0.6030805252,-3.0695706126,2.0236037514,1.2473470596,-2.0297668091,0.4113619377,-0.5526281952,-1.7141138191,-0.3335312571,-1.2435475615,-1.9551642078,-1.3178973239,-1.4147977846,-1.4668703521,0.4071094747,0.4484231378,-2.7270524056,1.2010780885,-0.0408572256,-2.0916768686,-1.070224668,0.4641701776,-2.0262661636,-0.6369079182,-1.4695596158,-0.2667628895,-0.2144316126,-0.4872927748,-1.8555385229,0.3968598886,-0.606151428,-0.9074788801,1.2081824941,-0.0748189011,-2.3199330395,1.7703993021,1.062401513,-1.4842565011,0.5964038709,-0.2328625156,-1.6373720664,-0.8665034917,-1.6070424464,-1.6007999139,0.4936670551,-0.2924832049,-2.214574913,1.501546125,0.5073850182,-4.0608406091,3.5390630085,1.2170022361,-1.9271524762,0.9948490704,-0.6280346237,-1.8213062957,0.2850767494,0.3677943849,-1.4298021325,0.9139218308,0.8427560892,-4.1374439974,3.3963575352,0.6363390019,-1.036177017,-0.0116457927,-1.3262309946,-1.5118760031,5.2779865365,-6.4034437739,1.3198452294,4.555574302,-4.8786980499,1.1264786111,4.2001052104,-4.6988713701,0.8937696439,4.7572841186,-5.4193960765,0.0123689238,5.4463791338,-5.6653390026,1.154171238,5.0836447189,-5.1657283511,-0.1927835302,4.8573829567,-4.9005168356,-0.3912232462,3.1184519907,-4.8833998773,1.163742485,4.077186588,-5.7210981173,-0.5131488511,4.2225061724,-5.4609544623,1.6987670278,4.1425599061,-4.4876423894,0.7038522517,4.4629366605,-2.8911929878,0.587654345,3.2137089407,-4.6387650695,0.3039446266,4.2532354409,-3.9773844288,-0.1511505956,4.1070615632,-5.9045031391,0.8452522025,4.0728678332,-4.6236727887,0.5343814312,4.2120877937,-3.9476680705,0.4436592472,3.1820879025,-4.7462567955,-0.0037319711,3.2784867799,-4.9736573222,0.9596474598,4.0338498963,-4.9875089435,0.8862412036,4.3651144205,-5.5699888576,1.0767077134,4.2014429285,-5.0404329452,-0.9201301184,3.8424812934,-5.5256358075,-0.8094114103,3.2683583001,-5.2730287944,0.0412922756,4.6726214753,-5.2190477516,0.5942701993,2.9966625193,-2.5487239227,-1.4085621184,-0.2270147435
biasActivation=1,1,1
[BASIC:ACTIVATION]
"ActivationSigmoid"
"ActivationSigmoid"
"ActivationSigmoid"
