encog,BasicNetwork,java,3.2.0,1,1380483690944
[BASIC]
[BASIC:PARAMS]
[BASIC:NETWORK]
beginTraining=0
connectionLimit=0
contextTargetOffset=0,0,0
contextTargetSize=0,0,0
endTraining=2
hasContext=f
inputCount=51
layerCounts=3,9,52
layerFeedCounts=2,8,51
layerContextCount=0,0,0
layerIndex=0,3,12
output=0.9523031837,0.0150626819,1,0.9999999995,0.0000000005,0,0,0.5238287174,1,0.0597308789,0,1,1,0,0,0,0,0,1,0,0,0,1,0,0,1,0,0,0,1,1,0,0,0,1,0,1,0,0,0,0,1,1,0,0,1,0,0,1,0,0,0,0,1,1,0,0,1,0,0,0,1,1,1
outputCount=2
weightIndex=0,18,434
weights=1.7094146536,0.8300279744,0.0803144602,-1.4467114627,1.1519328277,1.6522089059,0.3942340979,-0.6468466522,-0.9945682015,-1.0864567713,-0.7264344512,-0.0243984305,1.4734815788,-1.1343271748,-1.9953029276,-0.0156503298,0.6346879123,-0.5034700618,9.4379729129,-9.1956931316,0.8929487434,7.9384347674,-7.9449462676,-1.3829997751,7.9277594544,-8.4331404138,-1.3791185733,9.6569196199,-9.0133443036,0.7035261802,6.2151112979,-4.5886913551,-0.265396093,4.1046223964,-4.1487337285,1.2799921636,2.5304849683,-5.6359712386,-0.5980458262,5.3638550867,-4.4319639951,1.4232220276,5.670413345,-6.0854513225,-1.9698233879,3.3416750965,-4.6528170017,0.3652250241,2.2111132678,-4.6259305201,1.1806252278,3.5512155727,-4.4436408097,-0.0055156003,9.1272002382,-9.6739033708,1.2729297266,6.3437362542,-4.8645935617,0.4360614654,5.1567743779,-6.4575105619,-0.2026389409,8.2628793479,-7.2990182926,0.7450247904,0.9251179965,-5.3775400223,-5.1594461788,-6.0224660598,-3.4316143634,2.2288371302,0.6801553475,-3.8937104228,0.7207354469,-1.6849550743,-2.5923789381,0.4052687462,-0.0753912525,-3.9544356667,3.0669519001,1.0231467457,-3.2376924428,1.3741410499,-1.441363341,-3.3968549567,1.3765954689,-1.9761500987,-3.3689758279,0.7687595476,-2.3340576036,-2.9744808327,0.6804857301,-1.3509255814,-2.7910447638,1.2863508571,-0.4667046003,-3.2646355185,1.5437158935,-2.0130210696,-3.183881317,1.3378767852,-2.1352121494,-1.7371499438,2.4232147095,-0.8008053686,-3.4665017895,3.5210953417,0.407571671,-1.7865911332,0.7558298363,-0.722610016,-2.4591337814,0.9201493331,-0.6239591082,-4.2875444567,3.7142782821,0.3514133456,1.3030840438,2.3388365301,2.1232003016,1.0917818072,-5.1385982664,3.6108150714,0.8699382377,-2.4707898267,3.5071894341,0.166358148,-3.9492667031,2.706781385,-1.2828311586,-5.5475689677,4.5752664662,0.0488986474,-2.6002349816,3.1153316665,-0.6498330631,-3.4262656784,1.9322419669,-1.2655314652,-3.5389799799,0.6694945761,-1.3347772214,-3.2475386583,2.832139315,-0.3185565317,-3.6677364804,2.4762498342,-0.0184968005,-3.4667585685,2.3189973046,-2.0240445835,-3.4355388068,1.5936078649,-0.6396015701,-3.2336282314,2.0937780776,0.5494256772,-4.4219515506,4.2106145225,0.2248384783,-2.9894476049,3.1240477659,-0.7856615269,-4.2129556036,2.7116699341,-1.0497765276,-5.2237617845,5.2778272011,1.3386524087,-1.1554186748,3.19237788,1.1107602013,-1.5349529312,-7.155729358,6.6127570966,0.4423725436,-5.5928304186,5.4381664482,-0.9419148908,-5.777949643,5.3993360039,-1.028811794,-6.6155278873,6.4884535177,0.7269390676,-6.137492186,4.3513070449,-0.3566908099,-4.8092330798,1.8660726921,-0.9909860406,-4.1015512979,3.9389165022,-1.6632627754,-5.04824438,4.6579633207,-0.0456819091,-5.0516818897,4.821299042,-0.8278264221,-3.7973951974,3.5702856879,-0.2111123947,-3.8992292887,2.9446907938,-0.469585666,-4.8210793919,5.0157391034,-0.543909696,-7.2366785531,6.8850552419,0.199302321,-4.7124324422,4.846710389,-0.0009830843,-4.7768679522,4.4826810708,-0.1816070852,-6.88659878,6.1801455454,0.612020189,-1.3650190081,4.1231861234,1.1453586935,1.4644353378,4.6788456734,-5.7990449128,0.6368137433,0.5746022168,-2.4061874106,-1.8638663453,1.0718850421,-2.5763628455,-0.3717012886,4.5244613574,-6.090992575,1.1309276228,0.2054774893,-3.5147229262,-1.274844641,2.0612131162,-2.8554171333,-0.4451051486,2.0759056838,-2.7313275415,-2.752365832,1.6940539074,-3.9268357281,-0.692943818,2.240054767,-0.4771042772,-1.8781776947,2.6700454239,-3.5164041879,-0.5379691097,1.819263862,-3.1149341976,-4.0035796537,1.6115855162,-2.5170477813,-1.8342434767,4.4608385795,-6.1461092402,1.0211751598,2.4650581216,-1.9862825234,-1.1304617636,-0.2367231058,-3.2202984452,-0.4297365179,4.4269687663,-5.833198688,1.049842504,3.1992453363,-3.5773706518,-1.1088149101,-1.7209648426,7.8821270015,-7.4563750105,1.239192814,4.8685972807,-4.587155172,-0.34508936,4.8033333914,-4.4834396935,0.4925279035,8.2099940982,-7.3278793645,0.4147897804,4.9670840328,-3.5054712111,0.1524636693,4.1636612437,-2.1636995912,2.1133562932,2.7611183011,-2.8646698912,1.3075911284,4.7773152463,-3.6073319676,0.0346889605,4.544384997,-4.3259582637,0.1811085652,3.1777778826,-2.7076231353,1.5202432506,3.541074287,-2.7346057166,1.1039524965,4.2293589839,-3.5100862877,-0.4692914696,8.0619765278,-7.387930096,0.2081443944,4.175704763,-4.6203309519,0.1157477492,4.9517014107,-3.5193438573,0.7322668254,7.8329063602,-7.5441844983,0.2744682449,1.1633675785,-3.8504579345,-3.9410551357,-5.1523633449,2.0287369903,-4.9100453981,0.3988671175,1.2460324075,-4.6051650157,-0.1523665342,3.4338285144,-7.3912805596,-1.3900757981,3.299069732,-6.1032473063,1.0536671143,1.8217160639,-3.8874241742,0.0380831818,2.1072743947,-3.3014723182,-1.4630211304,1.4619625022,-2.9539611907,-1.7021128012,2.1804548882,-4.6947617797,-0.1878129899,2.2713241742,-5.8071820667,-1.5556002358,1.7058124788,-5.3868180603,-1.0494901295,2.0786469967,-4.8982167863,-1.8827512078,1.9727170104,-4.5254195669,-0.7518932483,2.3630262161,-4.8012411154,1.0005403263,2.6093170176,-4.8654094709,0.7712069054,2.3364501706,-4.7870977321,-0.0908973176,2.0092824527,-5.3799119506,1.2130891418,-3.9070083901,0.8546309281,-3.1002734653,-4.0399118886,-5.3152933536,3.8865551744,0.6790515001,-4.5926688509,1.6205345474,-2.0687029219,-2.3466498018,3.3176762154,-1.1263087109,-6.8391919383,4.413346106,0.6941426932,-4.052619292,2.9368819428,-0.4015865409,-3.5934472412,1.9764589936,-1.38062852,-3.7535999164,1.51245228,-1.4652173214,-4.2073170885,3.1178787545,-2.4416178106,-3.2625081902,2.4247064238,-0.4555483622,-3.6858769216,1.6345311352,-1.3908891703,-3.9209435873,2.7009605195,-2.0714143669,-4.9711502015,1.5744983418,0.3610387993,-4.8948801256,3.3566769933,1.0051855946,-5.386395602,1.6374087187,-0.2545402081,-3.8177914994,2.9200523642,-1.5599384447,-4.686450811,4.0719543038,0.9497904095,-1.9567353091,2.4333061027,0.7095266875,0.5005771259
biasActivation=1,1,1
[BASIC:ACTIVATION]
"ActivationSigmoid"
"ActivationSigmoid"
"ActivationSigmoid"
