encog,BasicNetwork,java,3.2.0,1,1381911521817
[BASIC]
[BASIC:PARAMS]
[BASIC:NETWORK]
beginTraining=0
connectionLimit=0
contextTargetOffset=0,0,0
contextTargetSize=0,0,0
endTraining=2
hasContext=f
inputCount=111
layerCounts=3,61,112
layerFeedCounts=2,60,111
layerContextCount=0,0,0
layerIndex=0,3,64
output=0.0184371244,0.9498716601,1,0.4630389776,0.0000026262,0.0019946394,0.0000000004,0.002405673,0.0000027531,0.0000060198,0.000000054,0.0000000062,0.0001084258,0.0018388795,0.0000150896,0.0077058406,0.0003552428,0.0002603223,0.0000001727,0.0000000004,0.0020927542,0.0001325196,0.0000000084,0.0039563613,0.0000003431,0.000465191,0.1308970653,0.0000000043,0.0000001154,0.0026759756,0.0000000779,0.0000002312,0.0000019971,0.9995719156,0.0000081823,0.0014290266,0.0004037623,0.8396957447,0.9999971094,0.0000008661,0.0029635168,0.0062089293,0.0024037824,0.9999980826,0.7199750474,0,0.0254891322,0.0000068488,0.7612436876,0.0000008021,0,0.0002641666,0.0000000017,0.0299285443,0.0037044639,0.000000544,0.0009344942,0.0000026523,0.0052723198,0.0000000067,0.0001148484,0.1519337234,0.0044542099,1,1,0,0,0,0,1,1,0,0,0,1,0,0,0,1,0,1,0,0,1,0,0,0,1,0,0,1,0,0,1,1,0,0,0,1,0,0,0,1,1,0,0,1,0,0,1,0,0,1,0,0,0,1,0,0,1,0,0,1,0,1,0,0,0,1,0,1,0,0,0,1,0,0,1,0,1,0,0,1,0,0,1,0,0,0,1,0,0,0,1,0,1,0,0,1,0,0,0,1,0,1,0,1,0,0,0,1,0,1,0,1,1
outputCount=2
weightIndex=0,122,6842
weights=##0
##double#6842
   0.2210328954,-0.9695261631,-0.2331771556,0.6785790413,-0.0891885688,0.536170934,0.6951554266,-0.6333441563,0.0879676315,0.1473596662,0.4975813373,-0.2170655764,-0.1229096004,0.1354224367,0.1816018146,-0.9597857389,-0.5112956303,0.0802463066,-0.1610308076,0.7027406013,0.0713246894,-0.314336502,-0.5181318455,0.5029372313,-0.3944695516,0.4212589393,-0.0904513991,-0.6971266584,0.9370554123,-0.2775222175,-1.158335713,0.0528661691,0.2194053962,0.2239552703,-0.3080109282,-0.9956343373,0.6226170038,0.3987120704,0.0586775313,-0.2409539543,-0.5714959838,-0.5532534226,0.06191724,0.148241307,-0.1088260189,-0.3801960937,-0.1714431688,0.5194504409,-0.274148987,0.1811242662,0.5434060714,-0.2842577349,0.0591939507,0.2286994004,-0.8369709641,0.1325640004,-1.0255260784,-0.249005705,-0.5622731125,0.0690970851,-0.4070005198,-0.1981974658,0.9519413132,0.3083843319,-0.7683974687,0.0536005612,-0.2356601767,-0.6142277833,0.4844296298,0.007589942,-0.1176907511,-0.497637127,0.1708082363,0.0136923628,-0.2119174442,-0.2044355018,0.8876975757,0.5678309608,-0.2800782886,0.1843540881,-0.8413032514,-0.049392573,0.3055159069,0.4644160874,-0.8430581398,0.2843683328,-0.2473384941,0.0839523221,0.654934569,-1.0413001481,0.327193658,1.037637612,0.0266436158,-0.2703429927,-0.2047137052,0.3609446888,0.5587310826,-0.6195305841,-0.2106255843,-0.17833379,0.0687882389,0.5009957578,0.6502115965,-0.0428773415,-0.141364664,0.0809705351,0.3968361266,0.1751394245,-0.7783131582,0.3354982755,-0.1549814473,-0.4824209768,0.174549225,-0.2813994592,-0.0594880553,0.7715979959,-0.2832558181,0.8452044655,0.1521423435,0.6303516913,-0.2350223199,-0.0996917194,-3.1382941318,1.278418319,0.5143128419,-1.731056649,0.723604726,0.6595200186,-2.1168564799,1.1529465626,0.1078919854,-1.5507008004,0.8902449557,-0.0870268163,-1.3814433927,1.4615505426,-0.7418064811,-3.7858729521,1.6061991823,0.9360322482,-1.5442207474,0.2910363278,-0.0512641353,-0.5980434873,0.8845003786,-0.4550306315,0.0154277088,0.5766398419,-1.5487636697,-0.7967998462,0.2592144336,-0.3207810675,-1.0879919199,0.4149152765,-1.3810184487,-1.1093146583,0.8109381055,0.6842755178,-0.765773177,0.0681226728,-0.5569908369,-0.5910440721,0.4548386817,-1.7828606388,-0.0915432005,0.1067141096,-1.0777479952,-0.2844277322,-0.5305247272,0.5373045745,-0.5492818819,-0.1649180386,0.3871117649,-2.0912149523,1.8055558506,0.359333787,-1.1599629197,0.4591047705,-0.1019420474,-0.734158255,1.2222268627,-0.6357884471,-0.2052244718,0.3561447132,-1.141965691,-0.4360417389,0.5034620653,-1.0310146502,-0.7903403872,0.2630034104,0.1377760897,-2.4342344379,0.9514865788,0.3522337717,-1.622168793,1.2022181378,-0.073229292,-0.7784094441,0.4045267893,-1.3370745005,-0.2719543567,0.8068291071,0.1416665939,0.6303309481,0.2699210016,0.0558488696,-0.5506646408,0.6990698016,-2.1551591442,-0.611764007,1.2031279398,0.7453613846,-1.788798382,0.8813502066,0.7373439374,-1.6095385824,0.6904740838,0.218068611,-1.2090549637,0.2312408076,1.4150553336,-1.3395706244,0.9776409816,-1.5487254389,-0.8742722451,0.4683966647,0.0002128843,-1.8612721989,1.2602725767,0.3924046796,-0.6280919668,0.3528824936,-1.4405390227,-1.3780184451,0.3726179144,-0.8111984674,0.3245673423,-1.1684026563,-0.4992246732,0.1367808506,-0.5967334338,-0.6399864874,-0.3725426407,-1.0779765488,-0.6156504545,-1.3563352717,-0.9952274657,-1.0897845708,0.2047674517,-0.0133047887,-0.0213019486,0.6781588347,-0.5948606329,-1.5516430977,0.8937111077,-0.3944486587,-0.692972611,-0.453203963,0.2596411903,-0.6420217375,-2.1779920087,-0.1503718274,-1.016270105,-1.3897936752,-0.2252893396,-1.0247413201,-0.7847159655,-0.1433823066,-1.3173779696,-0.124862386,-1.6029165929,-0.767727019,0.1417091375,-0.5538121373,-0.1841110656,-2.1314546404,0.5866028395,-0.3131304899,-0.5692665794,0.0558151072,-0.4705156938,-2.8464098798,-0.4280624806,-0.8854130669,-0.8934597287,-0.5633619686,0.1607585103,1.4891593457,-2.0032367048,-0.7985209739,-0.399372151,0.4960190424,-0.736659144,-1.9246593537,-0.323807961,0.2037586702,-1.4611616835,0.0666050712,-0.3393483216,-1.1765860042,-0.3541883693,-1.0916438844,-1.6937607599,-1.7764140151,-0.8202708039,-0.4990719348,1.8932704754,-0.0000749676,0.4604083475,0.5502294999,-0.4915171253,-0.5216616041,-0.148624446,-0.5200245424,0.3946856628,0.1613735138,-0.3785761267,-1.2987817991,0.061772335,-0.3310560876,-0.1790049487,-0.4160327412,-0.0447730076,-1.2936982923,-1.5546796816,1.0791960988,0.053047288,-0.2605037155,-0.4443358139,-0.4887868685,-0.9633802756,-0.3734806788,0.5011325898,0.1523828908,-0.5648463485,0.4122797245,-0.4693050273,0.357992098,-0.6703699971,-1.3387827954,0.7315003572,0.8639788804,-0.6364818717,-0.5108117454,0.0286450728,-0.969010612,-3.2962550351,2.0722843357,0.0565047782,-2.0543095854,1.0810860251,-0.5287839744,-1.6522530102,0.6865722066,0.182239682,-2.6934532011,1.2428836002,0.163897657,-2.8063044596,1.188399657,0.5228705163,-3.4423018766,3.2451368935,0.7249474715,-2.0669826339,1.1339850449,1.3398048558,-1.7116375494,0.4482883088,-1.9189072988,-1.9568810186,0.7824231984,-1.3903793691,-0.5247948914,0.1551501347,-1.8738718878,-0.540304777,0.1625753121,-1.5027127661,-2.2491567326,1.2914094148,-0.2708176718,-2.0512787629,-0.0835004804,0.2410492527,-1.2731246634,0.4449394386,-1.5973716318,-0.6600879477,-1.0326597978,-1.0625474067,-1.1111493812,-0.5230909305,-0.7400196004,-0.5121422354,-0.1691012051,-1.4670845548,-0.8613449604,0.2983636171,0.7160749021,-1.8907860413,0.8034649968,-0.3131740514,-0.2851340553,0.7450786134,-2.2089054274,-0.0065382278,0.0457162514,-1.9784150636,0.1245796741,-0.7203707972,-0.004286261,-0.8055129342,0.0855187782,-1.2847678996,-0.8646261782,0.2259933161,-0.834997774,-2.4040429517,1.861165891,-0.886574786,-1.0425081645,0.2880412067,-1.3866560983,-1.0875323571,-0.0114725094,-0.7300655718,-1.0318166434,0.0348035023,-0.8049096442,-1.318141143,0.0235951892,-1.1119587574,-0.6104130939,-1.0846965814,0.2145649584,-3.5646724576,3.0663407662,0.3483479372,-1.6711671107,1.8677060418,-0.5567579524,-0.7840289591,0.0003648556,0.2446302275,-1.108524784,-0.2469881018,1.2595234103,-1.3318932854,0.0845088098,-0.4183001173,-0.0431860673,-0.1866944163,1.0426046156,-0.5303232213,-0.4184948268,-0.7508053859,-0.7452905877,3.6147266588,-4.029388137,0.9570223107,3.3779046329,-3.6055851252,0.1569438591,3.0012960083,-1.9382465484,-1.0115467097,2.3085296644,-2.349474541,1.1518216265,3.2960711977,-1.8136733699,-0.4786072923,4.4006254572,-5.8748521623,0.8068374608,2.2723197369,-1.9419825944,-0.6194254128,1.5018791005,-1.2956204345,-1.0303074886,1.3772798516,-2.0561456354,0.3575624652,0.9799240675,-2.0926573005,0.1094749085,2.687783668,-1.1822138515,0.4492629434,2.8250602307,-1.7701879061,-0.4551050334,3.3815826409,-2.7979447744,-1.0056840579,1.3640610474,-1.7515498967,0.4659627474,-0.0688773256,-2.1461809192,0.1888193575,1.0946068996,-1.8481798739,-0.1084959916,0.8973326625,-2.0994403861,0.5361541418,2.132445444,-2.0251259121,0.0215969505,3.7428068207,-2.3609545732,0.1838675309,1.2624642222,-2.0569764614,0.3841200204,-0.1251179398,-2.0557401667,0.848989164,-0.1107930421,-2.2060884829,0.3192379804,1.2413077318,-1.6032123587,0.3740776341,2.3322953949,-2.1429576786,0.3763416752,2.2201753707,-3.2006533662,0.2433269674,1.66931124,-2.0547922853,1.15982943,0.8285163769,-2.5603780635,-0.2080351806,1.0446886,-1.9975798929,0.500089887,1.4357488687,-2.2884284337,-0.3029507519,2.4681589948,-2.3472120268,0.3279610832,2.8178785428,-3.0065198604,1.1969000626,2.0926538812,-1.9679782413,-0.9968573137,3.3666941786,-2.7360881622,1.2465297567,3.4565500186,-2.3280617686,0.408163722,3.8569943779,-3.255333868,0.3074971419,4.4328623142,-4.3143380854,1.2578440486,0.8976048155,-2.4858274896,-1.3603849081,-2.1898004079,-0.9454286862,-0.2785221659,0.351931631,-1.1198366901,-0.6157482992,0.3601759665,-0.164402116,0.0110023791,0.7286722435,-0.8987597583,-0.7019243483,-0.5394761871,-0.7911491161,-0.4613330236,0.8945370454,-1.0101881998,-0.4655668441,1.1714411361,-0.4526624702,-0.3064406976,0.5502804713,-0.9238418195,-0.3233420275,0.1084100302,-0.0056730962,-0.3138672377,-1.6384578927,-0.1305195605,0.0921780328,0.1008063157,-0.4959362945,0.019175119,0.3032871109,0.0046998407,-0.6559382065,0.4796791205,-0.9221228101,0.1870728661,0.1565065384,-0.8543621529,-0.4738507602,-0.7238858902,-0.9024730426,-0.0151780758,0.4647200902,0.7336296495,0.548497031,-0.4656340236,0.1592084522,0.8009856873,-1.1747483603,-1.3606820135,-0.6735480023,0.9531542502,-0.4915791249,-0.1872287797,0.1675187424,0.291342819,0.1414534586,-0.6515368495,0.6979931536,0.1503258924,-1.4561497211,-0.4006345584,-0.3417473362,-0.7799041768,0.3506316243,-0.1458112325,-0.6409191354,0.0123244183,0.4240582029,0.3767029622,0.127329734,-0.6214479224,-0.4120933802,0.0047156315,-0.6910565228,-0.3917453568,0.6516333344,-0.1042698398,-1.6459426424,0.0406119688,0.6929030857,-0.9935930717,0.1254498321,0.695501714,-0.4214115637,-0.0838096736,-0.7008554111,0.8106860306,-0.7952380013,0.3639545464,1.1701183888,0.1528528928,-0.1638128806,-0.3204047869,-0.2912213753,0.3333268856,0.2392947767,-0.145847377,-0.2054478402,0.5185697572,-0.0462560883,-0.2657586812,-0.6679403041,-0.3701905412,-0.2536592558,0.9117462672,-0.6939516956,0.0775006199,-0.9182082671,-1.7250871163,2.6197194166,-4.1403301361,0.2679170274,1.8138339047,-2.8695795873,1.4239298762,1.7424001498,-1.7278568203,-1.6697833365,1.4273769839,-1.4260893794,0.3460829583,2.4891921742,-1.2177465227,-0.2827989626,2.7808297449,-4.7728888331,1.4419144493,1.6319319983,-0.8264345811,0.1902015352,1.2181289092,-1.8477503492,0.0460184889,1.1532735636,-0.5745356214,0.8520654371,1.253953915,-0.29898452,-0.6527202999,1.696832275,-1.2013965848,0.0360269572,2.0686711042,-1.5100215357,-0.2804141826,1.4441133303,-1.9056294913,0.0802673095,0.7995590916,-1.3888374382,0.8172485471,1.1802440717,-0.9413062251,-1.6305318298,0.2898727944,-0.9571495528,0.2496403326,1.2075613008,-1.7196282218,-0.3230989454,1.9251058805,-2.0644419266,0.0215097459,-0.1556335119,-1.4674823815,1.2888589928,0.8959678892,-1.3488546645,-0.235197403,1.5567736108,-0.5452954246,0.9406941786,1.3055094298,-1.1243239767,0.3524097919,1.3321299538,-1.5029428613,-0.9081723963,1.3313377717,-2.4549594736,-0.1491320435,0.3051094553,-1.6816294334,-0.2530947877,0.9922061927,-1.354808596,0.4941503068,1.2685235066,-0.7422779018,1.2511858048,0.9431489192,-0.9700605187,-1.0847041651,0.8088940015,-1.1661951363,-1.1938669958,1.4887526456,-2.3978822822,0.217430083,1.207079303,-2.3675914974,0.1969071356,1.0464931797,-2.7443109277,-1.6493685902,1.7922575858,-1.3250218358,0.0795424553,1.4400370722,-1.5899760472,0.4491566675,1.9018940518,-1.9535623237,-0.0846333747,3.2984239512,-3.8527168858,1.0673189874,1.4731499665,-1.1507494378,-0.6151186911,-2.5574996563,0.4467955707,-0.7424665448,0.9893954971,-0.8137096856,-0.2634818331,0.4435013711,0.5590788409,-0.0918343839,-0.5207551626,1.0076244266,-1.6547024718,0.46965664,-0.4435947956,-0.1578444217,0.6326219881,-0.0343016568,-1.0518172068,0.8882116827,0.1471779721,-1.252771694,0.1567848967,-0.0206977235,0.3531471696,-0.4959964404,-0.058253722,-0.3875483423,-0.7236713789,-0.2440305151,-0.3343832746,-0.0680013235,0.0808918431,-0.2266235489,-0.8625307516,-0.5023030112,-1.2896036495,0.2096672838,0.71591728,-0.7274786054,0.5128643345,0.6224971398,-0.338352663,-0.3237104064,0.8570950118,0.3683202177,-0.1650438894,0.2645072879,-0.2726774384,-0.852870382,-0.3418139883,-0.4152267833,-0.6931666716,0.0238456129,-0.5330066762,0.2500973235,0.0783998871,-1.4123692469,-0.073429491,-0.0178375251,0.357145939,-0.9971878553,-0.0991000674,-0.5331928831,-0.0905257359,0.4983696491,-0.1690071246,-1.2731751677,-0.1962308775,0.0994167056,-0.3873516415,0.2530368107,-0.7440607409,-0.0045636903,-0.0983748477,-1.5407561574,-1.0564848828,0.4827376005,-1.0523005742,0.5880473447,-0.1183477809,0.4390387376,-0.8152527667,-0.2541995386,-0.5867958918,-0.1873130036,-0.5765748383,-0.2793788123,-0.5619572717,0.1059333378,0.30210107,0.2926180037,1.1020675864,-1.2088573089,1.1119729858,-0.1974266201,0.088366781,1.0276856949,0.6554277262,-1.6530428255,-0.0348230763,0.1113279144,-0.3723927286,-0.9604588082,0.5359233003,1.2819181393,0.7509582008,1.9012141029,-1.973825682,0.1881964345,-0.0349110164,-1.06993203,-0.7996181837,-1.5478281334,0.1266832523,-1.3342442222,0.613044655,-0.9159778212,-0.2927641551,-0.7703724535,-0.8491825053,0.7696407329,0.0592394301,-1.9664599535,-0.8959186749,0.57590946,-1.2980281475,-1.36415752,0.7330705799,0.23192279,-0.8007696586,0.8375280275,0.1267206746,-0.5876101383,0.476966431,-0.878281088,-0.3849301956,-0.3897153671,0.1733758808,0.3805270085,-1.4175084575,-0.6017888633,-0.1847243843,-1.2893426318,-0.688049568,-0.0492100789,-0.7509699016,-0.2636844047,-0.5867597078,-0.9511188778,-0.3992934681,-0.691776441,-0.6251871272,-0.7797146417,-0.488136919,-1.0654406688,0.3232000187,0.0431518672,-1.7220156598,-0.4935455334,1.0495191571,-1.651790255,-0.0519766109,0.269694071,-1.1891123738,-0.7937333714,-0.3728568479,0.8729801288,-1.2785554024,-0.5960567054,0.545038229,-0.9562430671,0.2675021793,-0.5943058237,-0.2587941439,1.4551514679,-0.7232081279,0.1083145141,0.179851284,-0.3123224318,-0.1159282448,1.1496188428,-0.7524773621,-0.3064581033,-0.7531827114,0.5247795701,-0.6652958771,0.4632016296,1.1264340335,-0.4586993991,-0.9871887073,-1.6451215934,-0.4613388692,-0.1868085254,-0.3548958742,0.5310906501,-0.3225032034,-0.0463154987,-1.353299042,0.4878411331,0.2930009845,0.3041024861,-1.2291179493,-0.0895135761,-1.0264091557,-0.0762386677,0.9507922872,-0.5461758441,-0.8358657534,0.5508322303,-0.4643230065,-0.1676872964,0.1747472597,0.4352458316,-0.943789143,0.0209058721,-0.7444811754,-1.301500987,0.2175553757,0.4581722883,-1.2103269515,1.1870607013,-0.1057009287,0.3430871139,-0.9862916595,-1.7874974783,-4.0495137963,1.0491818361,1.3263014867,-3.6774628615,1.3018765565,0.1853349997,-3.6171783323,2.7516703461,1.042458018,-1.9154633046,-0.5138730116,2.095187569,-3.462656085,1.6228212409,-1.0020582156,-5.0308201548,2.6979255624,1.2346039371,-4.4015011619,3.7031498436,-1.3132421591,-3.0656643997,0.6112897866,-1.527340136,-1.9752475702,1.2331306828,-1.3059686745,-1.286622458,3.1804317264,-1.9001770489,-1.5089460287,1.9384686874,-2.7948314281,-4.0752627653,1.711430006,-1.4306305394,-3.6363358058,4.3649285122,0.1881097407,-1.2475691016,2.3413746832,-1.695394717,-1.6807204481,2.0479979284,-2.7919504769,-2.0868757822,1.6571918796,-0.176157299,-0.0891052863,2.276053287,-0.598290233,-2.8298153582,0.9462252213,1.9440028656,-2.8094983267,0.7199501164,-1.2927575398,-2.0089724803,0.2579091661,0.5244983447,-2.057095466,2.2441820503,-2.3938590877,-2.2170488315,2.2314853109,-1.1859361223,-1.5641624678,1.851291222,-2.2556690114,-1.3421283058,1.1672696839,0.571891878,-3.1566315945,1.9008413853,2.1865333672,-2.7554916889,1.3606979632,-1.4541719544,-1.8626393739,1.238307989,0.64148848,-1.5677414593,2.195129342,-0.5722025047,-1.7764436324,1.9916267158,-3.3066101966,-3.8080172188,2.095161578,0.2005010775,-4.289928736,1.9382900372,0.3170223858,-1.4972059968,0.114070209,2.212856013,-3.1890164887,1.793030204,-0.5494903142,-0.9182615304,-2.6005263676,0.956544671,-2.6804692456,2.8063666416,-1.4835881084,-2.9016154646,0.7330974986,0.0044230363,-1.544604478,1.7434746927,-1.2228256916,-0.6531617163,-1.318757668,-1.4031893566,1.3470646376,-0.2360422855,0.5880125322,0.2012495947,-0.0578207245,-0.3051989966,0.6446179806,-0.0417323429,-1.3996797326,1.1387597239,-0.4679638289,0.3255517665,0.2006305411,-0.6703089627,-0.6193432804,0.7938209996,-0.4310921401,-0.4631686715,0.3733643919,0.3267976663,0.6925837591,-1.021295647,-0.2544005036,-0.3096085884,-0.8046755382,-0.2675418449,0.5067056291,-0.7229205708,-0.4542667372,0.080732789,0.2337510064,-0.3809716737,-1.0173825938,0.5680320747,0.9447452676,-1.9788519751,1.5077075221,0.4559426147,-0.9483074979,-0.4249733944,0.2579269925,-1.1921027955,-0.1071948162,0.5560310734,-0.9497987566,0.5200488175,0.9045665339,0.2450074175,-1.4806582988,0.3932106847,-0.3890556216,0.6970275249,-0.0440394951,-0.6614739703,0.123054068,0.9835025951,-1.1324331582,-0.7520942748,0.5079150404,-1.20337108,-0.5159505168,0.2916268964,-0.5810527138,0.4287484902,1.0973040836,-0.439068694,-0.262555838,1.3834122802,-1.0106030686,0.282305735,0.074622383,-0.2200732606,-0.03211618,0.692605507,-0.5419783333,-0.0329675049,1.0520379212,-0.473945542,-2.2325017807,1.460670908,-0.9655956958,0.1420757214,0.4443985701,-0.4472203917,-0.4721117281,1.0532668326,-1.5056990277,0.3229699627,-0.4163622034,-0.6965173269,1.0439623728,-0.0599855392,-0.2616749875,-0.4534190865,0.3272465655,-1.4565928583,-0.0299223024,-0.2997237053,-1.3186910112,1.0031104418,0.8679202507,-1.534089726,-0.092998937,-0.0218942964,-1.8904183061,0.022204606,0.5226053469,-0.5739066618,-1.5637158303,-1.6552567113,-1.6805315141,0.3559807367,0.8503904155,-1.6635511094,0.2680398755,1.5612352847,-0.3776469375,-0.4181355963,-0.2193699661,-0.6857641927,-0.8098124245,-0.2686195689,0.768292488,0.0185264382,0.2878130563,-0.0992624551,-1.0039260152,0.016787901,-0.5790230182,0.3578927076,0.6433933007,0.0103428767,-0.0685897364,-0.6749216257,-1.0069924012,0.3547210526,0.5139203846,-0.3341211251,0.0893774217,-0.6008137692,0.0840234781,0.5870969331,-0.6607058368,-1.4995620536,0.0582663625,0.5219965524,0.072502316,0.8690834733,0.2481818146,0.118115622,-0.4515189213,-0.1058400645,-0.2609813648,0.3904898203,-1.3292730802,-0.6878853905,0.7330387148,-1.2029902014,-0.1147275169,-0.1677446867,0.5284119709,-0.8722445393,-0.9056986546,0.1482044384,-1.3543549527,0.8401175474,1.4629270419,-1.0675752262,-0.6839090756,0.1890147141,-0.2133919715,0.5186829336,0.0825066576,-1.2127460062,0.3917714216,-0.9107421782,-0.3312605586,0.1795338018,-0.9212807445,-1.2153957202,-0.5352226147,0.3431477234,-2.0559036866,0.1167006438,0.5624634402,-0.293975233,-0.3415782175,-0.7197001671,0.3465531785,-0.017332275,0.3849016056,-0.759875619,-0.2925646322,-0.3116799299,-1.1806789284,0.0012244252,0.2775233601,-0.8285323261,-0.4670910828,-0.4758833552,-1.1578135667,0.534134335,0.1393889899,0.5257214023,-0.5750119534,-0.1456373328,-0.8522599818,-0.1708133877,0.8971929662,0.0937423768,0.9399634593,-1.5048310767,-0.7263766478,0.188545392,0.9132255119,-1.8049247117,0.6605483791,0.7446538636,-0.3997374185,-0.4909953904,-0.9139168986,-1.2289067882,-1.1694354288,-0.4894970363,0.8194154776,-0.6318510037,-0.6529074063,-0.6161149529,0.3260263934,-0.3057658908,-0.816585285,1.17167182,-2.726249393,0.1904402212,0.2411023393,-0.1669906028,1.0158790063,0.2329706585,-0.5526883443,0.5386948448,-0.3062297635,-1.2621994404,-1.2880915414,-0.4386540189,-1.5748268438,-0.7366091466,0.2538585631,-1.3226881954,1.3026885259,0.61939671,-0.5237162588,0.1775914418,0.6045508744,-0.5165539363,-0.3256147034,0.0554027863,-0.92018703,0.1063625939,0.5372709875,-0.517333506,0.9236682988,0.2281434539,-0.6790984399,1.1058812354,0.6136116234,-0.437364581,0.2267779838,-0.1822548504,-0.2657225352,-0.5321812905,0.5652039345,-0.0866994187,-0.6017552009,-0.5595492704,-0.1094203275,0.9329651622,0.6567146822,-1.1339813489,-0.4698175627,0.0437150578,-1.1076632544,-2.3148827754,0.5310821559,-1.6386921289,-0.9000501412,0.0435959538,-0.8176665159,-0.5300054444,0.6109946531,-0.3471265445,-2.0881799863,0.4581754235,-0.6645422586,0.0536872413,0.2357071387,-1.2193383513,-0.5083643777,0.1143170759,-0.2993843188,-1.0345562783,0.5210739907,0.255617858,-0.4705817379,0.8665081028,-0.5656072075,-0.0759005419,1.5151507949,-0.2298540472,-0.5781501389,0.0115265109,-0.2300987945,1.1573256346,0.3384569244,-1.6319723375,1.0765340712,-0.9912339077,-0.6015201172,1.2030653589,0.9856403571,-1.0462688823,-0.4450016198,1.659134988,-1.0489215536,0.2307162117,1.0603148167,-2.4710520086,-0.854357797,0.6602290783,-2.3489538434,0.6932267766,-0.1314393005,-1.4331589697,-1.2676330213,-0.7968221859,-1.2599419572,0.4136308443,1.3572271059,-0.8896402551,0.1650024771,0.4354837101,-0.3477660692,-0.3690561525,-0.1634466771,-1.1548554278,0.6548109616,0.4043766321,-1.1807331125,0.0687364939,0.3998169437,-1.5290390068,0.8114527609,0.0771345659,-1.5951382578,0.4580221603,0.9056710615,-0.1558907631,0.3821287641,-1.026274708,-0.1202075481,0.7654262392,-0.6554748978,-0.6178618811,0.1377230283,-1.0123520443,-1.2039705061,-0.0896733349,-0.9106490104,-1.3872132108,0.8897389626,-1.1973256251,-1.1062513892,0.8212519081,0.5551947611,0.3321611538,0.7471066991,-1.0252731159,-0.0696763833,0.6312167673,-1.278947739,0.4082658867,0.5401483287,-1.2643642599,0.1586260337,0.7592604074,-0.5557385723,0.3283077789,-1.1065649012,0.0923662348,-0.8536740052,0.2652228121,-0.3266098094,-1.1267193135,1.0304067791,-0.8632375583,-0.4272145285,-0.073669368,-0.8545438302,-0.024029794,0.1175785586,-0.6865482611,-0.8465663398,0.8869147689,-1.2194586521,-0.3195986434,-0.6170138166,1.0064662048,-2.0025708975,1.0795861511,0.835627109,0.1180729638,1.0947132789,-0.438688916,-1.259332877,0.6930592066,-0.5272116663,-1.1753031402,0.2924850743,-1.1610207338,0.1810714851,0.0532033537,0.3646550842,0.4554980057,0.546347683,0.8747750984,-2.2223399451,0.9003817484,1.0319724272,-1.8151621579,0.668439714,0.2696190411,-1.4539691807,0.8917683319,-0.4295455709,-0.8576161634,-0.2367053728,-0.7117494926,-0.5121058552,0.1810954403,-0.0537871505,-1.8928664057,0.8533134996,0.7156865976,-0.4738219237,0.5680854608,-0.960802329,-2.3021618305,-1.8435286403,-0.5245792203,0.1859832298,-1.4946476081,0.676898443,-0.170001225,-0.0888381463,-0.2132013134,0.6934359685,-1.3960443633,0.0989207026,0.4996643592,-0.239361774,0.2513094415,0.6508810234,-0.4726316827,0.0377985442,1.1409474815,-0.5380487072,-0.2340873485,0.5344325143,-0.9731105666,0.574030949,-0.2706782826,0.224303577,-0.0353960899,-0.0878659015,0.3063290192,0.4871325496,-1.3669609396,0.1335271047,-0.0074119157,-0.1699424967,-0.6499431202,0.2818505537,-0.2741031757,-0.0693024086,-0.3787093222,-0.5896137737,-0.0582329266,-0.2351853238,-0.0466151732,-0.457985133,-0.586551153,-0.165666612,-0.2577112544,0.0124460299,-1.1740163155,-0.4647442199,-0.0845767674,-0.4621381674,-0.8956463355,-0.559260818,-0.0713610606,-0.9021807086,-0.1144934895,0.130141239,-0.3147737916,0.5015047899,-1.0581633272,-0.6216783074,0.7304787726,-0.4572482819,0.3944042773,0.5521028135,-0.3964070035,0.2326566747,-0.7841979368,-1.0881834072,-0.1797256667,-0.3670764185,0.7202513235,-0.4375014536,0.3397559175,-0.0912131311,0.179603614,-0.4364829618,-1.0384592179,0.4874166507,0.5201667961,-0.4774076349,0.7177988174,0.0252608744,0.0626042229,-0.6165501061,0.1155213725,-0.1246484251,0.6159739778,-0.2519647759,0.0415641753,-0.9094858213,-0.287838837,1.2800701155,-0.8696043926,-0.636989883,-0.4088226406,0.5242134247,-0.1145248247,0.4147440122,0.0602844699,-0.8253562454,-0.0839859679,-0.2356043994,-0.6999782512,0.0059900537,0.2923696358,-0.2847533623,1.1727018869,-0.1950992563,-0.1027548866,-0.9387230829,-1.7708787153,-1.0964656868,0.2832040581,0.7752122643,0.24319249,-0.1765009105,0.25610407,0.3658446008,-0.7280006008,-0.1012982841,-0.1360485326,-1.0452750478,0.03848337,-0.9536476844,0.0543524061,0.62357322,-0.597367004,0.1456613887,0.8154874622,-0.8905316799,-0.6795415228,0.5770071488,-1.2184669629,0.5353217119,0.2318316011,-0.0868985533,0.2888215451,-0.9220324577,-0.5415384266,0.1223534422,-0.3580851373,-0.3132406569,-0.1756088054,-0.1552720195,-0.4094834336,-0.8595065678,0.3075355174,-0.3917181901,-0.7790150823,0.4744631445,-0.4661507466,0.2204778185,-0.1808140825,-0.1643804432,-0.8387483561,-0.9750961032,0.335901215,-0.1184420842,0.4130478999,1.2253021608,0.8926854342,-1.5502034861,0.0857045305,-0.2236541369,0.0462773769,-0.2063352024,-0.2646836316,0.1095118087,0.5393236929,0.1497998842,-1.3707145112,0.8123873277,0.2765774384,-0.8970761937,0.2919530607,-0.1020292944,-0.2657120337,0.4590957347,-0.5662593712,-0.9079821285,-0.6233886656,-0.2472150315,0.3676160652,0.30038276,-0.068715087,-0.2055464673,-0.5635219314,-0.7611631407,-0.1653280009,1.0274767163,0.0151942518,-2.4919900652,-0.4702369624,0.2479333371,-0.7125198335,0.689469343,-0.0217055137,-2.3812517181,-0.1556489065,-1.1158826699,0.3752960544,-0.9700146311,-0.8582485715,0.7973659564,0.1226513267,-1.0337577782,-0.1672605616,-0.2296426742,-0.225438291,0.6942623793,-0.9280654675,-1.2336230798,0.2321871682,-0.5444123564,-1.2419421146,0.153549407,0.5137652338,-0.9577201619,0.9912685951,0.0176948747,-0.2163186843,-0.8923280154,-2.0614944209,-4.8472569879,4.7959876661,0.3208981757,-0.9137866821,2.1008331345,-1.311550401,-1.6134067108,0.3504151192,-0.5545042843,-1.9734391366,0.5403807088,-1.1298711192,-2.8738939753,0.1840459051,-0.2640643363,-3.1374680823,3.4504085075,0.1183297867,-0.181664938,1.6798317639,0.932462179,-1.6710850375,0.387745657,-0.9878361554,-1.635939395,0.4473858866,-2.5981966844,-1.3811747272,0.535782367,-1.1858192547,-2.32916702,0.5230755126,-1.783777259,-1.5024356109,0.3019249415,-1.3718793478,-2.3583655696,1.1402075523,-0.3724068749,-1.3298685129,0.3306798915,-1.6098695981,-2.1840447273,0.0648582696,-1.1992858951,-1.5875459446,0.1576126369,-1.576590003,-1.7403043688,0.4479035974,-1.5887740571,-2.1571590495,0.5039322092,-0.1128817053,-1.5336001495,0.8262695643,-0.4241369949,-0.4845166324,1.0988094928,-2.1199752792,-1.3134433647,0.5419041716,-2.6210932153,-1.4491026809,0.7009326205,-0.9818784747,-0.5299112581,0.8981236823,-1.5405743455,-2.6330422428,0.8690727863,-0.3001934647,-1.6178554497,0.8715746067,-0.6663526286,-1.3741380764,0.7161794047,-1.7511147245,-1.9947599714,-0.2014109867,-2.2562728695,-1.2212000899,0.7371705931,-0.774276707,-1.7052510794,0.9189143103,-1.1491613486,-1.4297228307,1.7795798574,-0.1511561679,-3.114643593,3.344095326,1.402676235,-1.5343536958,0.241343412,-0.5116903427,-2.1761653282,0.0447283066,-0.5812066782,-1.854897588,0.0611557446,-0.7523866676,-1.3287211896,1.6377846023,-0.8922549089,-4.4741516049,3.8657181757,0.7638629719,-1.2512649842,0.4932514986,-1.0200499782,-1.7287595485,-0.9846770909,0.8460232198,0.4271869065,-0.9266357116,-0.0834450778,-0.3003693988,-0.7169738103,-0.7855027589,-1.4083049389,-2.0151488056,-0.0742359502,-0.9244702978,-1.125598247,0.3508014797,0.7035338604,-2.2988464312,0.9791025057,0.2418181773,-1.7995952727,0.2065311968,1.6581311611,-0.8113815776,0.9129521297,-0.2705815523,-1.2369519894,0.5416107235,-1.4541358401,-0.8428008459,0.2915787434,-1.1358960631,-1.0566920121,0.0715227576,0.3140827036,-0.5083701366,0.2749062358,0.175346943,-2.2272653658,-1.1831445857,-1.0770646317,-1.0514151758,0.2093646388,-1.593896078,-1.57032611,0.3666953925,-0.2145475693,-1.0323750704,0.6138412045,-2.138994266,-0.7683552475,0.373985529,-1.1489520841,-0.3677924103,-0.2107575447,0.689965521,-1.7397538091,-0.1448805685,-0.3774003254,-0.2703680448,0.9038195696,-2.6910449945,-1.0542754125,0.9443469586,-1.8399966397,-0.3228331125,0.50143199,-1.4905377416,-0.6287903708,-0.5313523597,-1.3862173851,-0.1868343973,-2.0702182675,0.7203961466,-1.4733138172,-0.554138035,0.1850207221,-0.5800474548,0.4571705738,-1.7778116788,-1.8313009344,-0.0415359926,-1.8170884384,-0.6012375015,0.4870723193,-1.9587055608,-1.0149169949,0.5544654902,-0.8860032004,0.0412084856,-1.1018858866,0.2001698996,-0.1831066346,-0.6793165408,0.4649471749,-0.8355463311,-0.6845583502,-0.1997905165,-1.9013013372,0.0533255018,0.5783463368,-1.5785960903,-1.4910895232,0.7258710615,-0.5453662454,-0.6122218931,-1.5602720481,-1.5009950848,-0.300932422,0.4513951694,-0.362134409,0.3959893208,-0.5331797776,-2.6865646985,0.6478618109,-0.7521132548,0.5440872143,0.2038413768,-0.0151810915,0.4522057635,0.7031317336,-1.7425339689,-0.3734881651,0.9164707471,-0.0253001406,0.0229919225,0.6289729977,-0.8730523507,1.0713255765,-0.3650337789,-1.4834244671,0.934799225,-0.0222690994,-0.1771856053,0.1448929919,1.1859027038
   -0.4324210158,0.6770794311,1.0437584924,0.0955792917,-0.3735668498,0.1454005944,-0.0841330124,0.6418616758,0.3283629716,-1.0790931728,-0.3360078587,0.5222836818,-1.0321473916,0.5029265068,0.1109371016,-0.8126618728,-0.1096477817,0.508118877,-0.1978351521,0.0702184544,0.8394485918,-1.1797371695,-0.5072171346,1.2074983597,0.8891146504,-1.4874139388,0.1544818018,0.0022829852,-0.2963016852,0.1710248319,-0.9453140267,0.1027439156,0.6201175923,-0.8905686922,0.8006071474,0.1330878752,-1.1694913762,0.386866086,1.0354907754,0.1127791165,-0.1280341828,0.1291373145,-0.7205455932,-0.9556376095,0.2668571311,-0.0821585007,-0.7908710158,0.4935060946,-1.0619581971,0.7672138759,0.5334706876,-1.1693001584,0.5389217632,0.9902756346,-1.039869707,-0.6008254227,1.0712754517,-1.0466420799,-0.5812455971,0.4652190139,-0.2858088044,-0.2869408946,0.1841627765,-0.4337012561,0.1358370831,0.8620975691,-1.770811364,0.1535501744,-0.3656553249,-1.1978254871,0.9572486682,1.416578983,-1.9041678515,-0.199588894,0.2619561591,-1.8154651292,-0.0136857412,0.6772818127,-0.4998443198,0.1884824821,-0.430045774,-0.6806702916,1.2945063557,-0.2631776276,-1.5039677132,1.13189393,0.2969884864,-1.9550226503,-0.8114870669,-1.7250370819,-2.1865311178,1.1276974362,1.0343512603,-1.0545485702,0.6765553992,-0.3594146882,-1.119286429,-0.367135954,0.3782406611,-1.1225798225,0.3321559114,0.4490243382,-0.5010634375,0.0695102999,-0.5915661722,-0.9420060142,-0.4680751491,0.2972415022,-1.0235662276,0.5485268947,0.9262453349,-0.6932179419,0.1767080889,-0.4730927808,-1.3872543297,0.4308103411,0.0431164192,-1.1644631508,0.113791803,0.1604590364,-0.6393370561,0.4492835177,0.1591060759,-0.2696514079,-0.7340152949,-0.3746049357,-0.4909667942,0.0086480337,-0.3128568159,-0.3624918622,-0.3018199189,-0.6421572754,0.1398980033,-0.3172852542,0.0259432276,-0.7174095872,1.099988896,-1.6857067118,-0.6185299134,0.5864177914,-0.4518250279,-1.0440464653,-0.3299901629,0.3537186374,-0.847698776,-0.6227900356,-0.2683822553,-0.5833998575,0.5829104991,-1.0663241074,-0.9579286655,1.0480046147,-1.4941910853,-0.8114184115,0.0466653694,-0.2373453269,-0.2050544449,0.2665216488,-0.2414186023,-0.7246536892,0.3661066952,1.1372301403,-0.733986821,-0.011974747,-0.3338248978,-0.7685248701,0.5017302056,-0.7085415392,-0.2271923019,0.2133664923,-0.2311856455,0.3383575418,0.525865935,0.5163113497,-0.8945147013,0.0334589427,-0.8029668144,-0.2112283902,0.4944364065,-0.1100584326,-1.8278420208,1.4038384926,0.3628878284,-1.0078936413,1.125456272,-0.9733554662,-1.9838787409,0.6302648282,0.1859264608,-0.7318241488,0.3093949075,-0.8622266262,0.0176314205,-0.2923721923,-0.6820549083,-1.468796485,0.6410356622,1.3529917535,-0.4272121756,0.7742557484,-0.8126407369,-2.1476128425,2.184557157,-2.2208304247,0.6171866827,0.7880263554,-0.2442608493,-0.5968677653,0.2355631259,0.2858131661,-0.4541217599,0.578051043,-0.320172215,-0.214176238,0.8424789614,-1.0254335163,-0.5221031296,1.9349838911,-2.7478455779,1.0718558558,-0.1819294028,-0.0947795289,-2.18918225,-0.2554321096,0.3375566769,-1.4770420056,-0.8100248442,0.7673336834,-0.3115579242,-0.4083090398,-0.1720299156,-0.4191252938,-0.3464852456,-0.4893726013,-0.9246033625,0.3655025039,-0.7102582236,0.2277281305,0.3387846625,-0.4298498436,0.1507406719,-0.1360413079,-0.1464997619,-0.2771084603,-0.1069071748,-0.0258040742,-0.0365833937,-0.3115796732,0.2772508691,-0.4940808706,-0.4607252813,-0.3310495371,-1.1651565734,-0.091971512,-0.0840751346,-0.6247178777,0.4109595465,0.3362833777,-0.3177340045,-0.5895197933,-0.0522068582,0.3740960394,-0.8507998342,0.8608300653,-0.9649606753,-0.0472174595,1.0381379561,-1.8537191172,-0.9018832187,0.5280310919,-0.2933397563,-1.2621832626,-0.4885095791,-0.7130696711,0.5089471896,-0.9633003568,-0.505835303,-0.8204467453,-0.2904120603,-0.6134753813,-0.4316615851,-0.7985524222,-1.8051889359,-0.5718723236,-0.1410240379,-1.4809804208,-0.3800864505,-0.46869074,-2.2234643233,0.1756612738,-0.2483134275,0.5117478675,2.4861883772,-2.2873497127,1.2854781301,0.8276436801,-0.7854870444,-0.0064262013,0.2093932097,-0.3147139278,-0.8726890598,0.1413396482,0.1109135994,-0.9162578977,-0.8250093939,-0.1807702486,0.225429264,1.7025632352,-2.2610602208,0.4353503564,0.116546333,-0.3925885312,-0.7733796972,-1.2829456851,-1.4533967292,-0.0088714757,0.5359391245,-0.9221405778,-0.130570769,0.3028235219,-0.4234607176,-0.3977814448,-0.2564207768,-0.4734817005,-0.219218307,0.4933746987,-0.6226929432,-0.73606811,0.052260316,-0.8491012708,-0.1518224943,0.9173454432,-0.6676351926,-0.4789675279,0.3739139527,0.0712969671,0.3594425377,0.0417210331,0.0868335804,0.1857061749,-0.848664142,-0.8956920431,0.8788201045,-0.4520844458,0.0929029837,0.6240459356,-0.7253735749,0.0580386629,0.1452239261,0.1184258885,-0.385017101,-0.2542043958,0.9522601224,-0.0412159896,0.3577773545,0.1177102338,0.3724831458,0.4367955726,-1.4210424267,-0.0063450559,0.3907958325,-0.8832050941,0.1048520406,-0.5330530022,0.5387698703,-0.961232103,-0.341644637,0.3351538158,-0.54093104,0.9497473569,-0.1384733336,-0.3223011759,0.6217581603,-0.1724877922,-0.3653504606,-0.0487570331,0.1291061175,0.1093302102,0.1432744845,-0.4099412074,-0.3068245012,0.5968612511,-0.6884285351,-0.825071398,-0.6524712931,0.4673631633,-0.9571041578,0.3664047876,0.4643230207,-0.5656707865,-0.0783350905,-0.0960214464,0.1917225256,0.3965717861,-0.5162270656,0.676513959,-0.353173342,0.0751170829,0.0918004546,-0.1002222502,-0.2506255511,-0.1419316041,-0.0970720928,-0.2342513539,-1.5388136503,-0.3129536345,0.9111281351,0.2314460078,0.4724151392,0.0346982013,0.1470493022,-0.4386674457,-0.3300892727,-0.4369622041,0.0589907264,-0.3770825815,-0.8635372653,0.5360716846,0.6901482355,-0.2243269462,0.1076593714,0.7377007467,0.0436066154,0.5120606391,-0.8359916181,-2.2409040659,-1.4152932198,-0.0685389419,0.197396995,-2.067489459,-0.4593751701,0.0048678435,-1.1940691735,-0.2105312057,-0.0383364016,-0.7229925649,0.4332889468,0.3486004602,-1.139824091,0.1169073369,0.5149399433,-0.5644862237,-0.3920369436,0.7994935849,-0.2043789933,-0.0715331738,0.5841036274,-0.9854691229,0.0483662087,-0.1364833969,-0.4752022614,1.3376569882,-1.5805296724,-0.2922133931,0.6965045062,-0.2145688952,-0.3067871556,-0.4056442311,-1.3166484083,-0.2808256797,-0.8370167701,-0.5869890718,-0.7006520754,0.4361308131,-0.9329321963,-1.0610011553,0.9295073986,-1.7579205704,-1.2517726548,0.8505987755,-2.1670017948,0.1047740275,0.7599087291,-1.830131278,-0.5565453805,-0.0121758488,-0.362946564,-1.1842347768,-0.6952350115,0.3533633754,-1.4879994134,0.5345011749,0.2253326611,-0.8848363244,-0.2849891509,-0.8799868109,-1.4691197393,0.2089253235,-0.1186668009,-0.249994334,1.6254246909,-0.7260360529,0.1386004171,-0.2893533452,-0.3494835657,-0.6247334282,-0.2964515459,0.0854573959,-1.6556679034,0.503143174,0.4208698593,-0.4546957193,0.7708023797,-2.0943939472,-0.3464078376,0.9288997387,-0.0749671391,-1.1554378882,-0.2304413017,-0.2192973668,-0.7151967889,0.1969894863,-0.2607227444,-0.3476224183,-0.4605560011,0.1289941967,-1.5539846124,-0.5598525473,0.7219812436,-0.1048350079,0.2803019056,-0.9348568888,-1.3499385031,0.5763879743,0.1364672245,-0.6251608225,-0.0729126606,-0.4509193996,-1.4931612856,0.3488746243,0.128273369,-1.7060784083,0.7005861851,0.894172558,-0.7797837284,1.0007592677,-0.8948740034,-1.7347601033,-1.1261770053,-0.2188249368,0.9876713334,-2.0967957072,1.109538272,-0.432660718,-0.6679922627,0.3303453092,-0.1152223461,-0.2763129241,0.392971811,0.0232691305,-1.4203618192,-0.3658159501,0.018562264,-0.6709393547,-0.2252116452,0.2690905688,-0.1593370422,0.8694836334,1.0987872882,-1.3902027138,0.057072643,0.0155596307,-0.8198589023,1.093109888,-0.5833724659,-0.8739032448,0.3886461195,-0.2528281648,-0.4209879749,-0.0124242757,-0.3686243415,-0.4371309712,0.5875011383,0.3524214131,-0.561388059,0.3479665875,0.0696880787,-0.624192602,0.6607505268,-1.0611410304,-0.2159554926,0.8518806644,-0.6916849265,0.1933030038,0.8023063061,-1.004681928,-0.4233022737,0.7962685291,-0.9415359968,-0.833417033,-0.6565738907,-0.0584341609,-0.679227419,-0.057246161,0.1297482478,-0.3596280282,0.6721022127,-0.2448552006,-0.730827145,0.538729236,-1.2961720063,-0.4146633674,0.9670564485,0.3300385986,-0.8133613371,-0.0288551943,-1.1016164575,-1.2146362307,-0.8045519404,-0.2505140101,-1.0147070525,0.4551682535,-0.0185553863,-0.0145941951,0.7530126811,-0.6403901892,0.2912389175,0.2742516604,-0.6282507805,0.4233591736,0.2163649495,-0.0040553238,-1.0501683647,0.0047365258,0.2019533472,0.1652038115,-0.4617518822,-0.4054226587,-1.4815320569,0.2021320168,0.8722934477,-0.9273592456,0.2549410666,-0.2919166596,-0.9325272137,-0.5297251492,0.3064487218,-1.0461546569,0.4102254625,-0.391697514,-0.7729155211,-0.2978802945,-0.7152621165,-0.9482088216,-1.1513900222,1.0866796292,-1.2976022197,0.729757303,-0.5806321564,-1.5492776313,-0.9363617315,-0.2638434826,0.1070931933,-0.621537342,-1.2963941265,1.1513504427,0.1340811657,-1.1421200477,0.4460829485,0.3665750308,-0.5475896544,0.4235009898,0.3101810736,-0.2140221882,-0.2738690498,0.2768492385,-2.2410544866,0.689466043,-0.1872561569,-0.7666606085,-0.0288969787,0.2577112671,0.2170026339,0.6261666809,0.3041595997,0.2883811976,-0.3646762232,0.9643413947,-1.3139706171,-0.0900532299,1.0994607225,0.7421599787,-0.6207503742,0.6042699485,0.0324895496,-0.2087563262,1.2423705425,-0.7789452452,-0.3566789437,0.8828098601,-0.645236654,1.0322404874,0.2513776593,-0.6536542524,0.0633384784,0.9898137999,-0.7033885977,-0.4887391977,0.5476331976,-0.4571876857,0.1808803245,0.100546548,-0.7506174042,0.6593397488,0.6286341764,-0.7474176184,0.3923433333,0.9166506485,-0.6508894474,0.7245493062,0.8303387288,-1.2244323053,0.3376519531,0.2941042522,0.0202536576,-0.8516743093,0.6238612392,0.490183749,-0.2261585328,0.8474994813,0.1443998442,-0.5068409637,-0.5278935295,-0.4173644851,0.0099515753,0.7874300417,-1.0300712273,0.7942220946,0.9842251542,-0.392463892,0.4840321487,0.3743315377,-0.6583767825,1.0534938241,1.1694635305,0.2450478298,-0.5876318911,0.0665024092,-0.6435794928,0.1329132373,-0.2571256581,-0.9596556157,0.2898159408,0.293530388,-1.3297312289,0.2294314026,0.7326234637,-0.6455336566,0.8487535878,0.9882478034,0.678577948,-0.7697053262,-0.2064480703,0.4481174855,0.630253036,-0.0399756011,-0.6814715456,0.7421994483,0.1833149897,-0.9594830183,-1.086298267,-1.054843581,-0.0377568753,-0.0668622982,1.2973140564,-0.6730568141,-0.9607821307,-0.2682148315,0.0074789923,-0.4875511268,0.3124920612,-0.1644006579,-1.6097654503,-0.9712887111,-0.0938823736,-0.6451411984,1.4614937198,0.27151704,-1.3797814222,1.1612789278,-0.1047576948,-0.0487901263,1.0002331809,-0.6732541483,-0.9353207169,-0.4179925181,0.0769744471,0.1481819024,-2.0476410713,-0.2089098181,-0.0224120183,-0.1866020695,0.0380879395,-0.8564581438,-0.4809971223,0.5416043423,-0.5783005262,-0.3802342339,-0.148243978,-0.8676009546,-0.5865540632,-0.0134048983,0.2905314934,-0.4360076151,-0.4615493066,-0.5574680129,-0.6500869685,0.7333478411,-0.1406368048,-0.3666309829,-0.1311224351,-0.405761418,-1.4533898221,1.0372557375,-1.2590374643,0.6658361906,-0.4129022139,-1.1343621672,0.3609329714,1.7447291452,0.4352236937,-0.8586168728,-0.1392435822,-0.363719581,-1.5143804086,1.1785733985,-0.9605181931,-0.7994418088,0.0762449959,-1.566840489,-1.3053170718,0.1884327908,-1.1396560064,0.6057586771,0.7260434255,-0.7707101841,-0.0444065224,0.847327268,-0.7130212595,-1.12244874,0.462454675,-0.7957398868,-1.0593395447,1.2061899362,-0.4250094278,-0.2746405521,-0.1956380601,-0.535141296,-1.2532221364,0.089515605,-1.2002546794,0.1599332538,-0.0858734525,-1.9688038406,0.3235757538,0.435701396,-1.8795498787,0.6498214906,-0.0503558677,-2.0913207701,-0.220143409,0.3070648754,-1.1774519354,-0.5199937461,0.4949666203,-0.8888297114,-0.4175323684,1.1001362833,-1.7771745325,1.0020857127,0.1526795557,0.198618816,-1.3668310864,-3.245429664,0.8660447971,-2.0808283128,1.0613773599,1.0503587422,-2.8275079272,2.2858813151,2.1271995628,-3.1221185513,0.7845114819,1.9657179093,-1.6793935153,-1.8609604808,1.749120931,-0.4502781927,1.5225245487,1.7422009331,-2.2456319414,0.9443080522,1.0201219358,-2.2176448527,-0.9478591106,1.3463243252,-1.1162001658,0.6636593389,0.8496296299,-1.9102499448,-0.9267404187,0.9936384874,-1.0571681651,-0.0124579094,1.2690676019,-0.9882906939,-0.9184887827,2.2142535895,-2.1859090441,-0.8254635139,1.2374390022,-2.2392432157,0.822413292,1.2789783944,-1.3155998906,-0.487844655,0.8479971111,-0.3955669376,0.4905101081,0.5929066218,-0.3070270273,0.3414946685,0.5892259298,-1.3631304794,-1.0094858982,2.8683922961,-3.0204470836,0.0422655456,1.8687674235,-2.1103835332,-0.5453364101,0.5785283474,-1.6134504682,-0.2962287933,0.3530673421,-1.5422819876,1.0101729869,0.4442699703,-0.749027453,-1.0280401578,0.1996701695,-2.360776305,0.6154510044,2.3199533538,-2.5800823199,0.3103114957,2.957933451,-1.947076177,-1.5998055707,0.9182625265,-1.2772190677,0.4705302556,1.5641072627,-1.2672407849,-0.7825370827,1.7338455776,-0.8586869916,0.731548117,0.3835104669,-2.0014088431,-1.3592340747,1.9063644264,-2.2134313183,1.061620079,3.3769586558,-5.547737067,1.0435198551,1.4165558785,-1.8536304555,0.5989736962,1.5103011348,-2.8074864394,-0.7377362831,1.67371209,-2.6564511155,0.3907058315,2.0639009978,-2.3054103301,-0.00800971,2.0416622924,-1.935985149,1.0688794229,1.280220429,-1.2884331366,-0.3550813497,-1.6391274628,-1.0375498335,0.5491226081,0.4916207197,-1.0796474821,0.3923999617,0.4415613448,-0.3715405888,0.5342938457,-0.5664786824,-0.5419760658,0.627670438,0.0666672464,0.0518659828,-0.3223060914,0.2874726433,-1.6137068402,-0.3321186357,0.386918942,-1.5140694073,-0.2661629735,-0.0819102889,-0.7392382153,0.929561913,-0.8783508813,-0.5695607053,0.3912545059,-1.7043916848,0.1395317511,0.1756553829,0.0717536199,-0.3203469319,-0.0574866069,-0.5486141178,-0.4325114595,-0.8979210947,0.0613946578,-0.8504450894,0.8113630948,0.417127326,0.5716457516,-0.2511532774,-0.0755107594,0.1561143269,0.385609073,-1.6054365884,1.0256480435,0.695064755,-1.8493479832,-0.5918971484,-0.4230898531,0.1491891571,-0.6045358866,-0.1593264745,0.2136080212,-1.573669286,0.9896479376,0.4318693597,-0.5645129145,0.3676481497,-0.407409925,-0.6423342377,0.3740742249,-0.1114250927,-0.4109381793,1.3151611041,-1.4617632499,-0.8286365617,-0.0378014143,-1.1227873179,-0.3945156428,-0.9991256399,0.1579579506,-0.9357030496,0.4434081809,0.1746079468,0.9870531975,0.8551406754,-1.0126439467,-0.476005647,0.4857586514,0.3329441136,-0.2454842479,-0.8304961881,0.1097693389,-0.23444577,0.1998763994,-0.4208481208,-0.7506148522,-0.156012422,-0.027702943,-2.1438676106,0.609640661,1.0865570601,-0.6710377557,-0.7370465423,-0.8382080801,-1.4301427376,0.0840296916,0.8280030736,0.9061308928,-0.4323201159,-0.0615962633,-1.0039892759,0.6358675022,0.6247426293,-1.7151366641,0.0227840986,0.7777578702,-0.1197564946,0.4641980792,-1.4930262458,-1.717943783,-0.1610492456,0.6418815671,1.3061774102,-0.3565167283,0.2014377008,0.4648585566,-0.2931212213,-1.1647547261,-0.267746146,0.0071317411,-1.4827675088,-0.8976515234,0.0383540246,-1.6309247909,0.9824506555,0.2046736564,-1.2964171747,1.0895082267,0.8056628893,-0.5875583525,0.870057349,1.4855623,0.0295721342,-0.6132901251,0.8512371452,-0.1707074752,-1.3304278064,0.8383264316,-0.4574587153,-1.0978610071,0.2591186752,-0.7414768806,0.1305426417,1.2629601227,-0.6321387165,-0.2863578432,-0.7270388569,-0.7935198516,-1.3700307064,0.6808111909,-0.5837982909,-1.5001593473,0.8961871688,-0.3776993198,-1.0169067499,1.3369687467,-1.0289100581,-1.4201677808,0.1793746003,-1.184631957,-0.3082541272,1.3737322431,-1.4589343797,0.1298725175,-0.5154201952,-1.9641884266,-0.3437007872,0.8016256682,-0.3761248409,-1.2602710371,0.8545973406,-0.6343179516,-0.9410426177,0.6849408201,-0.5378724066,-0.7578370064,0.590147824,-2.2844010799,-0.4416420514,0.6820474223,-1.9577463905,-0.0765424454,0.5294988458,-1.1235818046,-0.1028598394,1.1425929176,-1.3227948565,-0.300903989,0.2029768772,-0.7765113002,-0.7740071541,0.0060458478,-0.9519612822,-0.6334371132,0.2962353692,-1.2959728406,-0.0079493616,0.8097453165,-2.7913937863,-0.4204192113,0.317517519,-0.6375972317,0.3226957417,0.5422110559,-1.3483422453,-0.9032612376,-0.449933777,-1.2896440781,0.1053854877,0.6447521327,-1.3093789698,0.0860293721,0.8799254573,-1.3803321927,0.0906298907,1.4323071109,-1.7376339325,1.4032956883,0.8678913503,-0.0608559387,-0.6905647675,-2.0938693879,-1.3600453663,1.0310856479,1.3464248901,-1.084113928,-1.8580138429,0.8524805795,0.3702921543,-0.8236954811,1.0004828198,0.6052750441,-0.4855288848,0.7452546257,1.3212195953,-0.2661325071,0.2052892771,1.2043532876,-3.3157749508,0.2178104062,-1.3061287065,-0.9229003637,-0.8946565455,-0.634857656,-0.8197910485,-0.3408157848,-0.1220860291,-1.1446164255,0.3172057416,-0.6983388356,-1.2068772834,0.3581811221,0.4215597497,0.6541232227,0.1894934193,0.5065512204,0.3343436343,0.7114381326,0.236621626,-0.6474887624,0.6091065325,-0.0235311115,-0.064878306,-0.0234691303,0.1405931972,-1.5112510764,-0.3655428147,0.0181223468,-0.8968916808,0.7957125483,-0.4314491299,-0.4506528515,-0.2569168086,-0.4278262879,-0.9209543702,-0.3286331186,-0.0424097026,-0.3355041772,0.4188061031,0.3334727886,-1.0602085394,-0.6595419823,-0.4855616427,-0.3496936467,0.8920627059,-0.6666931525,-0.9047604772,-1.1750740591,-0.2543429982,-0.6407058244,-0.6924781392,-0.3587733685,-1.4009404265,0.374842611,0.6142309139,-0.9505402956,-0.6815820588,0.9191398457,-0.7677507385,-0.6971954524,0.5046135516,-0.5876487882,-1.4415542861,0.5359836647,-0.1569648496,-0.5023231041,0.1180163815,-0.4496010279,-0.9763784833,0.2391527254,-0.6117531588,0.0217016465,0.9059333959,-2.8142510778,0.2571609772,1.2194657663,-0.6203027019,0.138013738,-0.4004186056,-1.1685034406,0.0108747158,-0.0134892432,-1.1515425339,-1.7355186312,0.002520802,-0.2534223927,1.5022556029,0.5970882237,-0.5132325847,1.0700269011,0.1818042572,-0.8104269886,-1.0686634754,-1.2733832088,-0.810976178,0.0617767007,0.429915889,-0.9946163157,0.6886743404,-0.4340302742,-0.1584130075,-1.526992036,-0.2886023495,-0.1131244198,-0.9027330987,-0.7698685104,0.149760899,-0.569120001,1.0372825736,-1.0228799417,-0.605512372,0.0288328817,0.9320129671,0.2542715324,0.0813282288,0.1254118295,-0.0229713654,-0.7428682434,0.5433574049,0.6392659819,-1.1352475876,0.032898143,0.5853098726,-1.5926569921,0.3454833021,-0.1055717028,-0.7205178686,0.4630562111,-0.2969697571,0.4536251188,-0.0372167775,-0.6342501823,-0.665682624,-0.3623635313,-0.0201344722,-0.5526924012,0.4142022001,0.1188182481,-0.5451010893,0.879879551,0.2630750843,-1.8723837393,-0.056059028,-0.2165094133,0.1934235515,-0.8227162417,-1.293011238,0.7355722596,-0.3520666915,-0.8644128151,0.232329898,-0.0329262697,-0.354659728,-0.0817569117,-0.0410907845,-0.0608575516,-0.3640820611,-0.1873981491,-0.0289536556,-0.2334526383,0.3522415847,-0.0638868999,-0.6352479517,-0.1633239243,-1.1473390857,0.9517205506,-1.560031611,0.3036613824,-0.1672166636,-0.5246163699,-0.8416735006,-0.9459852633,0.6112602371,-0.1289390909,-0.3429702429,0.1877514361,-0.9437689454,-0.6788444692,-0.8635322839,0.2104860826,0.5155333585,-0.487350335,-1.8187939572,-0.1008536091,-1.4835865827,0.4122174094,1.4421890581,-0.4842674674,-1.6109417041,-0.6444114558,0.1261762593,-0.8119003188,0.4877202836,-0.2631777806,-0.5628104239,0.2198517958,-0.2488483258,-0.1447302725,-0.4808352203,-0.2072064718,-1.0819631863,0.0191563652,-0.3897454187,-0.0905849717,-0.8266960056,-1.780814907,-3.9533765132,2.5186901987,1.306442879,-2.35367914,2.2107599501,-1.6366305621,-2.5692987431,1.3086178294,0.6295322413,-2.9818198202,2.6509929372,-0.4563463497,-3.2631903532,2.0760460178,-0.0440121429,-4.4107803832,4.8056785379,1.378420966,-2.1820339536,2.7112706584,0.6442755263,-1.8691494673,2.2854670423,-0.1417695605,-2.3920466322,1.3350869376,-0.4055314463,-1.587353051,2.4443726516,0.4089053382,-2.219641812,2.0082283476,-0.0735786027,-3.6661914617,2.8384083242,0.0867577206,-2.83744182,2.2053558314,-0.0631586778,-1.2123074974,1.6602784468,-0.2416762272,-2.5892397115,0.6807122688,0.7079700634,-2.805200757,0.510380641,-0.8647595834,-2.1267549189,2.1245687473,1.8949966205,-3.9212134716,3.0344327482,0.6310006958,-2.340363067,2.3423012138,0.2818942837,-1.1189155446,1.718291463,-0.2520092111,-1.4992451684,0.2645251941,0.0559479738,-1.9153789843,1.290993515,1.2987205226,-2.2209529481,2.6383481702,-0.058759144,-2.5663281315,2.8128023617,0.5825190883,-2.3208824696,3.5650498316,1.8934598255,-2.2308699812,3.0281639307,0.2935106748,-1.7844788774,2.1867963238,0.5223959341,-2.0324578868,1.5228128845,0.000384664,-1.7708849964,2.4993043637,0.937128543,-2.7027245333,2.4583570653,-0.1170095604,-5.8281120708,4.6669713862,0.0774060628,-2.6727301656,3.3565269495,-0.7546488043,-2.6928524072,2.4430021274,-0.2204438797,-2.3227742834,1.6827588707,-2.0404765637,-2.2547529438,1.9036942629,0.0418550487,-2.326423559,2.3598813097,0.4790717762,-1.5497955489,1.7319875928,-0.6415850795,-0.6702936254,-0.0611194502,-1.1699723859,0.6331202407,-0.7338885212,0.2492449819,0.5654387174,-0.2676917591,-0.0899557518,-0.335459737,-0.2854450889,-0.769725424,0.2815846645,-0.1264845488,0.2423966935,0.5546606373,0.4809040041,-0.8819212574,0.8206146943,0.1751616244,-0.9317064224,0.4571176774,0.0298883802,0.1819584052,0.6919395338,-0.4853664844,0.3848506149,-0.5201030161,0.5407047306,0.236124444,-0.1841853235,-0.6572971965,0.314592587,-0.921293314,-0.1448507424,-0.8198462628,0.167064262,-0.3100697696,-0.7789607292,0.093903988,0.7233330089,-0.3615147847,-0.5261280883,-0.0692402779,-0.2048633683,-1.0448201823,0.3934998503,-0.2555956186,-0.7484693504,0.3839296646,-0.5901897765,-0.9941765059,0.5153236566,-0.1576758155,0.7080427119,-0.6114471027,0.0944508991,0.0334679051,0.6727812407,0.4138050096,-0.6749514075,0.7800391667,-0.3357717172,-1.2093043791,-0.224934774,-0.2565002838,-1.1842950243,-0.3306019724,-0.0467821864,0.013247873,0.0491718367,-1.9977191839,0.3263617626,-0.6891909799,-0.9903203616,0.2842413388,0.7335870653,-0.0511360567,-1.3119729411,0.3753100194,-0.637382953,-1.4680211748,-0.2289457383,-0.452301514,-0.3487860338,0.2136875587,-0.7932679286,-0.5715024418,0.9901330193,-1.1888790825,-0.4639173323,-0.1588599504,-0.7138085575,0.5037434483,-0.0151053709,-1.2062215362,-0.5181931508,-0.69354885,-0.760546687,-0.1070973484,-0.6514143844,-0.8267827962,-0.5143589154,-0.6330982918,-0.5035384721,-0.2545520509,0.4753047387,-0.6107146903,0.4133544453,0.6417789553,0.0128557095,-0.879327715,-2.8003723025,-0.5808855547,-0.501971922,1.1994829239,-1.1201831605,-0.6279325362,1.1866704428,-0.5445311524,-0.07493656,0.6863373072,0.5503001033,0.2183922265,0.1679130492,-0.2150210997,-0.3235503411,0.6272616338,-0.8811606142,-0.7466385552,0.7407273263,-0.8381249716,-0.4527657926,1.2713435083,0.7987005979,0.1167873137,0.303168035,0.0412883382,-0.5513777998,-0.4574024265,0.2045292656,-0.0704801138,-0.0814192543,-0.4119081255,0.288191525,0.5172186265,-1.1417933812,-0.0458471528,1.0851354454,0.2050204649,-0.3180797016,-0.8204036721,0.2905319522,0.5602951127,-0.4688317055,0.5264659544,-0.0493651903,-1.767268111,0.5963488595,0.5459074691,-1.1997546524,-0.3479353404,0.1547181793,0.6563449789,-0.5442291263,0.3288443836,0.1413948625,-0.070010003,-0.3290437014,-0.214993413,0.4758142317,0.1717581186,0.2009470699,-1.119966342,-0.6070616756,-0.8437945624,0.39164329,-0.1104019126,-0.8215434994,-0.2336550916,-0.2341718203,0.2220326458,-0.0479591837,-0.6019596163,0.2275796571,-0.3262784851,0.0595617582,0.3256720028,0.369060549,-0.2504250668,-0.585381527,-0.4705532089,0.6128920111,-0.3852283646,-0.6862705188,0.1747232281,-0.456862578,-0.8261319474,-0.8082419577,0.6073786291,0.0751680195,-0.7218757666,0.6567879687,-0.4824918559,-0.4520590446,0.7390550937,0.35069706,-0.3183049378,-0.3257548102,-0.7502668096,-0.8060341824,0.9430019736,-0.4441149665,-0.4899967182,-0.3083023879,-0.8870901655,-0.1824028467,1.0578652376,-1.4776127775,1.2002958114,0.7564506885,-0.1963172165,-0.4891127346,-1.7900890965,-1.0437948436,-1.0253426011,-0.8303738547,1.0981614314,-0.2008276965,-0.4500527188,0.6252512033,-0.3040455287,-0.3656421916,0.2386146639,-0.1531273313,-0.9178880664,0.5165752472,0.5802608515,-1.0666111195,0.2498156378,0.0650389553,-1.2853966961,1.291146697,0.4363664209,0.0534011704,0.5791118677,0.1164255123,-0.6337678505,-0.5314502263,0.1139043177,0.2878189536,-0.2909782855,-0.302523598,-1.2160587853,-0.9667801195,0.4776161379,0.1380309739,-0.053417766,0.6223642312,0.1177446232,-0.4019381592,-0.2034034554,0.2932284042,-0.0292856194,0.1916539725,-0.5127745543,-0.4295570695,0.9724237646,-0.1850965692,-0.3862273133,0.8406340812,0.2696116605,-0.539675755,-0.0116280572,-0.3270651691,0.3162564334,0.3184829619,-0.5059737882,0.7000343394,0.3425254542,-0.7150968091,0.5150356844,-0.3751414233,-0.0587280531,0.4770337462,0.4485078452,0.1591500893,-0.9263019395,0.368910853,-0.6249155905,-0.925352125,0.3906517788,-0.4797624168,0.0046054714,-0.46245936,-0.2830011764,-0.0136548102,0.1466939501,-1.1416391238,-0.1112471941,0.128510746,-0.9820538756,-0.5869986004,-0.2191962338,-0.1980272079,0.7611713577,0.78556262,-0.4888853427,0.1202606898,0.7331366639,0.0917882177,-0.3501219334,0.6822349291,-0.376517489,0.9660081058,-1.1063603284,-0.71921459,1.1702944039,-0.3405770652,-0.5076580527,0.7546020717,-0.185686926,-0.1551801871,0.5967708841,0.4472631222,-0.4231091403,-0.4994010786,-0.151300377,-0.1333158699,-0.1987547157,-0.6154516108,-1.596475974,0.7164233747,-0.1530838331,-1.4953292932,-1.0090637716,-1.2793695399,-2.6089134727,1.8738449267,1.2403638953,-1.7639179547,0.792483939,-0.4044280226,-1.3127680794,-0.27656224,0.8884908212,-1.3455551966,0.6561934728,-0.5458844981,-2.1863687871,1.1844635339,-0.2268469003,-3.2306332255,3.1263296662,1.0030445989,-3.0955133069,1.3605250926,-0.3775745062,-2.5541304256,0.6319887473,-0.704246809,-1.8844640912,-0.0059145786,-0.969802663,-1.1840333597,0.258203711,0.0063870123,-2.1659670695,0.4677200897,0.1478022592,-0.3641305368,0.8259387791,0.007517593,-1.7744182822,0.9572687308,0.7023990764,-0.9832956776,0.2913494248,-0.4820368371,-0.9207921854,0.5309186672,0.2242605379,-0.9549754569,0.4404843766,-1.1323343467,0.1713816309,0.4840851726,-1.3132834289,-1.2100981106,0.423698689,0.2141509175,-2.1207668698,0.5639617539,0.5895266106,0.2777159876,0.4512742251,-1.4848797358,-1.5924100422,0.3138590425,-1.6660418181,-0.1180327619,0.623966511,-0.708785993,-0.0719771361,0.1107150367,-1.2155807946,-0.9132511359,0.8170311906,0.8339575294,-0.5172619605,1.9656806071,-0.6416484408,-0.4593223448,1.1787393302,-0.779534408,0.0252933995,0.8584996336,-1.5997189616,0.0710760513,0.7066104256,-0.7317994242,-0.7882089975,1.4144788063,-1.454902632,-0.8325546612,0.9042597466,0.2760171069,-5.0812874356,3.3698505444,0.8134385798,-0.9069397116,1.3641154443,-1.0086690821,-2.2439872682,1.3968480123,0.1972470546,-1.2892281672,1.4691003096,-0.3823374976,-2.7435684888,0.8126082538,0.1117128377,-1.6251132528,1.100892476,0.7549458862,-0.6268329203,0.0025592199,-1.319555508,-1.2611701106,-4.6228806889,4.3986325384,1.4377714164,-2.7852003355,3.1209325155,-1.1412561402,-2.2063178085,1.2925014293,0.474216511,-2.1813519481,2.0117876731,1.0800153087,-1.1452830163,2.3671911905,-0.1968301051,-4.0257450339,4.6593760656,0.9898778771,-1.4235460466,2.393792907,0.283999453,-1.6567148006,2.0144814711,-0.7349258496,-1.609900353,2.0333563639,1.2325594548,-1.6366408341,1.5868363521,1.0471495286,-2.320222821,2.1232675587,-0.8966634644,-3.6257003965,3.536384599,-0.2053775791,-3.1812443362,3.0157109506,0.6711299206,-1.355032507,0.8917845823,-0.4550878313,-1.5083984377,0.8791705921,0.5289919692,-1.9396785615,0.7871631082,0.2265290301,-1.5714915531,1.3385525404,1.2246552287,-1.6231735655,0.9929407781,0.3352021057
   -4.4160392005,1.8871013293,0.8883496867,-2.6773651635,2.1460180876,0.7327423217,-2.1770408797,1.0824872567,0.7183363702,-2.2075833383,1.848105972,1.6743668059,-0.9621025141,1.5467026432,0.444876506,-1.5731471333,1.5527394808,0.1383872021,-2.2252017986,2.3977225538,0.982005889,-1.1504666915,2.1544796144,0.0122818981,-1.8100994354,1.82801401,0.7109007127,-1.3479106456,1.17713869,0.71695876,-1.2923755171,1.836689601,0.3408495246,-0.4151815078,1.1704831464,0.1522250261,-2.7026271566,3.711218964,0.7513224791,-3.2072479138,2.8064885773,-0.6935546168,-2.3501661829,2.7405047146,0.0847681451,-2.3276493085,2.6149213878,-0.1721203298,-2.1997991711,1.9297203683,-1.3137765106,-3.0570574137,3.422776524,0.8973991291,-0.91148266,2.0150825188,0.6786605166,-0.7745678551,3.1830932495,-2.4943748215,0.3031944555,0.9522711853,-0.0321409997,1.4371068528,-0.3620349388,-1.4216634641,-1.3972202295,-0.1959871941,-0.4508732322,-0.6500899884,0.8060758095,0.0004373554,-1.2229295612,2.3059117965,-2.9466995083,0.3955423733,1.226938506,-1.2612173547,0.0556380709,0.5620000551,0.372073401,-0.3104032432,-0.321919126,-0.4788132302,0.1562753179,-0.0240924605,0.6411824931,-0.808306578,0.1169929251,-1.5005503013,-1.8975697731,0.2662801829,0.2844722623,0.4616877109,0.8837193152,-1.036999092,-0.3730925035,0.2075459532,-0.3733613136,-1.1047264864,0.4937286099,0.2815826028,-0.8227793022,0.2340425028,1.0701104365,-2.3424203209,0.0885648487,-0.6965881776,-0.2787766363,-0.2596903348,-2.2038939472,-0.2860006764,0.1458740584,-1.3578914922,-0.6776589269,-0.4564410341,0.9806315671,-0.9430234042,0.0941834845,0.1148218523,0.0150548119,-0.3360781981,1.4385054773,-2.5236528929,0.0523084662,-0.7933191773,-0.3569593817,0.2454217596,-1.5930666121,0.3941220539,0.1284802122,-1.1486539417,0.6277078479,-0.2049380371,-1.5354195901,-2.2144901836,-0.1779776179,0.1951576827,-0.3848028356,0.4517120253,-0.2529540273,-0.6902020114,-0.5224858791,-1.1337894781,0.0761626865,0.8771987118,-2.9022213137,0.4787519823,2.6594733725,-3.072203027,0.9496383178,1.0730061968,-0.9531069532,-0.9934710133,0.1512821315,-1.105206528,-0.6484579466,0.1515214729,0.4575669357,-0.6502041518,-0.2064597953,-1.5375629056,-0.3466751133,1.8032501676,-1.0422103827,0.9097923881,0.9678939591,-0.6115788534,-0.9798306494,-2.6246433789,-3.222499791,2.857678241,1.1488977797,-1.8573323418,1.3951734908,0.0161806639,-1.2609201172,0.6088386025,2.1675562868,-2.1323231991,1.7729363205,1.0582541152,-1.217795187,1.2994769326,0.0113043189,-2.6824048289,2.266839925,1.2447370205,-2.6464337491,1.0993944926,-1.2890498676,-1.2093111377,0.9139548511,-0.2217955198,-2.5289636958,0.6186839969,0.0550614091,-2.0780282435,0.7735753801,-0.6788145256,-2.1553740065,1.6456706202,-0.4781982375,-2.466437005,1.8878868478,-0.9240554745,-1.7886583681,1.0406940526,0.7016533129,-1.9450637801,1.7212711161,-1.8230960675,-1.8832973451,0.0730158641,-1.257622322,-2.3601211203,1.2241320404,-1.214063708,-2.4908621952,1.6865944973,-0.9074146672,-2.4755507833,1.3950101354,0.106959153,-1.841722874,0.869437801,1.0193494322,-2.2123998449,0.8253337034,-0.4748852416,-1.875502685,0.6292169456,-0.0659438433,-1.8098964053,0.0376112678,-0.8835723786,-1.3125663813,1.1886560976,-1.0466364561,-2.0476497932,1.5150587639,-1.1248544238,-2.0023463521,1.41172638,-0.7168065996,-1.8781710327,1.594761368,-0.9087624601,-2.2537538259,0.6984876677,-0.4434125291,-1.7846557651,1.7422001474,-0.9963410102,-1.9290285116,1.179177122,-1.2218710888,-0.9938674471,1.3563068119,-0.268641423,-2.225309138,1.9763778911,1.3456354313,-1.4376615881,1.4323822126,0.8017145701,-1.8561807633,0.5848366076,-0.9258198442,-1.9166779368,0.9154420179,-0.3315076907,-1.7433265406,0.614522992,-0.3560178965,-3.4987359629,2.7678302993,0.1636013465,0.1457073172,1.8712905427,0.42221738,-0.2617943579,-1.1464574568,-0.0587063398,1.3672218101,-1.1838443928,-0.6978816043,0.4167878719,-0.6169306165,-0.1673232395,-0.0001880269,-0.587364351,-0.4288407378,0.2907571545,-0.1618637134,-0.4854883991,0.7191745332,-1.3085086857,-0.2304771072,0.180166996,-1.1837707266,-0.6854527434,0.7732052233,-0.7161845863,-0.0918879846,-0.2466905308,0.1472616983,-0.3417476548,-0.8602139789,0.3725659097,-0.186464687,0.0863688569,-0.4471414984,-0.2614315295,0.4223618183,-0.1750205639,-0.3169215767,0.451794475,0.4628460829,-0.2167111622,0.3850368952,-0.0726596586,-0.5598756954,-0.4672176809,0.8083394999,0.4257014108,-0.1888607708,0.5284494269,-0.5078163789,-0.7120269897,0.8291631115,-0.2031024963,-1.1664159827,-0.4008238086,-0.7229107911,-0.531677109,0.4086296116,0.0407205978,-0.0402942908,-0.5042845475,-0.4331560155,-0.8820983622,0.7891446228,-0.8888621039,-1.1056225147,-0.1771779713,0.0709005247,0.5662308868,-0.0587760115,-0.4958733025,-0.3997784307,0.0269350344,-0.4592229476,0.3086014041,-0.3389520444,-1.0011700428,-0.0111141034,0.1500189782,0.1009347604,-1.0604294803,0.5250497419,-0.2432776315,-0.5185691935,0.8462415502,-1.0171325187,-0.9338466998,0.3808806274,0.503863278,-0.4273091011,0.2548445003,-0.137476234,1.1036704375,0.1527515362,-0.296870348,0.6727996439,-0.8653238467,-0.4159237443,0.4544491311,0.1964522624,-0.2444120979,0.6350836583,-0.0967675196,-0.8679204809,-0.2445683989,0.0192336335,-0.0404422893,0.0226605628,-0.0966002355,-1.2094870141,0.8200343811,-0.3171608526,-0.338160244,-0.4297941951,-2.2686074045,-1.702071978,0.5838479756,0.8823142194,-0.3400436297,-0.1673970275,-1.1830663892,0.2209852805,-0.4702616291,0.4309992454,-1.3804836278,-0.2507926991,0.7386364319,-0.5854316669,0.024811823,0.2355739804,-0.9203435329,0.3641265847,1.2227938352,-0.8121765443,0.6706055898,0.9393976608,-0.1646992606,0.6452157598,-0.118753429,0.0823580621,0.2725619979,-0.9847266565,0.4563223804,0.8395981225,-0.7431668461,-0.2346057498,0.692065187,-0.0574481867,-1.0264488179,-0.1953099057,0.7371362684,-0.093064254,0.3337556343,0.0326955303,0.2071138246,0.4286911505,-0.9221586674,-0.0012532288,0.694138436,-0.3016807784,0.5226356251,0.655633548,-0.3638288196,-0.4005152197,0.4870478946,-0.8112210796,-0.7793670272,0.1385012891,-0.3483206867,-0.2197708191,-0.254115686,-0.0314414259,-0.6261301765,0.4721886443,-1.2719098599,-0.2222472809,0.0224905307,-0.3832502508,-0.2305592009,-0.0516086788,-0.5962807401,-0.3656452634,0.7483450725,0.1843903973,-0.1705837105,-0.5774427381,0.2459309428,-1.3308123521,0.2891197832,-0.2597505868,0.3767200697,-0.7361788695,0.1180349771,-0.1385884146,0.101335227,-0.9364454476,0.2063563519,-0.1968013306,-0.452865271,0.3431248866,0.7731293694,0.0714793453,0.061430257,-0.8091634527,1.2450874247,-1.422412174,-0.1436255969,1.0108375176,-1.0395765241,0.9289687152,0.3029358397,-0.8369529852,-0.2188209062,-0.0366196572,-0.3204570639,-0.4465521827,0.7699929472,-0.4030726546,0.5467796362,0.0790794895,-0.2750765774,-0.7229299051,0.5339837731,-0.3181071935,0.7723144527,-1.2976134484,-1.9196823646,-1.8596191086,2.4457085004,1.3471808432,-2.2717898907,2.9080906483,-0.435449308,-1.8654887551,2.8869459623,-1.0736425385,-1.398955953,2.0324025354,2.0554470724,-2.132183217,0.7537270997,0.5439701448,-3.2296081155,3.7735896046,0.8928784561,-2.0986703955,2.4780049123,1.6438177069,-2.2187897268,1.0298783672,-0.2067469291,-2.3887247203,1.559594327,-0.1886637609,-2.2127394912,1.605850717,-0.5439753169,-1.573897375,1.1966300538,0.4122170569,-1.3016855442,1.5186240289,-0.9151326169,-2.930725303,1.3137309074,0.4941976183,-2.9968667399,1.1214997511,-0.498306517,-1.9950231301,0.898601567,0.2787577653,-1.1111483602,0.0629337035,0.3508634789,-1.6574698772,1.3280462576,-0.3337256048,-2.0994889016,2.4821820812,0.6669378641,-2.3239781014,2.3524788802,-0.5075282293,-2.1737211246,1.2841793887,0.4487856229,-2.0089939435,0.4607626977,-1.5459189577,-1.4184560407,0.9632841367,0.5412177488,-0.8791351133,0.8539350796,0.7631833877,-1.4128753442,2.8928344608,0.2783614523,-2.8196399661,2.5563247535,-0.4453433875,-2.1802241252,1.4342894328,-0.0344559453,-2.2936608842,1.1088397538,0.4817341383,-1.7497305428,0.3663672553,0.7845944142,-1.6753822547,1.8281598878,-0.3559890149,-2.2857121635,2.7659793435,1.4757672643,-2.2553099658,2.9123782884,1.356012631,-3.0667960239,1.6961095356,-1.1036267943,-1.8229745822,1.8012571629,-0.2585723902,-2.0337478886,2.6970129237,0.1256452623,-1.3271767291,2.6622129975,-0.4389268363,-5.6277629763,4.9915119293,0.0982421986,-0.6840265444,2.005166232,0.1785004967,-0.1710866049,-1.7874717407,0.5277587476,1.1701729824,-1.5554322172,1.4568177074,-1.5526052488,-1.6501940613,0.7516665034,1.4785716868,-1.2940637178,0.524590953,-0.9905341139,-1.6437487001,1.4315912954,0.5758595945,-2.7002297452,1.8477558388,0.1644896901,-1.49419493,0.2917590323,1.242004166,-1.5799766629,0.527619566,0.6305862435,-0.8087249577,0.9306291308,-0.6351317232,-0.6748043699,0.9744989676,-0.6701796107,-0.9039208847,1.0216004995,0.3546537922,-2.4334538391,2.1684307672,-0.1014899461,-1.2291845484,2.2036790385,0.2672734803,-0.7687967478,1.1361572828,-0.1562861785,-0.2152979672,0.6271911114,0.5251728362,-0.6711177484,-0.2836076023,-0.3082328643,-1.4143928506,1.1385696292,-1.8622877662,-1.7771794109,2.7504516228,0.3050873612,-0.7289805213,1.4587839184,0.8830367972,-0.8051529808,0.9461292991,-1.2747853177,-0.0060755665,0.2300040116,-2.0016239121,0.2992527123,0.0029709844,0.7082114357,-0.5384737619,1.6585003918,-0.6199987743,-1.7236418887,1.7473059642,0.0513707461,-0.2817889008,-0.0227837601,0.6384437653,-0.8153781547,0.3884532787,1.0045934741,-0.7189678788,0.5050955946,-0.5043658216,0.0268877436,0.4971214486,-0.9085845102,-0.9346785248,0.9869920473,-0.4948812354,-1.3163731726,1.5073410829,-1.3316291843,-1.3111160166,-0.2569582058,1.2746002441,-1.3198907578,1.2141965606,0.6742871316,-0.1900521884,0.9604567866,0.8189742582,-0.8828953561,1.0025213481,2.0475423527,-1.6836725715,1.4232476545,-0.0725084399,-1.8456865767,2.3084070589,0.6074038971,-1.351981135,0.4553481692,-0.2693909165,-1.3611191574,4.0681221192,-7.2453623136,0.1706543038,5.3512613369,-5.4444057391,-1.1436894423,5.342430914,-7.285540787,-0.8736476471,3.0245299368,-5.6624369433,-1.9599910511,5.1063057128,-4.9735531977,0.5446924939,5.4741733402,-8.7789339303,0.4016426637,4.0433722183,-6.951912073,3.0514366395,5.5452528104,-3.2433717865,-0.3257260091,4.2306225158,-3.1540500346,-1.2493015397,4.5354867385,-5.0665640619,0.6655418111,4.1519542644,-3.6635660706,1.5557984355,5.0759909211,-5.5347601806,1.6311039239,4.4867584541,-9.8381778257,-0.8854533172,4.2405399447,-3.4858455869,-2.2648160985,3.8080572531,-4.9390876216,-0.8666816672,4.4895044197,-2.6158603238,-5.2345085608,1.2068101146,-4.6200614615,-1.8693961721,4.4367687229,-5.9347006489,-1.5609372296,3.6269389142,-6.065432926,0.7553527622,3.9798659622,-4.9106410433,-0.1730877819,4.2893374692,-4.3647332963,-0.7414376222,3.3235990387,-4.6211341871,0.1884743387,2.1328792318,-4.530711723,1.0934673613,4.2525474019,-8.9172667693,-0.7619917437,4.9234425339,-5.2800247704,0.1572820764,5.028623736,-4.95338661,0.3689540519,3.2060537904,-2.8513726887,-2.7483529444,2.3568967979,-3.4319863109,-0.7957834691,0.424464713,-5.4037245749,2.5164350201,4.1690292739,-8.1884362789,-0.8624590811,6.2932331187,-10.4496026407,0.8397172521,4.2918384973,-7.043283225,-0.5357739232,4.2479801951,-9.1361120419,1.5002643512,5.7020347767,-5.3115318338,-2.6023121199,4.0284253789,-8.116532179,3.1018347553,5.9996682858,-8.7241624098,1.0359851454,0.3942638203,-5.2085386645,-5.5567288803,-6.0692560085,-1.1174804162,-1.0178233375,0.0641037428,-0.0886092117,0.3821208363,0.9644931042,0.5012868491,-1.1631745413,0.3797259997,0.5323045618,-1.4033853798,1.2303976779,-0.4381297463,-0.2950448632,0.1970580895,-0.8805664464,0.3200724655,1.4336240718,-1.000149166,-0.30892871,0.4785919804,-0.0200837612,0.3640752378,0.0071900308,0.648318859,-0.5103607208,0.6976311767,-0.0006163391,-0.5936542829,-0.8725267158,-0.086012259,-0.5761440356,1.0222845521,-0.0135684351,-1.2118474446,-1.0138879801,-0.2144993213,0.3118884823,0.3000884029,0.4487132706,-0.8291845054,-0.8658616105,0.7377684148,-0.4652289553,0.2657982032,0.502156412,-1.1642988604,0.6547116251,0.7936078522,0.5814790302,-1.6551621173,0.6489585559,-1.1372340855,1.3599136701,-0.3557207138,-0.8889082814,0.2127405163,0.0163639065,-0.2643017923,-0.9679044309,0.6902720032,-0.9099172398,-0.4546102198,0.1371018639,-0.9071374764,-0.4045088666,-0.048227164,-0.151759104,0.3231852568,0.8682708704,0.2988241404,-0.9285817206,-0.4034258754,-0.7183464808,0.3985792657,0.3007287772,-1.0221030838,0.6550854902,0.8438741842,0.3381275172,-0.7817616153,0.4820900912,-0.4829816543,-1.3485531137,0.6402045049,-0.2977057912,-1.2173746141,0.3087532438,0.386171245,2.2155104543,-0.3971523877,-1.2269137109,0.4830383843,-0.2815912665,0.1202016847,1.2008598806,0.5393711954,-0.4440010891,-0.080834539,0.8108485262,0.0677002149,0.2163721243,0.9224393911,-0.7927212177,-1.5793169655,-0.2763221989,-2.585029493,1.3148803115,0.463378781,-0.2471596506,-0.4258622351,-1.9380873149,-0.9777287087,1.3015569591,0.050352137,-1.3002754136,0.9667384558,-0.1492129845,-0.0303996652,-0.597864025,-0.4611590053,-0.5285946122,0.4562169417,-0.6100497759,-0.5425450353,-0.7333104377,0.2751303812,-1.4358290667,0.1738505237,1.043202854,-0.8810904147,-0.4068067944,0.5383136513,-0.610503284,0.0548789055,0.4408826038,-0.1570261858,-0.1886742355,-1.4552530312,-0.7368601065,0.5944704727,-0.6007630475,-0.1937320885,0.0399977763,0.0640282792,-0.4416289759,-0.3583924083,-0.2860513831,-0.6536383652,0.0108278295,-0.3624571301,-0.9220325934,-0.5645906355,-0.6387033301,-0.5440062011,-0.4809408272,-0.4773977282,-0.262441545,0.8768948261,-0.2886559971,-0.3486606263,0.2343524162,-1.2102333572,-0.8413840548,-0.387018737,0.5246702689,-0.4212780319,0.1329578335,0.1447637816,-0.0838522882,0.3151720558,-0.3361821322,-0.6599399188,0.6567756827,-1.0994070373,-0.3126172426,-0.3382746782,-1.0749684659,-0.3569321377,-0.5393363765,-0.0564176335,-0.0412715051,0.017000281,0.2497890498,-1.1115372,-0.218799971,-0.6283724689,-0.9784259056,0.0561504533,-1.0377129215,0.1018189263,0.5263082685,-0.3938070602,-0.1878568523,-0.2388023227,0.0028786157,-0.5269126712,0.1243854499,-0.7289533588,-0.4722003412,-0.8158764015,0.8730892213,-0.9998904323,0.0116948997,0.0350964228,-0.6639207421,-0.352049191,-0.2434494987,-1.2515924409,0.1758932386,-0.5624164475,-0.4239340822,-0.5058817096,-0.2161540887,-0.7221950901,-0.5451415922,0.5593369244,-0.5921872648,0.0106804411,0.0116183881,-0.1775953322,-0.2498024445,-1.482503427,-1.2825297363,-2.2674684152,-0.3614773655,1.3046961247,-0.9282228966,0.8635706819,-1.1127132264,-0.6502893498,0.5847852996,-0.5986969639,-0.4136403311,0.5757972081,-0.5412130839,-0.5518281632,0.4473064948,-0.6009155449,-2.9881167332,0.7121113949,0.9518415524,-1.3351180633,0.836490533,0.2617465219,-0.2676682392,0.3049003625,-1.0866846063,-0.1529802879,0.1074161038,-0.9063061214,-0.0525663934,0.6608130284,-0.7708216527,-0.528056319,1.0107305442,-0.2022844396,-0.1301433473,0.7642764068,-0.6182454663,-1.030363984,0.0204456486,-0.4113263216,0.3540170853,0.5832743331,-1.2069971045,0.8093963289,-0.2094769783,-0.8617535766,1.4373280061,0.234977527,-0.5901054911,0.6190836867,0.5894176095,-1.4474366021,-0.4813836804,0.1055348262,-0.4757413005,-0.7383747939,0.5082209357,-0.7883764249,0.3334691267,-0.0012234348,-1.811545848,1.0046772197,0.8037050439,-1.5651103706,0.7805346963,0.6647822356,-0.5429568243,-0.1487773148,0.1146838792,-0.909335472,-0.6290404099,0.5087426051,-0.6642119023,-0.9348475501,0.8612124511,-0.2785203593,0.687433378,0.3769016689,-1.0409950194,-0.732702053,0.2689841462,-1.7092876933,0.8301329187,0.536222382,-1.4856535167,-0.0797086686,0.3104055253,-1.0076390428,-0.8395912619,0.6785087822,-0.5516966127,-2.4349105007,0.5629872261,0.585678546,-1.1106281608,1.2888943245,-0.6570253706,-0.9758072889,1.0919960723,-0.4178227832,-1.0011544862,0.3006226245,-0.3091037655,-0.9970274389,0.6806878601,-0.62894715,-2.1358151773,-0.1580445902,0.4141645954,-1.0551869114,3.4994483,0.6631820484,-0.8487561638,-2.0425096596,1.1418378006,0.7617277052,-0.2051617788,1.0588444357,-0.2204709967,-1.2466124073,0.1288901467,-0.9654427617,-1.8857003522,0.5992562569,0.0215029637,-1.446481917,-0.1063482068,0.9251285969,-1.6548517569,-0.6617176654,1.1443513538,-0.1042502613,0.8910684349,0.2629969345,-0.9109855949,0.5902666849,-0.3133928989,-0.9711814101,0.5712279629,-0.9839373926,-0.8074935678,0.9151496083,-0.8749161956,-0.6832470921,0.5692165935,-1.0260875009,-0.6336019326,0.2357441853,0.3281438297,-1.1567659455,-0.2724129327,-1.298597774,-0.8710170032,0.918688623,-0.9558708514,0.0678779723,0.9625101264,-0.7400226564,-0.1593782662,1.0554212226,-1.4195337322,-0.7603837355,0.3856305624,0.8159792784,-0.9516061126,0.4088106548,0.4085221315,-1.9271915687,-0.2264228841,-0.7187624278,-0.5875229025,1.0729040383,0.3714529693,-1.7232404685,1.6494518838,-1.5154696674,-0.5392452536,0.7167131261,-1.1205808835,-0.2325200305,-0.1623730157,-1.3083507464,-1.1710057267,-0.25802567,0.7913935298,-1.1223303896,0.0385367483,1.3026885253,-0.0497085592,1.1265957761,-2.6748017334,-0.7474189843,0.9748546097,0.0328490356,-0.7687625243,1.2001313302,-0.2951300478,-0.9637614854,-0.5753119824,0.0018874742,-0.695005579,-0.5205640081,0.2461741617,-2.0888317482,-0.3570564195,1.1749923604,-0.4483918152,-0.1082146464,-0.0522444518,-1.2903066033,-0.4070348344,0.2679822927,-0.9250127543,0.1382913158,-1.5857713233,-0.9235960841,0.9809396648,-0.8378599738,-1.8081068124,0.0809174525,1.0502902559,-1.4067903129,1.290370964,-0.1785813967,-2.0535574556,4.1640811423,-4.3337610765,1.0650638667,3.5230394615,-1.2124276741,0.0664855908,2.3410101096,-3.0525385004,0.8668503927,2.6334049295,-3.3753387076,0.6462448141,3.5369230318,-2.7872249642,-1.3741307188,5.5151947419,-6.3496196307,0.6905482049,3.0355247121,-2.719802719,-0.4408828661,2.9452337566,-1.8991788379,0.647483448,2.55986626,-3.0710401178,0.622113008,2.555518676,-2.5640159872,1.1452617467,3.5694172591,-2.5214262682,1.01806492,4.2121396102,-4.133583971,0.3041292041,3.202979915,-3.303449168,0.3484745238,2.7558507188,-2.793818084,1.6633416489,1.1461279778,-3.489586349,0.934787794,1.9563665094,-2.927524503,1.9200324748,2.533506911,-2.5560387284,0.1371308972,2.8852623583,-3.8788311655,0.303549575,3.2898795474,-4.492753752,0.1583719736,2.4520204228,-3.2765035552,0.7888277138,1.3109657295,-3.2848508593,1.2188953331,0.3395736983,-2.9581172123,-0.0821286496,1.5279392653,-2.4403183861,0.7427934122,2.5850012175,-2.9274486951,0.6078760632,2.1202497702,-3.3265894872,-0.0968507683,2.74132642,-2.5483004201,0.7081106183,2.552584571,-3.1097778522,0.6325301442,2.2467719871,-2.5096429041,2.2418177374,2.2867735353,-2.9511030569,0.2000023578,2.9907460716,-2.9745536959,1.0043295389,3.9401261052,-5.0251595103,1.2101374808,2.9895730245,-2.4310347628,0.0428129813,1.9128891463,-3.2789736899,-0.3334381333,1.8422742926,-3.1436221444,0.2210238662,1.9381265011,-3.2872259895,1.3515033162,3.2372976283,-2.8918339335,0.4209057668,0.8203563742,-2.7878318487,-1.3069623833,-3.93904156,-1.6021658794,0.3922809628,1.0941640363,-0.6332606134,-0.20202887,0.5767613879,-0.9570831447,0.0824944217,0.2691705339,-0.975810969,-0.326916305,-0.135150711,-0.8365495224,-0.1915821487,0.3583502854,-0.9230206461,-0.6800393947,1.4323983911,-1.2943122981,0.7819169123,-0.0751536103,-0.7241771696,-0.2085852822,0.2457371034,-0.2459557361,0.6933532465,-0.5995970058,-0.0163760181,1.0528994064,-0.7790501854,0.0196984137,-0.5816837663,-1.0155282826,-0.7747397944,-0.4738013976,-0.2390861416,-0.534586187,0.0777308012,-0.7275364363,-0.4656539415,1.0808682697,-0.9284707305,0.6156518816,-0.046695325,-0.2608528866,0.1844632287,1.1747841543,-2.1151348885,-0.5515847369,0.0446311409,0.224592443,-0.2162620774,0.3839579866,0.052460412,-1.6563556213,-0.2649737794,0.5828292128,-0.2522782577,1.1727923886,-0.5697609369,-0.4937302067,1.4092759721,-1.2993651064,0.2372632546,1.2097750178,-0.6299733297,0.2940243658,0.8365715913,-0.1123403175,-0.5551787802,-0.5219375102,-0.0356821349,-1.7391148349,0.4142887073,0.6763865094,-0.7888042113,0.6695476882,-0.5097634437,-0.9221327263,-0.0177064917,0.773245991,-0.9913061018,-0.4499639094,-0.7937418521,-0.0718923597,-0.0174219802,0.8089279585,0.0195645247,-0.9020743698,0.0141671457,-1.7549313105,0.4174551082,0.6175560296,0.1776303831,0.1538956012,0.2423757475,-1.2445371748,0.5086321177,0.4372982178,0.5273252744,-0.7660826,-0.0196407879,0.0311539365,0.2969983997,-0.3048357163,-1.1423601521,-0.5094158536,0.6950084884,-0.9447697382,0.4687458195,-0.7422133617,-1.4238376913,2.5254605656,-3.1549291769,1.204443491,1.9874248719,-2.7946907629,0.7854298739,0.6758698588,-2.0078765427,-0.1036454766,1.3965057361,-1.4553730097,-0.4040605681,0.8686037205,-1.1635914337,0.2909202136,2.1592798229,-2.0064171928,0.7369100272,0.7960118193,-2.8259779215,-0.3654466501,0.9060758303,-1.4529082764,0.2443396449,0.4240443441,-1.9949185152,0.4407629761,0.824065918,-1.960636513,0.4234475857,0.7632321589,-1.0996951235,-0.0184175391,1.3188919933,-2.7850978655,1.1836878944,0.84756859,-0.9020597244,-1.333354196,0.8465392496,-0.1447342028,-1.779003887,0.7370087104,-0.6217297614,0.0325615309,0.8454617609,-0.1674034207,0.4845602707,0.7385241371,-0.9383668131,-0.3099891956,1.6253802803,-1.4188073139,-0.3411569077,1.0661903608,-1.1307228898,-0.5556354813,0.5673954995,-1.2287434736,0.0257335705,0.685951902,-1.604777291,0.3298134582,0.3752008856,-1.2066351955,0.2452143665,0.0523855456,-2.6116807436,0.6368155488,1.7462006125,-2.3418051294,0.1484339157,1.9773735308,-0.4047556903,-0.9712625479,1.5172887022,-0.4215639942,-1.0195570311,1.0748930539,-0.8694151205,-1.0547167127,0.5876013013,-0.1175678983,0.5538161383,0.7898943151,-2.2062603702,0.3321792632,0.865678087,-2.8880538382,-0.208559472,2.6407757108,-4.3045318143,1.3629746123,2.4822763995,-1.6033180922,-0.4338828963,2.3377135734,-1.2148495973,-0.7920633642,1.6534143514,-2.2438121165,-0.4998279159,1.7706815656,-2.2781440827,-0.131510528,2.8834204598,-3.5763900503,0.9243150526,0.8908490869,-1.8018159562,-0.308645372,-2.7128532706,-0.070465116,-1.2893509685,0.6653109468,0.5623148818,-0.9355838505,0.6271071262,-0.485646219,-0.6336576655,0.6161791369,0.890303527,-1.2569394826,-0.4069735179,0.3744219369,0.2488219569,-0.3209281996,-0.1996291329,-1.9757177159,0.1879555122,1.1612179272,-1.0652458707,0.1788122936,1.4285957267,-0.8573107303,0.5997758366,1.7220864627,-0.1591864008,-0.3825181085,0.4328231442,-0.6569091619,0.6521727281,1.1821570665,-0.8826193995,-0.0399215227,-0.2740040952,-0.348577705,-0.3325690176,1.5133743489,-1.0223531334,0.4591176905,1.886638044,-1.2879675796,-0.7332182464,1.4549227501,0.2347366776,-1.124350997,0.7923571474,0.2198064841,-1.0979196491,0.2095123598,-1.2779740099,1.2017732161,0.4442614744,-0.6746638047,0.1820484196,0.5257654087,-0.1677918611,-0.4915697231,0.9590951796,-0.5946061772,0.2602218866,0.6213187913,0.1945824936,0.1548424463,0.2738672252,0.0220451204,-1.202476725,0.7143806362,-0.1941751421,-0.489920069,0.6565054501,-1.2326734218,-0.1153276798,-0.7786740276,-1.0410175417,0.2086941476,1.2558825276,-0.6487863237,-0.4376285212,0.3118934165,-0.0099372234,0.6650497051,0.28423563,-0.6923056659,0.1774197626,-0.5103275606,-1.6465665895,0.7617674079,0.8578316554,-0.878939225,0.8281807807,-0.4071194554,-1.1688618526,0.8969072502,0.6664296818,-1.3076630314,-0.118242012,0.6917174023,-1.6604852214,0.8488268585,0.8609135413,-0.4722557788,-0.563378589,0.5053309235,-0.7892008917,0.6962442614,-0.8045009514,-0.6762055008,0.8403453321,0.8002886799,-1.2360022775,-1.0789791814,-1.5673780057,-2.0230863463,0.5243671685,1.0958747661,0.7649144613,0.2822755379,-1.6187743598,-0.9521201558,0.0738000755,0.7709861187,-0.0725552602,-0.6373615469,1.0074558299,-2.0727637936,0.2516466643,0.1333758715,-1.3278308426,0.5478568375,0.4386303638,-0.6478660512,1.0435927934,0.3556002797,-1.2589954751,0.5907336374,0.3891360012,-0.292039279,0.4916855753,-0.5357364904,0.1124075023,0.8679609153,-1.1414323318,-1.5313996735,-0.2986519407,-0.194141305,-1.3090999619,0.3322771848,-0.369211326,-0.9172003885,0.4473119549,0.873413802,0.0182216481,-0.0401563539,-1.122179654,0.5583334637,-0.0783792855,-0.7402068995,-0.0633441867,0.2838990993,-0.3365947235,0.3695491728,1.1496246516,-1.4143087127,-1.4850011946,0.3111974773,0.3496376311,-0.6311109093,0.2163324195,-0.4477091716,-0.7373797284,0.4575208813,-1.8041765871,0.1443648874,0.2964110049,-1.0383536557,0.1849729645,-0.257996434,-0.1328687119,-0.5565318571,1.1402160122,-0.2047776656,-0.1132837814,1.0413786,-0.4252343857,-2.2693214234,0.9362761539,-0.3669622366,-0.5237480183,0.006460747,-0.8083073403,-0.0942006905,0.7742831425,-1.2539361805,-0.6439791137,0.7455591986,0.1021211887,0.3627420218,1.350430989,-1.4331745998,-0.1758046799,0.7210267902,-0.3170942718,-1.1368207219,-0.3263638682,0.0410908581,-1.848044676,0.858007011,-0.1685849966,-1.4969633361,0.1745207254,0.2471413913,-1.8117281387,-0.1969489641,0.9614753183,-0.245858488,0.165741583,-0.5696657166,-0.412476967,0.2904572739,1.43421426,-0.650869404,1.2330595396,-0.4029401316,-2.9935828991,0.2052629174,-0.4850653245,0.6459687392,0.1316157499,-0.8112004646,0.3696741302,0.5502840593,-1.4213987227,-0.4981678932,-0.6004715911,-1.3925989977,0.9061679661,0.9662254747,-1.3013790876,0.3426628571,0.5041518663,-1.7900422467,0.3817067479,0.7518319878,-0.1036132662,-0.3593854437,0.8269337005,-0.1738048419,-0.0553164377,1.7125246541,0.1917791174,-0.8447830818,1.1748956983,-0.5956738632,-0.9514706882,1.1447946191,-0.4267710543,-1.3740721242,0.1935376853,-0.6876009924,0.0879596227,0.039560039,-1.0318990514,-0.1916594698,0.8095040131,-0.1883424418,-0.2084012769,0.7549022172,-0.6969705185,-0.8592851316,0.4723055107,0.157005943,-0.5258350621,-0.4598063284,-1.0389329827,1.0886855785,0.7678543643,-1.4938832909,-0.5599430677,0.0300191042,-0.7866290286,-0.0249682524,0.1630944452,-0.7311563018,-0.0643645782,-0.305041509,-0.0262598486,-0.9748458526,0.2749965067,0.4685595691,-0.8839745145,0.6917663057,0.04408362,0.0051271431,-0.1433573356,-0.9682371722,0.7596108853,-0.3091370495,-0.6017085396,1.6157321537,-0.1136637781,-0.6821132374,-0.5285587665,0.1592201239,-0.500865207,0.8849138434,-0.5123999063,-1.4546018789,0.9881353653,-0.1745045035,-1.1961317586,0.5849262091,-0.421925647,-0.8395959237,0.037924947,-0.8673118078,-0.1132225801,1.3478771828,-0.226627111,-1.5574715313,0.7207136953,0.3834898713,0.4787535521,-0.0778839559,0.593155471,-0.8960659102,-0.1610631745,-0.5723658995,-0.1491935132,-0.1553593953,-0.1246981289,-0.721229875,0.1402243652,0.4549648225,-0.6777454332,-2.2548669791,-1.5073301319,-1.002003291,-0.0210337052,1.4378692444,-1.0701017013,-0.4082093016,-0.3367948006,-0.3195370783,-0.2255681324,0.6762186587,0.1898158168,-0.192750716,-0.1720781039,-0.1661004145,0.3582411221,0.4502618843,-0.7956768557,0.2031106896,1.3644827194,0.2253252718,0.2070985473,0.8791230832,-0.7808798277,0.0450974321,-0.3843652884,-1.111759834,-0.2607629727,-0.3848858274,0.0852560921,-0.3333100546,-0.6001234259,-0.6646665918,-0.1089481116,-0.2310944764,-1.5239044804,0.6581853749,-0.4553729953,0.4229449475,0.165200541,0.570591889,0.2178831066,-0.5162578404,-1.1274053199,0.5648608825,0.3771357114,-1.1978479875,0.8251878907,-0.2653069336,-0.5251640388,-0.5741327989,0.4211591481,-1.13787854,-0.4495681449,-0.0555682759,-0.5282331776,-0.3604352123,-0.1663754818,0.5836727073,-0.6022925068,0.2611655021,-1.1248510627,0.3099591011,-0.6206816601,-0.1078998545,0.3611396726,-0.3534876026,-0.9603339668,-0.749963528,0.838145837,-0.4251736229,0.3458966668,0.0669183796,0.1212014919,-1.1761614371,0.2897451232,0.3531799488,0.3243287156,0.2789502305,-1.3086024251,-0.814986835,-0.2611449731,-0.442701872,0.1869268225,-0.4341094519,-1.1360336549,-0.0381264677,0.0969291115
   -0.6377354896,0.2218361065,-0.7234362661,1.1295715063,-0.4143845721,-0.6371130785,0.1114882052,0.0957506052,-0.5883011993,0.4979102797,-0.1830000002,-0.6293941543,-0.4405981686,-0.61388896,-0.0886105735,0.1060800627,-1.1064175416,-0.4289982204,-0.02902462,-0.5837002441,-0.4148143763,0.233421383,-0.0233393139,0.496746154,-1.1776948201,-2.2607640811,-0.9817455526,-0.4456999464,0.49030933,-2.1746079666,0.5592029226,-0.6316761187,-0.8467790522,0.1962712182,-1.0951013843,-2.2850868085,0.6347435129,-0.3809686057,-1.8704279679,-0.2152187946,0.9212506329,-1.275212666,-0.5660153068,1.1956803792,-1.671140861,-0.0405147052,1.236508174,-1.7195152998,1.2157452519,-0.206829251,-1.0621410809,0.805592587,-0.9829848163,-1.059530358,0.4197139705,-1.3805330454,-0.4305764984,-0.3503501736,-0.8510116768,-0.6073410761,0.031954406,0.0673001071,-1.9901408173,0.6090931534,0.4047887106,-1.6497417072,0.6942339237,-2.0045161603,-1.2731351315,1.0566282906,-0.7102018313,-0.6425153421,1.7713248158,-2.5212681089,-1.7898190625,0.060242571,0.597451909,-1.7549544049,0.3570147098,0.8283926635,-2.682855646,0.4685910282,-0.5993352515,-1.3369546227,1.3000320547,-0.488270462,-0.8228586073,1.4630835728,-1.8629796165,-0.1500181142,0.8018410042,0.1056675639,-0.2208284438,-0.1591511168,-0.6822541802,-1.4318723983,-1.3070936947,-0.1886622932,-1.6903075433,1.1044525462,1.0694156998,-0.3020860946,1.4658969017,-2.0136597164,-1.0455641581,1.1279058501,-0.2595027584,-1.4775668555,0.9252411413,-0.4446349593,-1.620532498,0.8570903874,0.5281531109,-0.8065514318,-0.4453641796,-0.1694019301,-2.0920078566,-0.1190825004,0.7147385644,-1.0421283169,0.6732101802,0.0615317862,-2.4106622662,-0.2097775725,1.2350858011,-1.2332337468,0.3814355789,-1.4682743724,-1.7914425093,0.0686266648,-0.1329574732,-1.0971230942,-1.2876944388,0.3049047577,-1.5215478485,1.4091682457,0.0748385384,-0.5983758268,-0.0133469031,-1.7246360376,1.1662069141,-0.5581252399,0.4961842302,0.7292993681,0.0413642237,-0.1303739098,-0.1172110323,0.309545736,-1.0677324579,0.442755497,-0.1335098855,0.1007900069,-0.1803643798,0.102474918,-0.7481954467,0.4597628259,-0.2121565287,-0.7865593844,0.4018801737,0.61408168,-0.0149605755,-0.751748932,0.4977860848,-0.7841848321,0.3876779292,-0.2750888108,-0.777202492,-0.7819086103,0.4702903773,-0.4010134486,-0.0539430111,-0.6533891155,-0.2105991583,-0.0977062316,0.3123546246,-1.3921848774,0.660570051,1.1604966769,-1.0654259816,0.0258223834,1.1249141441,0.065230289,-0.0821423536,0.3287595994,0.4046121469,-0.8559483195,0.7213849537,-0.60533976,-1.2429895475,0.3180241127,-0.5746395466,-0.3026343817,0.1168581812,-1.1543279766,0.8619032091,0.9924051205,-0.23958382,0.4508819535,0.0697198756,-0.577840538,-0.6051200398,0.3700525099,-0.0750930749,-0.67851747,0.1247671756,-0.325277472,0.0538976115,0.5944025161,-1.2987510096,0.2303698163,-0.8009555722,-1.1260888448,-0.2695103598,0.1831877085,-0.6663602204,0.1267590544,0.9454683883,0.5327015737,-0.9207194049,0.5653780741,-1.0104478465,-0.7246807988,-0.6564961778,-0.0342312738,0.0499345206,0.1516128674,-0.2187636112,0.5600322807,-0.3242225938,-0.8530695614,0.9333431986,-0.0643151787,-1.0202662419,0.397478025,0.7782627611,-1.1597440605,0.8908974068,-0.0546600895,-0.4460467361,-0.7763135069,0.8565704686,-0.2963349177,0.3729069672,0.2708549625,-1.0602856422,0.8563103215,0.3999706785,-0.9910396483,-1.08432821,-1.9535807177,-1.027463269,-0.5030513923,0.8396669287,-0.5659105867,0.3851571346,-0.3510453355,0.0985129872,-1.0557740133,-0.8373984397,-0.0459896949,-1.3268707681,0.3245177317,-0.2373422349,-0.5759231825,-0.627897527,-1.6174465742,1.0048235829,0.0759041742,0.8602879205,-0.1600043374,0.7928091805,-0.7511810872,-0.2501634851,0.3557869059,-0.7534650366,-0.2303594834,-1.2349773419,-0.4660374706,0.0814637583,-0.8596697102,-0.8804028888,-0.539041248,-0.4607270341,0.2304761399,-1.9474304752,-0.088965772,-0.4071480549,-0.8223531272,0.7129963205,-0.2416260952,-0.465774008,-1.5309429099,0.0935366383,-0.4152349556,0.7838202968,-0.3051796544,-0.9642705002,-0.7424738606,0.6454726906,-0.2986516647,-0.8880681276,0.3943274939,-0.7099006401,1.0179722757,-1.5254197657,-0.7456495569,-0.1394937414,-0.3218180376,-0.1290400677,-1.3334925786,0.0774803333,-0.4086361248,-1.5121355883,-0.0982706077,-0.6772122822,-0.6913599322,0.2192266922,-0.3625155938,-0.8707496717,-0.1195855079,-0.6999238765,0.3408454083,-0.2074773654,-1.8243388124,-0.2519008836,-0.5903905923,-0.5919312144,-1.2737220987,-0.3839874567,-1.1453810168,-1.3201827935,-0.0598694301,-1.244712155,-0.4863830143,0.6825998367,-0.0387903127,-1.1286128613,0.1743153867,0.5379137725,-0.3562687082,0.8789242779,-1.6368718044,0.1230872742,0.0211468912,-1.3048811637,0.0205821448,-1.3849841484,-0.7980720649,-0.8850424771,-1.1467713502,-1.3306310935,-0.8257438546,0.0075791144,0.0334679685,-0.7956119356,-1.7114367019,0.9398817903,1.1402799628,-0.6011535318,-0.3594155293,-1.1511262181,-0.8868723505,-1.6960488951,-0.0859953245,0.5393023811,-1.5154269209,0.1736379062,0.0659808823,-1.0592057487,-0.0738891749,-0.434852834,-1.3753257715,0.101373307,0.3665477945,-0.9840889643,0.1542818075,-0.355199217,-1.6256584965,-0.1280572456,0.9961468972,-1.632846219,0.6559962793,0.472725692,-0.0663864527,0.3727917021,0.0758420535,-0.8039548252,1.2264002017,-0.8026266451,-0.1679999443,-0.037156788,-0.3126330213,-0.7375909198,0.3977963363,-1.3338965585,-1.6764056198,0.2835875253,-0.544268476,-0.6306603699,0.2405710667,0.4454424398,-1.2422997655,-0.0328466965,-1.359751609,-1.006775575,0.734395007,-0.9909682113,-0.5797460335,1.1957449945,-2.0349464098,-0.8083835242,0.9266030687,0.6472818587,-0.334309696,0.586555083,-0.4573802019,-2.0852555999,0.8295247763,0.5208380146,-0.6838370271,0.4714675848,-0.8666433914,-0.4551977354,0.1566108019,-1.0006487927,-0.1251533578,1.1124133195,-0.4263785969,0.0562491464,1.2425791017,-0.0824569813,-0.8882867594,0.0105977034,-0.3945966301,-1.0000910102,-0.1392573602,0.9264163191,0.2220680723,0.2293599485,-1.4735514202,-0.7980546697,0.9108662364,-1.0887116247,-1.3453245558,0.0403118609,0.3598398646,-1.3754936027,0.5867284865,-0.6811323783,-0.2010790223,0.5532701662,0.6452818815,-1.9357068011,0.0462231186,0.0588596,-1.2821066684,0.2809750111,0.1774562422,-1.556406899,0.577027257,-0.2041601956,-0.6333445123,-0.5201414582,-0.9373496746,-0.5138675345,0.748363626,0.5337032586,-1.282151914,0.8109076707,0.0466621642,-1.1971876502,1.3943894945,0.1003545144,-2.557593623,1.3219884104,-2.0411618622,0.9790613492,0.5767159205,-0.8558877826,0.5553334602,1.1075237648,-0.3898755792,-1.4305364405,0.8605563478,-2.2206238555,0.9228947805,-0.0168263917,-0.2303575198,0.3937940864,-0.2423648097,-0.2488423077,0.9586299804,1.4085363683,-2.8711897099,0.0135479446,0.0655550797,-1.0329378405,-0.6460584061,0.4199284099,-0.5806489322,-1.129359239,0.4602371013,-0.3414140518,0.2869900175,0.1492388638,-0.2338547368,-1.1360986467,0.2762983768,0.3253829599,-0.1536965084,0.5771557931,-0.8423954499,-0.0286889492,1.3027656671,-0.9718473077,-1.8606467146,1.5051083985,-0.3405512799,-0.410365152,0.9303034395,-0.7737978114,-0.4895638622,0.4944453002,-0.4724128411,-0.2317421923,0.4265574711,-0.9045901121,0.6379080449,-0.6981371013,-0.507074514,0.2939089689,1.078159137,-0.0713142846,-0.7633929823,0.6542758457,-0.4727461889,-1.2652993765,1.0148017943,-0.8648910628,-0.6896500842,0.5682392288,-0.6844036846,-0.8572546452,-0.1752352819,-1.0392354898,0.2295522805,0.1439506229,0.0487901737,0.5505160761,0.9379598322,-0.5816698213,-0.6068728276,0.4930454463,-0.1387316607,-0.8630411387,0.5731421885,-0.5197704482,-0.8623859824,0.5231022469,-0.52858067,0.1688509816,0.189779345,-1.2862951013,0.1539474287,0.1910368034,-0.3499563083,0.6044565092,0.1274819246,-0.5214086124,-0.27448549,0.5865561094,-0.2450875118,0.2810715766,0.1433279587,0.1194165113,-0.4906396,0.1789318598,-0.4799946839,-1.3908738279,0.8710552751,-1.2813241259,0.30814101,0.1873773917,0.452800969,0.1128092384,-1.188257836,-2.1836355239,1.6368686875,0.2289085245,-1.640894766,0.909691993,0.724154736,-1.1443959574,0.3279106049,-0.0609553602,-0.7367379454,0.6194513833,-0.4780605192,-0.5045871276,0.3689955695,0.187384844,-1.6439833633,0.0486160281,0.643027593,0.142817319,1.3566108151,0.0649888721,-0.4241020789,0.9870145892,-1.060828716,-0.1553862855,0.5319583284,-1.694814786,-0.7500632959,0.221191086,-0.5119232449,-0.1505970624,0.6195596999,-0.3597808109,-0.3733874435,0.2124752184,0.8933932498,-1.4252547749,0.0528986631,0.0586608071,-0.3865203194,-0.0498258624,-0.6935525453,-0.8352317084,-0.0496482215,-1.3444130214,0.3824099728,0.929717741,-0.8559810211,-0.7946386536,0.1311855549,-0.1415988051,-1.4147648955,0.3604614745,-0.0426606353,-0.888603939,0.975201344,0.2484001512,-0.1841361807,1.0704057818,-0.1275228499,-0.1846522273,0.9540985117,-0.1499008202,-0.610158634,1.0229841298,-0.0798733922,-0.798298222,-0.0967236834,-1.3219184197,-1.9635921707,-0.1025473169,-0.0219588557,-1.3780005885,0.8272399834,0.732135223,0.3093189227,0.43421008,-1.3741197795,-0.3720763699,0.0993785268,-0.3698877745,-0.1870236168,0.1763482651,0.4715475205,-1.0995792713,0.5831768473,-0.7629547339,-0.792328472,-0.0760181137,0.5308040364,-1.8608227217,0.6367787119,1.1076903161,-0.2772585947,-0.2687083096,-0.3753643504,-1.8629338282,-0.2663471868,0.6002892279,-0.6706522032,0.6674495781,-0.9834322425,-2.4222942597,0.3629265042,0.2035972395,-1.4136827361,-0.0356743758,0.7729454409,-1.1125228151,0.0883741373,-1.1455303489,-1.1914014448
##end
biasActivation=1,1,1
[BASIC:ACTIVATION]
"ActivationSigmoid"
"ActivationSigmoid"
"ActivationSigmoid"
