encog,BasicNetwork,java,3.2.0,1,1380563466765
[BASIC]
[BASIC:PARAMS]
[BASIC:NETWORK]
beginTraining=0
connectionLimit=0
contextTargetOffset=0,0,0
contextTargetSize=0,0,0
endTraining=2
hasContext=f
inputCount=78
layerCounts=3,41,79
layerFeedCounts=2,40,78
layerContextCount=0,0,0
layerIndex=0,3,44
output=0.9689519391,0.0131327633,1,0.000158654,0.0000019861,0.0004931306,0.0002050491,0.0002491653,0.002020909,0.0000634258,0.9984039135,0,0.0000041534,0,0,0.0232591378,1,0.0000333309,0.0014771192,0.0000347099,0.0060454679,0.0000032271,0.3082246213,0.0000080316,0.0000000001,0.0246413743,0.0000057549,0.0001116982,0.0000012658,0.3978456681,0.0000049483,0.0000000928,0.9999947417,0.6720833861,0.0641286112,0.0000151703,0.0081506329,0.0909551797,0.0004320953,0.0001323318,0.2058343888,0.1775052624,0.4565005373,1,1,0,0,1,0,0,0,0,1,1,0,0,0,1,0,0,0,1,0,0,1,0,1,0,0,0,1,1,0,0,1,0,0,1,0,0,1,0,0,1,0,0,1,0,0,0,1,0,0,0,1,1,0,0,0,1,0,1,0,0,1,0,0,1,0,0,0,1,0,0,1,0,1,0,0,0,1,1,1
outputCount=2
weightIndex=0,82,3242
weights=##0
##double#3242
   -0.5232386277,-0.7357951784,-0.004864064,0.2179769938,-0.1540155035,0.3774550599,0.4097237767,0.4542139245,-0.7801662269,-0.2758200548,-0.3704542945,-0.8114602244,0.0178038962,1.0473560957,-1.1140951352,0.8048717952,-0.8485957978,-0.4895714312,-0.6843477082,0.6012595374,-0.2507441069,-0.8202244806,1.1639028843,-0.2583946647,0.3615217778,-0.7721410456,0.2139758083,-0.0308213166,-1.1013320666,0.7712514271,0.3859403562,0.4925727754,0.5205191541,-0.1147674175,0.1593367982,0.7433465391,0.5771056951,0.1710244899,0.0876252642,0.5277579104,0.2735233833,0.4565041085,0.5611847953,0.0874461544,-0.1353545382,0.109241409,-0.5898610871,-0.5069277441,-0.4345575806,0.5308510805,0.1843820728,0.0369302838,0.62990905,0.212656094,-1.3006054982,1.164765256,-0.9389840422,0.7962964959,0.5341422208,0.3868840751,-0.6817211554,0.1608349419,0.9490242427,-1.0741947334,0.6768368967,-0.1486094189,0.4091137795,-0.072426286,0.0097257077,1.1401755164,-0.926783995,-0.4024822677,-0.5738970683,-0.2613075535,0.0981928621,-0.1019937728,-0.3880328433,-0.2589150805,-0.1250195687,0.0812458204,-0.6231256204,-0.7867511858,-0.0095176966,-0.9836152584,0.4060916317,-1.1003464596,-0.2099032083,0.2951773835,-0.8841876313,0.698914856,0.3958436273,-0.3356769092,0.7528915601,-0.5708017916,-1.0438902631,-0.0135565886,1.2229377705,-0.77833991,0.7808909554,0.1167800453,0.0836888506,-0.460574419,0.4019341757,0.0054858821,1.1284763622,-0.2019030877,-0.9406437551,0.4601021844,0.1321471808,-1.506791621,0.5562827963,-0.255215465,0.0827682404,-0.5199080127,0.795227914,-0.4259784928,0.2610492728,-0.2475684597,-0.0911591448,-0.4233700085,0.2883938682,-0.2529644116,0.4353922251,0.4142930157,-0.9119444472,-0.1264671147,0.7294656438,-0.3147445144,-0.2004950141,-0.3255620271,-0.7132242951,0.2209164985,0.5993556809,0.0855806852,0.4441295999,-0.5303645847,-0.0510400839,0.6467484103,-0.3644728171,-0.2258664571,-0.1152464913,0.3532650209,-1.3245684058,-0.769432195,0.5097322853,-0.5455523235,-0.3752024775,0.8471965337,-0.6495429955,-0.5184931001,0.0294072436,-0.4586058512,-1.3870468726,0.4233053437,-1.1107533678,-0.3945427765,0.1208603166,-1.2020691441,-0.3662614938,-1.1562537485,-0.8550337147,-1.2069078689,-0.8472688553,0.1594721647,-1.573472248,0.4260337137,-0.8258469657,-2.3752264131,0.4377577968,0.7381316107,-1.8309187095,0.344718517,-0.1856715341,-1.4167330145,0.2232148732,0.9377758133,-1.927626079,0.7838522276,0.8443991152,-1.3554769001,0.7793505001,0.4633155929,-1.3859570147,0.8363289417,0.1808714294,-0.5956952302,0.6168555002,-0.1105642658,-1.1303756808,0.7013034351,0.2320425571,-1.2764698148,0.8371251781,0.1916546512,-1.5707609341,0.9225657783,0.4614414223,-0.0776350021,1.1146233587,-0.2668839239,-0.5503990799,0.3951301597,1.0099352278,-0.4106679008,0.4227920009,0.0867867951,-1.1231035211,1.0430554105,0.9446796971,-0.507771908,0.9673649373,-0.1531916113,-1.1326100631,1.523215247,0.1645814007,0.170498039,0.5978846993,0.7551536435,-1.4338752805,0.2882082731,0.3591002666,-1.6079260894,-0.4788212757,0.8177996384,-1.8814732241,0.9280984409,1.2178980147,-1.5810487792,0.6639708758,-0.2129059341,-0.9581167264,0.282883423,-0.2126493063,-0.7526386213,-0.9604504925,0.5801317283,-0.7852407342,0.1206787362,-0.9353804016,-1.3079265716,-0.4699410948,-0.0764679699,1.2180406054,-0.3463187093,-0.2432595972,0.7861895004,-0.0627209396,-0.5189366574,0.0134875998,-0.5783288872,0.2424301977,-0.4500806444,-1.4551956351,0.0028418328,0.9321811982,-0.271805134,-0.2185572213,0.544911386,0.2414519638,-0.6463238706,0.198798296,0.0696558292,0.4624139925,-1.0049051834,-0.8733729974,-0.561857094,-0.3809277357,-0.8148789839,-0.4608998979,-0.5646340637,-0.5803510773,-0.6947331824,0.2682904042,0.125582423,-0.45179308,-0.0861660261,-0.3468378703,-0.1276077936,-0.8104497727,-0.2215159669,-0.2917572557,-0.2058279818,-0.9291038232,-0.2918747089,-0.5951879416,-1.0006424387,0.2478984557,-0.7805079993,-0.2849311079,-0.7843612889,-0.0982672049,0.6123527717,0.548493836,-0.5241977513,-0.7371152882,-0.0525894753,-0.3186840893,-0.5738367342,-0.2417390085,1.1165008965,-0.3584572292,0.1163961917,1.4172200357,-0.5084604267,-0.1512916327,0.0645635532,-0.0907198663,-0.7987324095,0.9179530992,0.8000143739,-0.3941962389,0.3084488455,0.3994913073,-0.6343475309,0.2289704803,-0.3973755225,-0.0401387577,-0.7167824129,-2.0123562323,-0.8164962727,0.2937097245,0.8446420233,-0.8601451791,0.4161901737,1.5686168976,-0.5736110925,0.7460479911,0.5862523336,-1.588792533,1.2199882985,0.6191493805,-2.3340842206,1.3779198089,1.0067256546,-0.8314323454,0.5335199018,0.6408668339,-0.7984824477,-0.091835023,-0.488628397,-0.3358729297,0.4715935127,-2.0991326837,-1.2956208158,0.2905800895,1.0968512519,-3.0648035708,0.5997607049,0.0738024793,-0.0597256538,0.2616350724,0.6254979212,-0.0583457614,0.0685508039,-1.845172594,-0.1476356504,-0.5891484819,-0.0920217949,-0.4181227202,0.1131058887,-1.6054002827,-0.6122194259,-0.0022470845,-0.8730954074,-0.670322207,0.6666734861,-0.9308971975,-1.0352046319,-0.3879135492,1.3315746489,-0.3393779093,0.5250408498,-2.432985027,-1.0700287229,1.2090113677,-0.8846872976,-0.9602283805,1.3606163593,-0.6156612761,-2.2415783367,0.5630276253,1.3458626149,-2.2431070273,0.307404753,1.8386150026,-0.9647383794,1.5711873768,-0.5744947172,-1.0022365783,1.0078531125,-0.0456724607,-1.9738383525,1.3814972493,1.2434179457,-0.4451241917,0.8761562709,-0.8695708079,-2.5853800733,-1.548014536,-0.1911203854,0.0592933882,0.504952433,-0.2312388891,0.047361201,-0.3039547236,-0.2947468734,0.1588683984,-0.5990174142,-0.2177809642,0.1423449304,-0.8796282075,0.41670683,0.0672900487,-0.5740166475,0.1637746348,0.9171903521,0.0413539847,0.5693162437,-0.4858854741,-0.640530787,0.3968467647,-0.8267244835,0.4192314057,0.4752242301,-0.4305071102,-1.0297984431,1.0076819097,0.2092862709,0.1439052647,-0.4656107357,-0.3223227716,-0.2239379365,-0.0500733114,-0.9844157837,0.7128553356,0.3523371464,-1.9154746595,-0.1477189153,-0.0368392679,-0.7731052343,-0.6887146873,-0.3259459631,-0.9109414912,-0.1034138914,-0.1531475332,0.7324761881,-1.0069276386,0.5246812556,-0.2147219973,-0.4370628023,-0.1774916521,-0.4925226774,-0.9672327973,0.1769395223,0.3594248483,0.0023980358,-0.6855858822,-0.0540672677,-0.9531235079,-0.4452296099,1.3531817504,-0.6194055936,-0.5187933181,0.4211358374,-1.1255928115,-0.3067816094,-0.4876513877,-0.6513251089,-0.7095624856,0.7158715636,-0.9208236937,-0.0690409617,0.8613904732,-0.531248028,-0.1839092209,-1.4854078734,-0.5902670422,-0.954682606,-0.3116646765,1.1991543479,0.3474317963,-1.3769289483,0.1269329155,0.6709119239,-0.6649722593,-0.5378545377,-0.087071615,-0.2448929067,-0.1133587524,0.1639676327,-1.059190758,0.6634683028,0.2958033502,-1.7503678451,0.9356329481,-0.0125738719,-0.682256401,0.028762745,0.5787195368,0.2290039281,-0.4070327131,0.746116259,-1.2381407154,-0.4323417319,0.3518634842,-0.2370297155,-0.2644789322,0.8130035187,-0.683520326,-0.3176484133,0.1825249275,-0.2264819231,-0.4267260147,0.4126059604,-0.9410023649,-1.2034451518,0.8555447358,0.2597946579,-0.9367303919,0.8038642382,-1.1421878678,-0.2111956173,0.5506353873,-1.424745695,-0.5456763611,0.1673519641,-0.8913955499,0.9336158031,0.1579099921,-1.004922009,-1.2129795211,0.0176627245,-0.7819915817,-0.8747060452,-0.2433929724,0.1084320744,0.2953232945,-0.8741991414,-0.8349280069,1.382338587,-0.0591218718,-1.2557824892,-0.218446798,0.5467583406,-0.8381394442,-0.3755130101,0.8768478032,-1.8413533081,0.6657728632,0.2714182919,-1.4232412417,0.9012322133,0.8175907226,-0.5450753745,-1.0911603332,-1.7550463266,-0.4358218098,0.1607361765,1.359982894,0.5288248447,-1.2751713937,-0.4719685588,0.5346230614,-0.3191197678,0.8511782151,0.3815212529,-0.7306292644,0.1039663658,-0.6161668935,-1.8657646319,0.0822257739,-0.3810006064,-1.4448952415,1.1775901068,0.9480653939,-0.6847685056,-1.1020822299,0.6765480544,-1.2063211688,0.1773245794,0.632207843,-0.7418655038,-0.9685450719,0.1992445481,-0.2141085388,0.8497877447,0.0379158663,-1.1122539768,0.0275348131,-0.0987844919,0.393026905,-0.4610172392,0.7216447197,0.9538853068,-1.8529797486,0.93312129,0.059229988,-0.5926316037,0.4136416529,-0.4182539219,-0.6866035472,0.0544980425,-1.0575172964,0.6549748994,0.0673946488,-0.5404591335,-1.739665793,-0.0746168997,-0.4566313956,-1.2928663596,0.4071192462,-1.5060675411,-0.3778484855,0.7955320247,-1.3005709647,0.0472545458,-0.5619296314,-0.5580350231,0.2954618544,0.1213719665,-1.3634957842,0.5125704143,0.1008766674,-0.428393547,-0.1767250787,-0.6024029037,-1.0245867888,0.5474937246,-0.3191499018,-1.486649779,0.7290332517,0.3445967177,-0.8252891437,-1.9902223863,-0.6224047816,3.1783454962,-2.9751396313,0.2414546349,2.3026533771,-2.8694332087,-0.2014545915,0.7221892303,-2.4475993288,0.6630569231,1.5861574544,-3.6618055602,0.409239912,3.0407139433,-2.9720686623,1.1262520993,1.3733734584,-2.3805389725,0.1765651487,1.3765318719,-2.6241664243,-0.8714232853,0.3973805908,-1.5610605445,0.0529538434,0.4862740581,-2.8166393678,-0.7631747421,2.4463385587,-2.7646845284,0.5059173048,0.8190211912,-1.8858950783,0.1513556737,0.3461318545,-2.0830973267,-0.7391338439,-0.9468129998,-2.1003202808,-0.0917166633,0.6915016403,-1.9266508697,-0.1680659335,0.7633703974,-2.6070326896,0.1208815239,2.6850681837,-2.0514913209,-0.1967644106,2.2299724488,-1.3263259964,-0.5723907325,0.662020679,-1.7346386256,-0.7239818112,1.6056185914,-1.8808406392,-0.5576451098,2.5261387111,-3.1105708025,1.880806354,4.742986443,-4.5841264949,1.2144719059,3.4974198278,-2.2471345263,-0.9655572657,2.5361742805,-1.8652570652,-0.8947364415,2.1776694131,-2.4066988163,-0.3089528687,3.5735358508,-3.7546725086,0.4458631177,1.0868886865,-1.5768872055,-0.7481421946,-3.3203921191,-5.3086293178,4.5318906575,0.1109162398,-3.996352292,4.3675049754,-0.1404397776,-2.3923525409,4.0614784273,0.3846376204,-3.842579047,4.6350462069,0.6806561026,-5.3167519364,2.8083599055,0.0659671977,-3.5564296655,4.9021487131,0.5689091355,-2.3897229159,3.4006594638,0.5053795606,-2.9744770731,2.4996428128,0.2787332933,-3.2241560128,3.33471805,0.4316283435,-4.2276595249,3.8690449083,0.1829018178,-1.6580971812,3.4402087041,1.1581057208,-2.9985492837,3.0346818253,0.0542318066,-3.2203054517,2.4532878937,0.6926636805,-3.7458675559,3.3014671357,0.4764770749,-3.9123591548,3.3893973189,1.1223837497,-3.294767593,3.7814587824,-1.627048702,-3.7514289068,3.3164690387,-0.2208432778,-2.5320003539,2.6340235713,0.7419033216,-3.685559828,2.7746167178,-1.0761732336,-4.2646123646,5.8735198754,-2.0839188753,-5.4833616099,4.1935215119,0.5428008,-4.1136086763,2.9566856484,1.9557201595,-3.9434984961,3.3050905891,0.7401723972,-2.2378707691,3.9262054931,0.0930114983,-4.420355489,4.1366219602,0.504148128,-2.2520211008,1.7938675056,-0.7771778824,-1.9955996106,-1.3934303294,1.0009597989,1.0300886,-0.247796571,0.8561671329,0.2895891777,-0.2716402017,0.605224967,0.4592369671,-1.2528997888,-0.408853504,0.4125253861,-0.9194222442,0.2138077361,0.9717603204,-0.8477063425,0.9217624201,0.4922228533,-0.8462233956,-0.1847751403,0.6625301313,-0.233733576,-0.1587811047,-0.4164181748,-0.4843282186,-0.0059421018,-0.5553840122,-1.591333198,0.9501517335,-0.2524120499,-0.4008984292,0.2642432116,0.0217728014,0.0904332389,0.4750790724,0.4990172634,0.049307876,0.511094544,-0.1629004936,-0.9412488028,0.7960408904,0.320113674,-0.6033106781,0.1909474283,0.5512869323,-0.8848567866,-0.1468073052,0.7753650939,-0.8536480112,0.4948870737,-0.483789149,-0.2595875762,-0.2286896219,0.4359846933,-0.4328990546,1.2550722729,-0.2114796991,-1.4458288532,0.2004565448,0.3873046022,-1.0976991785,-0.0244208138,1.4213356263,-1.2453040343,0.2721000501,0.6676545099,-0.7526390307,0.1141437886,0.0675107073,-0.5971947105,-0.1984417219,0.1527287241,-1.1631368879,0.2275303513,1.0285691411,-0.8109301814,-0.17714896,-0.8133999136,-1.5521086706,-10.2797504658,4.285037406,0.4543427135,-5.9077678184,4.9884143011,-2.668866427,-7.113489082,5.117953066,1.5219539478,-8.7988256539,4.1559510648,-1.2049079316,-10.1434324986,2.594865053,0.7314721168,-7.987611025,6.2650399044,-0.694347073,-4.7193201917,4.3860270486,-1.9679878448,-5.4948190968,4.9801258017,0.4732706362,-6.4743286109,4.5851440427,-0.8221371745,-11.1736194907,5.7147521517,1.6216195911,-6.5758455337,6.1818149084,0.4030043501,-5.210292383,4.7479714183,-0.4899528791,-4.9204451496,3.650280764,0.9108318702,-5.7282469812,4.9932716443,0.2741417152,-8.2425669143,3.6870708809,-2.5752927358,-6.1786174281,5.2168728065,-2.3930885254,-4.9957742754,3.7516026413,-2.8653837171,-4.5613140912,4.1063987692,-1.3854074396,-6.2775442114,3.6663511992,-0.4509833909,-6.576475016,5.0957320654,-0.5714874846,-10.6825579909,4.4143781879,0.8039681724,-10.6667007888,4.5918778394,2.1319874886,-5.220244295,2.4091981212,2.2745294702,-3.8983121164,4.4448016571,-2.3126639784,-6.7590684159,3.0721412245,0.9836738113,0.7128224688,-4.391536477,-3.6830847862,-4.9895723782,-4.3124546297,5.4412330962,1.2940472823,-3.1982246556,3.9068414835,0.778455319,-2.8272244132,3.139276178,0.0356471057,-3.3467934968,3.3115535584,-0.1765181029,-4.1316798299,4.3129951818,0.4336291959,-3.3483551793,3.3620540242,-0.221865258,-2.5771117809,2.9998708662,1.1632077213,-2.031587437,1.0879022288,0.286390452,-2.1001800859,2.9545930877,1.3577936681,-3.7711282545,4.82058715,-0.815163191,-3.8231980446,3.5366686207,-0.4136820411,-2.5401542975,0.8536839283,1.0374349342,-2.5103596796,-0.1245284954,0.5206397117,-2.4506848229,2.13385042,-0.0205415533,-3.0148398805,3.4359219218,0.8591531409,-2.8655302197,3.0421277598,-0.851183334,-3.0897679318,2.4440550543,1.4529655601,-2.084848781,1.6274869204,0.5222938509,-2.813793239,2.9618704358,0.4708842948,-2.8840629289,4.5157230104,-1.4802478282,-4.6326369197,4.3124584801,1.2573034427,-4.0015824427,3.6679884411,-0.5920984345,-3.0859280247,2.3170048766,-0.8028572154,-3.0521385659,3.7664259713,1.4229001704,-5.7796729029,5.7755534795,1.0250532402,-1.7329254662,1.8362372893,-0.7854231358,-0.6510936772,-0.1105192839,-1.0844475723,0.2698857347,0.2835416014,-0.8500955043,1.2365846788,0.5105999317,-1.3611569761,0.3045518012,-0.6533890976,-0.2235360471,-0.0691810003,-1.5711163503,0.1802345271,0.6152634415,-0.2992164069,-0.5013062149,0.3210122933,0.0680503924,-1.3244614207,0.5007018612,0.1643134057,-0.14873731,-2.1903422076,-0.6948744166,-0.4817463874,-0.2502229483,-1.0297654327,0.4259919152,-0.243046728,-0.3298586378,-0.4390047596,-0.1655525603,1.0670022657,0.3283653449,-1.0706569445,0.2744221033,-0.0473927777,0.4888598476,1.1702313725,-0.0842444448,-0.57650896,-0.3688095129,-1.0816183904,0.8924654269,-0.3791607998,-0.8973403617,0.0668966035,0.1955240038,-0.4496722367,0.8006306944,0.9047233352,0.0156033604,-1.7888536455,-0.1149416834,0.394227472,0.7204031466,0.2965615525,-1.5171821743,-0.4252134462,0.0506824244,-0.8461824592,0.7327915141,-0.6069387446,-0.5320595349,1.3408916911,-0.5303492416,-0.7368477019,-0.4228473531,0.3477945411,-2.2398292238,-0.4773811277,0.4555431996,-0.9989851944,0.4424831442,-0.4955053689,-0.7802866516,-0.9806642118,-1.6083806853,5.107660857,-5.2650143,0.797303438,4.7163481284,-4.8304025098,0.3026641101,3.9384596942,-4.5670149486,0.5725777451,4.0552693094,-3.6970348473,0.3749780978,4.3402371452,-5.6004820091,0.8722748604,4.518682611,-5.0865264197,0.5407493491,4.4119478177,-4.3696551877,0.2936123614,3.1195539184,-3.6088869577,1.3705151246,3.3659766004,-3.783678749,0.8174964776,4.1220507598,-4.80043103,0.0176577531,4.1308547692,-4.628278812,0.452623645,3.4312721896,-3.4314865985,1.1542675005,3.4087738952,-3.4231103103,0.7781405736,3.3884751128,-3.3655171077,0.8416226152,3.1143632216,-5.063168497,-0.8908418907,3.4640284817,-2.4609274593,0.7374319761,4.7490620947,-3.4701118304,1.3182255215,3.6556324628,-3.6661829982,0.699568059,4.4539303801,-3.852790257,0.2804012215,4.8785103109,-4.7135206265,0.1144495626,4.6334991429,-5.7647444709,0.9487180318,4.3330848291,-5.4374986126,0.017283589,4.6513363516,-3.6013065564,1.3316774361,4.5275834943,-4.2065264628,0.7303283937,5.0117567333,-6.0168752573,1.1513057881,1.3344107828,-3.0540649965,-1.746625274,-3.9630231455,-0.9357904842,0.6816784888,1.0813731581,0.4551369998,-0.6458356629,-1.1871805025,0.0853405489,-1.0282923742,-0.6032723346,0.94750015,-0.4298633515,-0.2269180941,-0.2753803776,0.6680512594,0.2143384173,-0.1921685877,-0.5467602548,-1.7828463627,0.659276859,-1.3930527074,-0.4564833045,0.8399702551,-1.2845615118,-1.4492244727,1.2279384713,-1.4897686407,-0.7575173078,0.1557684128,-0.5949672129,-1.3769713718,-0.8920909242,-1.3321902394,-0.6626193693,0.5379763293,-1.560325362,-1.3883802116,0.7599058514,-1.6017999562,-0.4083937116,0.0958899547,-1.5745235331,-1.5463380086,0.3345398724,-0.2679187459,0.6981452785,1.2902157777,-0.6803795474,-0.7411978221,0.2177114665,-1.6243353646,-0.4110440902,0.1977201046,-2.2587536434,-1.0966012621,0.3622158939,-1.8221763345,-0.2774789279,-0.3243203548,-0.7794942659,-1.4409486411,-0.504262563,0.4928419542,0.7136300484,0.4204630294,-0.1751311605,0.1624519082,1.1339549136,-1.3266656545,0.0260148125,0.4194843423,-0.6967326708,-1.2712106288,-1.7401597663,0.6603282708,0.3692559932,0.4013379913,0.4325862794,-0.6571324502,-0.4390943838,-0.1782150031,-0.8848632455,0.6958050043,0.1339798364,-1.4601319353,-0.5538485759,-0.5230498681,-0.8179135644,-0.2056967006,-1.5540283748,-1.7107112407,-0.41082809,-1.7108309729,1.2467440007,0.8444684353,-0.7320032751,-0.3740924028,0.7067633364,-0.7109299671,-1.193900158,-0.9008457616,-0.7783029879,-0.6572366744,-0.8764535461,-0.7130797361,-1.3772081656,0.0974861916,-1.2179688331,-1.61400364,0.1548552743,-0.7267452337,-1.8416953292,0.2259454238,-0.252847083,-0.519584298,-0.5109549665,-0.1469415921,-0.6457010141,-1.4134676219,0.1770602717,-0.6598419176,-1.2909292882,0.0533218526,-0.7448752624,-1.3067470695,-0.3533185022,0.5634312298,-0.9913231896,0.0349274737,0.325854006,-1.3891630481,0.1669074449,0.8041103268,-1.7397429623,-0.3513497344,-0.1469188883,-0.5211481517,0.8448619389,0.1222058168,0.0404285753,-0.0631752695,-1.5541808966,0.3063012904,-0.0559837854,-0.7424874936,-0.6999117793,-0.3629151609,-0.2612126759,-0.5362654466,-0.0303324347,-0.3380975263,-0.6618869149,0.0083786674,-1.6981928822,0.9273017285,-0.0966515933,-0.2668175005,-1.1584256704,-0.994798492,0.345087031,-2.0682034967,0.4740813468,-0.4609168639,-0.3033728253,-0.361645853,0.3151020386,-0.0060495142,0.1047431956,-0.2598473941,-0.7011233901,1.2024054707,0.0007344291,-2.3902756274,0.8322065431,-0.6932510226,-0.5331275863,0.4479015021,-0.988021126,-0.0660145783,-0.4151287392,-0.5283378298,0.1252599487,0.0949814999,-0.5573534791,-0.5212662104,0.363795502,-0.6531866201,-0.2883351975,-0.6212766669,-0.0936362877,0.1925215985,0.7665986301,-1.0178697694,0.0737682575,0.6976479,-0.6953187666,-0.0992727768,-0.116953222,-0.828972648,-0.2731935212,-0.538220955,-0.6055061419,0.169142958,0.5888923886,0.109016579,-1.0802209477,-0.1779846547,-0.4180384189,-0.093743147,-0.0837541542,-0.3930892014,-0.5273589545,0.8551962399,-0.8385234493,-0.6563923006,-0.0897131498,0.3902356586,-1.3182831346,-0.6981481717,0.6453986151,-1.9288285905,1.3241495352,0.3127219836,0.1723722705,-0.0176722229,0.1620729098,-0.1979788436,-0.1665392833,-0.7719436512,-1.8787248363,-0.3663491508,-0.0735333952,-2.3399502213,0.0577223766,-0.2720478356,0.4803501449,-0.4189062077,-1.2806857629,-0.2340724506,-1.2857166142,1.2256937383,-0.8457556617,-0.490429276,1.1358267872,0.2298472057,-0.4112070532,0.0461273171,-0.0667028674,-0.7919130791,-0.3723565941,-0.8339684352,-0.1254077934,0.8690904268,-0.5333505131,-0.5864615744,-0.3381067868,-0.750431549,-0.9690557965,-0.1040231468,0.5189933779,-0.6340690658,-1.7257619037,-0.1663321607,0.3199846642,1.1175832128,-0.3473845991,0.7819656711,-0.1311128164,0.621667044,-0.9227764868,0.5810689242,1.218823294,-0.5360404085,-1.4286438338,-0.0200890674,-0.774091905,-0.0171167007,-0.0337815438,-0.1923947004,-0.8364603974,-0.8182181098,-1.252767794,0.1918170982,0.9547911173,0.1513710824,-0.6003641132,-0.5971860561,-0.2019328409,0.6356133606,0.2023680359,-0.4210617065,-1.8554363901,-0.8419249066,-0.1214289512,0.3898692231,-0.0006371845,-1.2576214242,-0.0851438443,-0.4780806669,-0.8516454011,0.3553618085,-0.1006948411,0.1338643101,1.2293344322,-0.3066036645,-1.0376724166,0.3314951008,0.0335331637,-1.7045288522,0.3493574774,1.033891098,-1.0901365025,0.8930376279,0.0730409551,-0.2661004046,-1.6426266557,-1.2104459605,-1.9099968826,0.6250493342,0.4586106692,-0.7042320056,0.7027135574,1.0832753157,-0.4098012254,-0.2631737436,0.0347633528,0.2879320495,0.0780515543,1.2874859376,-1.0764907132,0.3573133813,1.0305852559,-0.2524436625,1.2212236641,-1.2605343428,-0.0907388176,-0.3955123276,-0.6397041077,0.7665008649,-0.2939426066,-1.4889781497,-0.4757789774,-0.4262747921,0.2453702825,-1.1708032858,0.8666839221,0.4048403688,0.2801829555,0.9793973492,0.2173499224,0.1463083642,0.150032538,-1.7348416373,0.368094605,-0.4729597508,-0.2245363406,-0.0273219799,0.7344866358,-1.6862950841,-1.2316434762,-0.4547223348,0.2978796251,-0.0968575729,0.3724636862,-0.1589829327,0.1159866422,-0.4060871943,0.2689828472,-0.6090476448,-0.5527628211,-1.5503440982,-1.7749087426,-0.588493548,-0.1268912812,-0.9067419516,-0.3770515863,0.1510843317,-1.207257975,0.8040464852,1.2987860771,-0.5429907663,0.6241651395,0.3035875009,-0.832975026,-0.8866213792,0.0348040871,0.2331102184,-1.7046995744,0.4008688716,0.8253191229,-1.2801609491,0.3274574624,-0.7729935321,0.2162338789,-0.3789969697,-1.9838649641,-0.2264868638,-1.3511516662,0.072370545,0.9050356867,-2.2050463709,-0.431352367,0.9682496049,0.0510481816,-0.3567937386,1.8005155533,-1.1060510591,-0.5103809642,0.4050364036,-2.3566381381,0.424116975,1.0246869191,-0.4992771905,-1.0755361515,0.7522271787,-1.7058351003,-1.1602852201,1.6934407618,1.2358112502,-2.121600867,1.528167397,-0.833456644,0.4123340445,1.0076748732,-0.4285485794,0.3338999377,0.1732012675,-1.758034201,0.0344848139,0.7158552717,-1.9748685101,-2.2873076325,0.9262351932,0.8236779122,-0.8301707,0.8813993592,-0.2606504977,-0.6091459372,0.4280190896,-0.7273170809,-0.4413585935,0.2245476838,0.2357566716,-0.544757515,1.19024836,-0.4002358237,-1.2003486439,1.2153833569,1.2290094512,-2.5523188852,0.7081060881,-0.53391802,-0.6911947942,0.8687708915,-1.7774302995,0.4199336948,0.5797481555,-2.7081040178,0.0879393702,1.2246617654,-1.40793733,-1.2209502271,0.6749053922,-0.8916906736,-0.1535602856,0.5024981876,-2.3343664331,-0.1473293764,0.0763777228,-0.583867034,1.3894318569,2.2707361303,-1.0896134396,-0.1738306871,-2.0957046418,-0.7492095109,0.1959454945,1.1867101085,-0.7126630338,-0.0336877085,0.360174021,-0.9669976261,-0.0315237184,-0.3173840714,-0.6900822743,0.7794742076,-0.3708882433,-2.0366192512,0.8224453409,1.2028355985,-0.9436107295,-0.0080526097,0.0555329275,0.0031099632,-0.0070605974,0.2226764372,0.1530740803,0.2326680639,-0.3410098636,-1.1150150588,-0.259862302,-0.4341614634,-1.3396688948,1.3488292727,0.1344541625,-0.3791173346,0.8318520648,0.8366407227,0.5130941441,0.0970238845,-0.2923834757,-0.0790239698,0.5371729487,-1.2388587726,0.0631029333,0.5216323272,-1.3256831958,-0.9167459061,-0.6525988023,0.8086346339,-1.3314719332,-0.4159582941,0.3482547922,-0.7949236772,-0.1166797681,-0.6978088519,-0.7950285119,0.3512953982,-0.9290425818,-0.0883116327,-0.5470952469,-0.0891276975,-0.699494702,-0.3893825723,0.3480677577,-0.7255235051,0.0113446888,1.4241724021,-0.4457268087,-0.5219493053,1.0598114185,-0.3561570908,0.3736894641,-0.0655409332,-1.0318819026,-0.579295736,0.2233005092,-0.898699431,-0.9112006371,0.3369516591,0.2092115245,0.5545576208,-1.599434626,-1.5477589709,-3.9599996711,3.6233545784,0.2833134256,-2.5782737026,3.4418445707,-0.572769312,-2.5042518528,1.9445971586,-0.0103865683,-2.7222465259,1.3738355107,0.2672366432,-3.3109311054,2.8653057265,1.1027179733,-1.9336150183,2.6039060749,-0.0187735935,-2.1358333207,1.8734593203,-0.5696255478,-1.5155607147,0.8841413514,-0.7264002565,-1.6728864489,0.4917188358,-0.9354412335,-1.4980165502,2.2754384957,0.7545846657,-2.0642746924,1.546857122,0.577320067,-1.1697504951,1.7710570921,0.222937652,-1.5586358693,0.4369958145,0.2539372582,-1.8147575671,0.5887033519,-0.447609324,-2.3037318873,0.9039324027,0.6191341516,-2.9284259426,2.1263965935,-0.3754141384,-1.5186484875,2.0097548035,-0.3640424641,-2.2308790438,1.025204995,0.0394231387,-1.2278904477,2.2613932963,0.8823069722,-1.6287403907,1.245134852,-0.0234047871,-4.3138679169,3.5287174114,0.4524567178,-2.8790977685,3.2392995848,0.4113717731,-2.2691821633,1.5185362252,0.5525128135,-2.9805602454,1.4954890201,-1.243632558,-2.1137717293,1.2034350245,0.0235428575,-1.2922644968,1.223862577,-0.0037178035,-1.0765228371,2.9664781903,-2.7548211912,0.8931435202,0.923592819,-1.1908641026,-1.0963307314,-0.6992115191,-0.959603257,-0.8543455127,0.5370580498,-1.6799504367,-0.3711528993,2.5641962795,-3.3094252839,1.4644459685,1.2039885419,-1.1058655165,-0.148921706,0.2884929492,-0.0087609092,-1.2868472296,-0.1205768318,-2.2740209002,-2.0545360562,0.2682420864,-1.9493103733,-1.4182093145,0.7411716103,-1.7328993259,-0.2084076894,0.4827609066,0.5692563157,0.1302962106,0.3072469991,-0.8761927179,-2.0518754058,-0.5045771144,-0.4959067407,-3.099372088,0.3987124772,-2.3368586502,-2.6778341271,0.4829656314,-1.3781093642,-0.7623448722,0.240602404,-1.3908121769,-1.2966680927,0.2726544058,-0.828062947,-1.000041539,-0.5977016732,-1.2937643135,-3.0682483751,-0.0627550052,-0.4745697066,-1.9967491086,1.4695968717,-0.2588216921,-0.8049334892,2.2030210996,-2.5032871836,0.1830775793,0.0399496116,-1.3554348284,-1.719422706,-0.7700076002,-0.6204490557,-0.4613574713,0.7583574855,0.2310022941,-0.1757983916,3.1542401498,-3.7599349318,1.1417378752,1.3551173729,-0.9247149884,-1.4220933014,-1.3894455189,-0.6643010213,0.2808869692,0.809723763,0.416400691,0.5263718009,-0.1501625215,-1.7961970309,-0.5394377369,0.4368391895,-0.1752857263,0.0404090043,-0.5614342593,-1.3239543397,-0.5285639996,0.8633348978,-0.2911584521,-1.0829846501,1.1113908856,0.1103216175,0.3887771338,0.3983078926,-0.4503697433,0.6078812219,-0.6575457218,-0.3643805206,0.7169048773,-1.3937071407,-1.6484884054,1.5305328604,0.7222508663,-0.3974189896,0.0116247905,1.0690019671,-0.276127415,0.3534006981,-0.1232607976,-0.0600129263,1.1153286147,-1.0367619512,-0.5995101537,0.6276833775,-0.2390292436,-1.2073083751,0.3733228934,-0.879940994,-0.9386584985,0.6646351999,0.5517079099,-0.6045859221,0.8975508189,-0.8844553625,-1.230670232,0.5781218896,-0.6016134831,-0.391108763,-0.0134025922,0.6035312115,-1.3598052057,-0.0462390304,1.4928674268,-1.0909514359,0.6171978866,1.2226361079,-1.4385404215,0.3120676338,-0.5570611141,-0.7012446256,-0.5301547897,-0.3471076923,-0.0136753779,1.0293443092,0.6882036468,-1.1792622188,-0.022543734,1.0551926759,-0.8324067949,0.1773156339,-0.5821734337,-1.6474274074,-1.0720597781,-0.0589792147,0.3662647012,0.1324292901,-1.2361180278,-0.4039927436,0.2769044369,-0.2413797082,0.7828416233,0.2781306418,-0.1453800851,0.5521062721,-1.2199831197,-1.119525098,1.2018323689,-0.5416509467,-0.8251003361,0.9025146094,-0.0028916035,0.0622732629,-1.0934284405,0.8105667629,-0.7098542028,0.168089053,0.1410145289,-0.6108535057,-0.334771133,-1.2513732082,-0.1488578592,0.1261053986,-0.3087721215,-1.4343099502,0.5507347819,0.0088335104,-0.5531172914,-1.1165394123,0.3285894892,0.4313427894,-2.0339773586,0.4148221703,-0.2246667767,-0.2027005684,-0.5986496423,-0.3091390982,-0.9325761798,-0.4090541213,-0.0934879237,0.094157383,-0.4959657722,-0.2761631712,-0.3278490242,-0.3913502871,-0.2319898268,-0.6856420346,-0.2330202622,-0.1671231318,-0.0999739914,0.3605420987,-1.2647508593,0.7317817367,-0.5037867811,0.1933824461,0.0191827994,-0.3564673951,-0.6838225696,-0.6144434245,-0.0150567583,-0.1674927502,0.0015536409,-0.5121758613
   -0.5351937132,-0.1785175869,-0.7551992904,-0.6468905941,1.2109516329,0.6035288293,0.4847925373,-0.7609098318,-2.2458006124,-1.184960543,-0.0305113449,0.122170093,-1.4107866336,0.1833495442,0.5688712655,-1.9018825592,0.458382586,-0.1322316156,-0.105925161,-0.1862263821,0.4527030317,-1.10640589,1.6489184781,0.8548392881,-0.1170180954,0.291699251,-0.97536105,-1.0838388975,0.6366025554,-0.1996119342,0.1039340248,0.274787902,-0.5560941649,-0.0848751994,-0.0483468265,-0.3835656781,-1.0468391861,1.5781564691,-0.0356205553,-1.0276393602,1.3943270738,0.5633158198,-0.6933662709,0.4640650059,-0.1041682576,-0.4842898818,1.0256310906,-0.0845361718,-1.0907715665,0.5925629738,-0.2947760806,-0.5943467382,-0.0933632463,0.827072733,-1.1226304597,0.70785221,0.6668521764,-0.228426075,1.1305374596,0.3017770061,0.1378957926,0.3136312992,-0.3112575773,-0.2055551694,0.1998295786,0.4248698037,-1.9220865273,0.36948076,0.3135433919,-2.2459668746,0.6644848591,1.0156706013,-0.937220954,1.0785282647,1.0539735062,-0.7532586436,-0.6916039378,-0.1792515763,-0.7793748494,0.6538632387,-0.3909912473,-0.7839100368,0.3086432615,1.1736208449,-0.6710208999,0.6124333524,-0.1178680855,-2.0888114153,0.520092985,-1.9499250858,1.3064997053,0.9317472848,-1.4633434748,0.9440745627,0.4971081202,-1.1812863974,0.6584126523,-0.6917109625,-1.4579307878,0.7226485122,-0.5023796656,-0.1574301978,0.7098416302,0.5459098202,-0.2106037195,-0.5425213454,0.5253178732,-1.8932755723,0.3205202769,0.8014684975,-1.1963220188,-2.021363777,-0.3591672426,-1.7801417983,1.7472937695,-0.6587247602,-0.9122539933,0.0723752839,-0.0479205927,-1.1879299978,0.2547364168,1.2765772968,-0.2401636549,-1.1598295441,-0.3287764585,-1.0560252312,0.3038485028,0.6539027639,0.1614175045,-0.8867306394,-0.7663173614,-1.629967058,-0.1116250289,0.095680844,-0.9324309609,-0.9693511477,0.1251610533,-0.5759064366,0.4646412932,0.9575026856,-0.834383563,-0.9122685467,0.3132380927,0.470987378,-0.9990069296,0.5284860297,-0.560772345,0.4764145336,0.532888077,-1.3165945362,0.4750752544,-0.3642842801,-0.6091268422,0.9725575326,-0.2720073014,-0.7917729679,0.0288775583,0.7473064281,-1.5711593224,0.3082219344,2.1850506189,-2.3472058516,0.3966531328,0.2705066315,-0.7158889315,-0.9506214147,-1.9466711529,-0.6439294313,-0.6326335282,1.1959260513,-1.5907116982,-0.7075492189,0.7278136062,-0.7953445491,0.6825127437,0.6930723022,-1.2956999457,0.3124880117,-0.4728613939,-1.7711035029,1.1906059189,0.2744606987,-1.6820888515,0.1916697948,0.172950561,-0.1802924974,0.0842295541,-0.3980999396,0.3396822151,0.4192793289,-1.2035088328,-1.3989870505,-0.0864411983,-0.1285103935,-1.0796874538,1.1766155272,0.0657013027,-0.2900849715,-0.2848977865,-0.1762490551,-0.6470248664,0.8188838566,-0.7964243154,0.039095326,0.2513061461,-0.0481882191,-1.1652828728,1.0331800179,-0.9406754877,-1.0922967104,-0.231125036,0.0955793851,-0.2954572907,-0.1955889991,-0.4269260329,-0.0591704611,0.7010018843,0.0992054854,-0.6100826091,0.6759428336,-1.7234788824,-0.9283131621,0.4743078992,0.0672639489,-0.7914026262,-0.2525242386,0.9990645794,-0.9632114542,-0.3798756884,0.5491021406,-1.703513492,-0.4553401355,0.818976684,-1.3838886788,0.5730060657,-0.896918151,-0.3210740853,0.0070953014,-0.7057376138,-0.2473408456,-1.0528456767,0.9542257287,-0.4579360643,-0.3134069899,-1.3748798909,-1.3543168006,-2.9517259473,1.6100919974,1.183856401,-2.1424615071,1.916001214,1.7207434723,-1.9038446576,1.6640139018,0.172929979,-0.433617911,1.2361500414,-2.1258336393,-1.2262990035,0.8514407649,0.7721760731,-1.7778427436,2.7116339408,-0.6921428675,-1.0405653555,2.0693987257,-0.1670966357,-1.2083618396,1.244390069,-0.4807740492,-1.9172154469,1.3440988722,-0.1488678551,-1.0348557358,2.0438729837,0.8829198136,-1.5351622381,3.0896284575,0.8031686736,-1.3171428488,1.484925762,-0.1201018706,-1.7589130873,1.6553754451,0.3336904031,-1.6262179454,1.0264244909,0.2688252116,-1.3642516084,1.686688372,-0.0492688669,-1.9998145872,2.2788917197,-0.6993958485,-1.6879159978,1.895318405,0.2282650582,-1.861302938,0.8851661732,-0.7097532666,-2.3596832873,1.5962422516,-0.1166254264,-1.4294837882,2.1048505517,0.5408700272,-2.9901824428,1.1946391565,0.2686916021,-2.3670816485,2.0753413291,0.6201835875,-1.446853525,1.1496728484,0.2751795841,-0.8008584362,1.6529973719,-0.1886951762,-2.1548624103,1.6539970763,0.0781055214,-1.2493600717,1.0288739171,-0.769600947,0.3487654663,4.0891120002,-3.981080239,0.2527848422,3.1619090406,-2.5517139585,-0.0197173591,2.8596874416,-2.4859419401,-1.0223391995,2.895757717,-2.4058548504,0.2196276786,4.1810382133,-4.5889076766,1.2745228387,3.3554813883,-2.5261570752,0.0758857551,2.9349403615,-1.0060991312,0.5276386253,1.5638287227,-1.9181425462,-0.3012183269,2.017190895,-1.9923982068,-0.192165192,2.888387644,-2.4563313645,0.0220391208,3.6486267369,-2.3440328573,0.2729897661,1.334615725,-2.8213085877,-0.2915490636,0.3891884946,-1.6377631337,0.3773272288,1.557018947,-2.7867222919,-0.2128242601,2.6916485412,-2.1844668626,1.1482359252,3.7474070403,-4.3040498214,-0.2131647348,1.8994535766,-2.0679945759,0.9338933798,0.0087030056,-2.5852864644,-0.1492709621,1.707908686,-2.9305343693,-0.5919881794,2.3013417074,-3.3995991619,1.7457833228,4.3141668552,-3.8470357469,0.4972674764,3.1286628875,-2.8251657281,-0.0086209088,1.4343910534,-2.3541380098,0.5895681606,2.3226475857,-2.1084330403,0.0087196406,2.9676657811,-2.4905983592,0.794844673,1.6019371913,-1.5996888718,-1.587920023,-2.1522113305,1.0716658253,-2.3366618825,0.9239817662,2.4011771958,-0.4134620758,-0.042813141,0.516936061,-1.4589521095,-0.2671757608,-0.0302242677,-0.6954386444,0.5335413806,-0.1008707076,-0.9378411721,1.0944302293,1.4207393038,-0.9440154136,0.6296141981,1.1506806144,-0.6350196979,-0.7537753281,0.3837155047,-1.3239890756,0.1615752598,1.2111781622,-0.4847030162,0.049862549,0.9603104091,-0.8579136033,0.2849795157,0.3473552284,-2.4100637732,0.0274835766,1.1610034914,0.3120992145,-0.7860859225,0.7754422556,-1.1092321155,-0.6188015544,1.1375766317,0.3697248164,-0.7858869447,1.074892422,-1.1784940486,-0.7130255207,-0.0707267388,-2.1984251125,0.2337163049,1.2227465352,-1.1066766583,0.1217155918,1.2445998255,-0.8951314479,-0.6457991779,0.8328503377,-0.8137238749,0.0365466615,1.1040431013,-1.5743128477,0.2184955151,0.0593283157,-0.6082289432,1.2014790651,0.1195167328,-1.0159524663,0.0590878327,0.8034181192,-1.7838531833,1.0133756558,1.1325534342,-0.726173077,0.646284672,0.2828252131,-2.0691358069,0.7700254894,0.6522004367,-1.2017638854,-0.9037122354,-0.8826489445,-0.3042964083,-0.4197246952,0.5554606282,0.7676696205,-1.8762740781,1.6550998894,0.9857223377,-1.4883717384,-0.2264310292,0.3729614651,-1.5188669873,0.7356895575,-0.9852007114,0.2388063017,1.3252008752,0.1957933981,-1.2955500894,-0.6018909445,0.7039926116,-0.5921224699,1.1419835795,1.3875532311,0.6343930675,-1.3044814653,-0.0287504084,-0.3992890887,0.5936897347,-0.3171243451,-0.4902880629,0.2267908201,0.8736849944,-1.2204744483,-0.0026327701,1.1024303334,-0.6010642359,-0.7569183727,0.0059712049,-0.4367454196,0.1203096881,0.0572025952,-0.5364849844,-1.0168778048,-0.3998783331,-0.6134044831,0.8889329206,-0.0907005765,-1.1727741957,-0.327699365,-0.2657552455,-0.2057096583,1.2224243829,0.1813898741,-0.0214301635,-1.9505441095,0.082313126,-0.5120826747,-0.7409965075,0.0692767389,-0.3405745297,-0.120414105,-0.9430324917,-0.7956891651,0.3251897917,-1.0935070617,-0.7033008835,0.9380616163,0.0607115386,-0.573517083,0.4555707735,0.3541802587,-0.9084478822,1.2223691321,0.0258642235,-1.436805632,0.9614651221,-0.3306385028,-0.48898728,-1.2190921881,-1.2072736436,-0.6925229191,0.0281187167,1.3432787654,-0.1406059114,-0.4409931059,-0.5462612216,-0.5858953518,-1.1381037775,0.1819485897,-0.4006329154,0.4328196431,-0.660842868,-0.610500965,-0.3992609208,0.5625906759,0.599842074,-0.7586062535,1.0429579761,0.8646507007,-0.7013455953,-0.1610512636,0.2646727817,0.1576446509,0.1401738954,-0.1494651922,-0.6035906139,-0.8232418227,-0.8096996812,0.168198566,0.2476416913,0.3182041989,-1.1396237183,-0.1062225104,0.3457970043,-0.4594883114,0.0381012277,-0.6350488707,0.2788334266,-2.3068712483,-0.503587149,-0.3027466805,-0.3520059221,-0.1845783946,0.1228132824,-1.350984688,-0.5886492135,-0.7404086773,-0.0263568514,-0.5813979117,0.8370020796,-1.2565491591,0.0657927421,0.1642272564,-0.4189348462,-0.1158634973,0.1482318467,-0.9821102755,-0.1126602426,-0.2075648601,0.5789340893,-1.3012280309,-0.6804350386,0.6463397076,-0.9923126787,-0.8962180263,-0.4325896344,-0.8586827538,-0.9861984786,0.4015716772,-1.2059870714,-0.1486338573,0.5750783712,-0.3592635747,-0.7263314797,0.621338445,0.1803456773,-0.6452771908,-1.3352841949,-0.7286869123,-0.8438493437,-1.1080292088,0.0771510517,0.374491527,-0.4882208505,0.3439343276,-0.0306820794,-0.4872370069,0.2134548161,0.199795518,0.1638288583,0.6676316252,-1.7728086365,-0.613661346,0.4116088965,-0.4722931056,-0.7598106766,-0.0637727197,0.0294368206,-0.9527795342,1.0572043392,0.5421149856,0.0994985557,-1.9792816879,0.1350873903,-0.2250027528,0.2156067435,-0.2578017079,0.6509159835,-0.4864152508,0.2768285942,0.0310393371,0.422199957,0.4536702934,-0.8164405279,-1.2408606531,-0.3607375033,0.2268683408,-0.6122150123,0.4490437951,0.2614758147,-1.031248051,0.225314783,-0.42036933,0.9450506002,-0.4030646051,-0.6013352887,-0.5227177665,-1.2088060747,-0.2842275165,-0.0363081923,0.8786280402,0.7410833181,-1.6195386205,-0.9849275622,0.4785579296,-0.3409495733,-0.3228382575,-0.2545102975,0.6491760217,-0.6924235435,-0.1037308827,0.5609449341,-1.5922371107,-0.7006971145,0.4504287909,-0.386317531,-0.8643728298,0.0364262632,0.8829709323,-1.8423993311,0.5960166382,0.6987434942,-0.9835745246,0.8661636314,-0.4254120062,-0.0949026795,-1.164138536,-1.0715357094,0.4577415456,-2.2275463851,1.327631815,-0.7654469154,-1.005918988,1.6140268954,0.0060933011,-1.1140089221,-0.9363301933,-0.1827604972,-0.4339112676,0.4987916987,-0.9879475993,0.3462471512,1.0166491619,-0.8541805686,-0.0485134464,-1.0769337729,0.550517788,-1.9772192716,0.4471645004,1.2993582439,-0.3702391238,-1.9816278611,-0.1235464571,-0.7178473236,1.9063933227,-0.4708732768,0.6128337757,0.6488668731,0.0020591985,-1.2418947989,-0.342775128,1.06019062,-0.7099056314,-1.4521080024,0.3475819428,-0.8888855001,0.2154827398,0.2846472922,-0.8091260853,-1.8568701205,0.1852924519,-1.0269998226,1.3376523131,0.0228385049,-0.5697521424,0.2688561463,-0.6017417424,-1.3328494045,1.8286367034,1.1037229691,-0.0628400874,-2.1385424476,0.0529647055,-0.1136928693,-0.2692245124,0.0165928232,-1.9271617775,-0.7812260149,0.3963836845,-0.7418832244,1.3939780789,-0.2913203998,-1.457807749,0.9223677316,0.37395155,-1.8265332643,-0.5941338627,1.8642934213,-1.7925531705,0.6860367737,0.9149660866,-1.8470459307,1.0155806096,0.1285151691,-0.4855049197,-1.2968788325,-1.4208284595,0.7777817821,-0.7873077539,0.2867810732,-1.3095383576,0.1863944999,-0.0856187513,-0.4775322972,0.8661741847,0.9592029184,-2.399850555,1.0842156674,-0.557335835,-2.0608911348,2.4668693298,0.558176689,-0.9301217739,0.7115645513,-0.0270569395,-1.5157561068,0.3903030263,0.2573638862,-0.0915714955,0.82179484,1.385402576,-0.6666364925,2.6345498849,-0.5446188,-1.0987873359,1.8566187267,-0.4254629682,-1.686509555,1.6880479125,0.5738406811,-1.2596703528,1.4772713231,0.0664520516,-1.3401142004,1.5994535007,-0.6305451934,-0.7907467187,1.7772216302,0.3870034029,-1.1528324876,1.3276105075,-1.0256201564,-1.0948438924,1.761497512,1.5853538501,-1.2115140118,1.1933068541,-1.3800745328,-0.2818788384,1.4816130986,1.2084708793,-0.8946363628,0.8248300614,0.5726030001,-0.9239871911,0.9493931212,0.2088758274,-2.5355967045,2.3997136215,1.1908562721,-1.1724822796,1.5968063984,-0.4168859208,-1.0927946629,0.379257657,0.3218726592,-0.795277867,1.5112908241,0.2206221552,-1.1713420398,0.9694725618,0.6479158597,0.4031339404,1.4938566904,1.1095424735,-1.0346332696,-0.0857077177,-0.932096748,0.2121498785,0.5367612655,-0.1727664068,-0.80639606,-0.9980666212,-1.5126520381,0.1238837573,-0.3246243813,-1.0098926994,-0.6455606397,-0.2468621044,-0.3446436785,0.3973991163,0.5092459998,-1.6853156212,0.3459031619,0.3778499327,0.2560604478,-1.7967885266,-0.7712844201,-0.9173661327,-0.3230232155,-0.3882850598,-1.0625946037,-1.6347017101,-0.4967144026,-0.2491466338,0.3815855307,0.2283032104,-1.6139462854,0.6440974687,0.1256176269,-0.3382902372,-1.4535274776,0.799393235,0.2328191324,-2.0014961398,-0.148103096,-0.3674980727,-0.8374193669,-0.0073546279,-0.628886735,-0.1954488448,-0.1822143708,0.3436541338,0.1378101876,-0.0166948255,-0.7986396276,-2.0265493991,-0.7569091074,-0.7007514188,-1.7515471445,-0.3064673986,0.2044317156,-0.6039843483,0.5998065037,-0.7190133247,0.3261236782,-0.5210408011,-1.482634686,0.4108624767,0.0114326548,-0.9696744581,0.1649595121,0.2471240614,-0.2407475687,0.0811471943,0.5485988177,-0.2173119998,-0.7809713791,0.2976505024,-1.0188035048,0.0542854665,0.2745797575,-0.783785184,-1.0293155717,-1.2152399268,-0.6610286804,-0.4585469572,1.1329096675,0.8126977996,-1.6825092941,0.1835864961,-0.8286991411,-0.2256551256,1.0352523181,-0.212538173,-0.7563728587,0.2051641055,-0.3270823875,-0.2937469275,1.225051163,0.5481486165,-1.301507713,0.4839861058,0.4032938219,-1.1830299298,-0.3943088888,0.1551906158,0.0499845713,-0.2148515793,0.3662389568,-0.2249802947,-0.7680367605,0.0987609152,-0.0148820801,-0.038941972,0.5501133884,-0.821757392,0.0631767724,0.6636699449,-0.0575730707,-0.7043123695,0.8528680283,0.2245273493,-1.4372690141,0.0503692722,-0.6239298004,0.3227219728,0.2326416895,-0.448766247,-0.0191636444,0.0674999592,-0.5419967198,0.6861808736,0.5493389998,-0.0748252224,0.2553236861,0.4741572012,-0.6151434691,-0.6817523602,-0.0895387681,0.6952273903,-0.3358846508,0.5855310847,0.1642214274,0.2172548374,-0.8285842092,-0.7198179892,1.3214341448,-0.0892816826,-1.3394464226,0.2588532071,-0.8420189787,-0.7913085484,0.6462017266,0.3791419507,-1.0372583623,-0.122353845,0.7697342061,-0.9263284014,0.070773869,-0.5088665088,-1.1340065899,-0.9681455677,-1.240296602,1.4185193847,-1.8006743519,0.2404413472,1.1295925012,-1.2067694684,-0.6878207597,1.7295903641,-0.761390494,0.6898515033,1.281103188,-1.7430820146,-0.3216827634,1.3383171326,-1.0647787243,0.0651674539,0.7925184686,-2.1655851351,1.4388935651,0.5595347975,-1.4071155427,-0.7093921215,0.8117562803,-1.0645325607,-0.3786374144,0.9178926211,-0.1344129812,-0.3484925501,0.9777878818,-0.3016068842,-0.4525527708,0.5902345216,-2.951236205,0.6238769167,0.5003803134,-1.3340519243,-0.2822509866,0.6523433077,-1.5881973365,-3.1323904123,0.6108344493,-0.7053459534,-0.4990836248,1.1640512763,-1.0070655049,-0.5654800085,0.622480061,-1.4190120229,0.4544663837,0.3545822862,-1.7308061629,-2.4943411669,0.8899642409,-0.9748803197,0.7320125749,0.6553475223,-1.9416246506,-0.313243868,1.1886230516,-0.7932289647,0.4257365807,-0.5085626607,-0.7814841936,0.7980699217,1.2324678811,-1.0576159349,-0.530116518,0.9812692853,-2.1895553481,0.3702055768,0.8139710231,-1.6759421195,1.6621052964,0.6637908467,-1.5373006247,0.4251760707,0.4983440587,-0.3511530338,-1.1558127135,-1.0385800688,2.8187908774,-2.884836028,0.0173659438,1.5164438731,-1.2867752499,-1.0876118344,0.4664575091,-1.501953969,0.5019166456,1.8022449758,-0.3195029608,-0.1405283421,3.5873496212,-3.9583032041,1.0714606563,1.5045973865,-1.7742801676,0.8664087592,1.1755858523,-1.5036695669,0.4820161277,1.7492039899,-0.6422735875,-0.7913263428,1.331598162,-0.2900478839,-1.1729945773,2.2842867289,-1.7381226962,-0.0993768326,0.5509648231,-1.9455478803,0.0140275573,0.5153109297,-1.2397943355,0.3115510272,0.9861228437,-1.8464691668,-2.7306980966,0.7376766211,-0.2206985509,1.1773871331,1.8600611888,-2.6237886853,-0.0522074535,0.8103801511,-2.1522191133,-0.094658659,0.5589764262,-2.5019056997,-0.3618531148,-0.6052667604,-1.1104860162,0.7076692744,0.6956127956,-2.4173920548,1.6218890808,0.9302496696,-3.4141600106,0.0343046589,2.068913241,-1.7632043192,1.2359551846,0.3088599718,-2.5721710358,-1.3743103503,0.2908447733,-2.5524718,0.5228989045,0.5758866533,-1.4958143089,-0.0371562491,1.6294945485,-1.9873472844,0.876555168,0.6792581115,-0.9210172069,-0.9286850815,-2.8259098565
##end
biasActivation=1,1,1
[BASIC:ACTIVATION]
"ActivationSigmoid"
"ActivationSigmoid"
"ActivationSigmoid"
