encog,BasicNetwork,java,3.2.0,1,1379874851550
[BASIC]
[BASIC:PARAMS]
[BASIC:NETWORK]
beginTraining=0
connectionLimit=0
contextTargetOffset=0,0,0
contextTargetSize=0,0,0
endTraining=2
hasContext=f
inputCount=51
layerCounts=3,13,52
layerFeedCounts=2,12,51
layerContextCount=0,0,0
layerIndex=0,3,16
output=0,0,1,0,0,0,0,0,0,0,0,0,0,0,0,1,0,0,0,0,0,0,0,0,0,0,0,0,0,0,0,0,0,0,0,0,0,0,0,0,0,0,0,0,0,0,0,0,0,0,0,0,0,0,0,0,0,0,0,0,0,0,0,0,0,0,0,1
outputCount=2
weightIndex=0,26,650
weights=0.5821784648,0.430499808,0.0352359559,1.4075483339,0.854622349,0.7631664361,1.3865787341,0.5798186284,0.7530392628,0.700656118,1.2658241785,0.2248251479,-0.2951111567,1.3494342333,0.4140052799,1.1842751245,1.3013303185,0.4691618229,1.321441006,0.5515143578,0.9517836563,0.2091827406,0.1922889477,0.7799902276,1.0676380737,-1.3078612243,0.3170609429,1.3695171914,0.0579082907,0.6077087521,0.6500434459,0.6115626128,1.3243061138,0.7548910985,0.2151872684,1.2849884713,0.8685344557,0.1871465087,0.0158598286,1.2025859404,1.0666117169,0.4414304444,1.4021810542,0.1014925675,0.1322634844,1.286720311,0.0778552346,0.8178851008,0.8762982105,0.4837011824,0.0454463938,0.6291789719,0.7104212458,1.3473990169,1.2402571198,0.5792395797,0.7925256089,0.2794027616,0.3180800044,0.9461841128,0.3015598091,1.1156770147,0.1042620705,0.1751289092,1.1558444312,0.738040995,0.9806878322,0.6011509947,0.925026553,0.4462708224,1.3698246289,0.0472626672,0.0792345438,1.1613347457,1.3117409875,0.622583576,0.0423286419,-0.70430781,0.5131807268,0.7400309994,0.097509894,0.2355626084,1.3579397774,0.4643196706,0.8504758815,0.7494967514,0.5894468657,1.255994584,1.4470187683,0.1310343335,1.2415764519,1.2634910653,0.2742407137,0.5894397046,0.4655200001,0.0979115366,0.9523067111,1.3121278401,0.2196540838,0.1664772182,0.2759801122,0.1405728261,0.9287432068,0.1054698763,1.1648633525,1.0171475018,0.9667031547,0.5331942976,0.2750069656,0.7088119476,0.5192645946,0.9235428187,0.9587974346,1.3852236585,1.4022758241,1.4616430379,0.8611828346,0.4426227435,0.3383635991,0.0538152014,0.8916550528,1.2370983253,0.8486412714,0.997422739,0.8481057324,0.646003083,0.7049383727,0.2906699434,1.1497851297,-0.0812118387,0.6348095681,0.7235210333,0.946689657,0.4392778392,0.8279664028,1.1310669414,1.1330807724,0.7012389316,0.2091173513,1.2630686245,1.249167316,0.260211258,1.2710075519,0.6223965698,1.2819848517,0.567965486,0.479401491,0.6437558392,0.6596547402,1.2576647468,0.5328820353,0.6720139581,0.7676146847,1.2143111852,0.009020494,0.4905733102,0.8952827107,1.2266240316,0.9545652697,0.3902223739,1.2022595299,0.3828293603,0.9324072571,0.3926758813,0.410549244,1.3300159271,1.3123611502,0.6234078312,0.4367403632,0.048975455,0.664048921,0.8450052961,0.7125782472,0.0027512066,0.8617606226,0.5743371572,0.565957454,1.1645751876,0.2286484372,0.2551286617,0.8655736766,-0.9288965131,0.2765086386,0.1119580816,0.2450436832,0.474891749,0.1417053284,1.2712702823,0.4473013534,0.8738522626,1.4638024785,1.161881751,0.5821071118,0.5311699574,0.7041998655,0.8977275568,0.7199588392,1.2527819316,1.2545085631,0.4663038239,1.3245407737,0.2909430298,0.4241024831,0.9672304585,0.024878763,1.3056348412,0.7930009067,0.1773455935,1.1709094768,0.2114641466,1.3439296836,0.9422662261,0.3566173121,0.5046190459,1.3721218786,1.3793791516,0.2389744995,0.252815514,1.0229978825,0.0605648813,1.2821926974,0.3158523817,0.4534057772,0.3897582464,0.1480875573,0.4426700999,1.2671788974,0.9297624013,0.3658792917,0.0411752876,0.5102794382,0.7053417421,0.4814662137,0.0852636985,0.8606385707,1.1641258752,0.5187090997,1.2017066332,1.0722650655,0.9131903969,1.0506535066,0.6666004694,0.1875097942,1.1809624292,0.0709696741,0.1658602547,0.5719700295,0.0959176786,0.643211271,0.997544609,0.4319547571,0.7855248745,0.5295531393,0.5385927902,1.1563738416,0.893755569,0.9409993906,1.3800101669,0.9911802263,0.1678666234,1.2038854454,0.7612133612,1.17198354,1.0421888756,1.1454320307,0.5737340503,0.5733461603,0.7239438698,0.2283168117,0.9326948446,0.0882650543,1.319041519,0.0815257346,0.5244808562,0.4702730405,0.0108351064,1.2976985814,1.2056927906,1.3038737462,0.8761882605,0.8714949727,1.1352330459,0.0429148238,0.5017625819,0.8120087326,0.116171667,0.1175842093,1.275215568,0.4070072021,1.3197241045,1.2832810866,0.7274967897,1.0486723986,0.1584022879,0.3695807172,1.2264710525,0.603067237,0.1888403889,1.4665084186,0.9639978122,1.2749544668,0.1629067364,0.7330883446,1.1459728745,0.8791578095,1.4073073343,0.3111289126,0.1373366023,1.3948040059,0.3564149201,0.7765660719,0.2645688313,0.7661440675,0.6071146575,1.396187488,0.671776607,0.1755233802,1.034550035,0.849242111,0.2591588182,0.7476625918,0.7873094475,1.1804546967,0.1569124959,1.335059484,0.0509147185,1.0781945522,0.345224429,0.1015066682,1.0439099681,0.4937215744,0.5238169403,1.4508279404,0.3798130782,0.7229491616,0.005331863,1.163310871,0.9811174523,0.2425245589,1.111924104,0.1640578899,1.2151526316,0.9709438817,0.9074121148,0.4042687667,0.365659415,0.7663134882,1.1719422323,0.026009758,1.1824922206,1.3955652155,1.4040006849,1.4684758867,0.2403994345,1.1291136362,0.9700089351,0.4474478139,1.4514164255,1.2445679487,0.8895291328,0.4286360057,0.664432384,0.8788187197,1.3150923959,0.8695427154,1.3125969274,0.9252419267,0.7922907445,1.1892073699,1.2100946916,1.2941172748,0.2292167938,0.7137104094,1.1999125639,0.8900656825,1.1043951695,0.2714604394,0.768303574,0.566726732,0.5465863039,0.2042955839,0.577331854,1.373672602,0.5399160952,1.1143768976,0.7592150626,1.252520128,1.4378963929,0.645873063,1.2395275538,0.9198212098,1.4294008441,0.8006169565,0.0927140021,0.1858330439,0.1400765624,0.1646124732,0.6579821508,0.8239505057,0.2477539297,1.257022981,1.0850772228,0.5041178542,1.1411397988,0.3993560439,0.9216444134,0.9358429792,0.8962685239,0.3330546967,0.3386548821,0.543259611,1.0392443864,0.3081743327,0.1375542729,0.5625361548,0.0329200763,0.8425534177,0.6947861143,1.4555739972,1.446977266,0.660511859,1.0911422736,0.9402720992,1.41537568,1.0566925499,1.3629187611,0.8049704154,1.2560890901,0.5253453599,0.0531470713,0.2321415087,0.4663716091,1.058756148,0.1312956871,0.0272298153,0.7900098817,1.2410045316,0.6946584236,0.3036960193,1.1705701721,0.9427720428,-0.4173609802,1.094342276,0.7622733496,1.3819314727,0.1293722104,0.79921181,1.3678903843,1.0132541652,0.0341588283,0.4271738446,1.3749876786,0.4128813891,1.0158379955,0.5058294458,0.4679618091,1.2816631872,0.933878146,0.2274261211,1.3793562007,1.1604013142,1.1267974186,1.3719335054,0.1933981092,0.8624754801,1.0893313891,0.4411395096,0.2275328078,0.1289959392,0.3543231003,0.62429394,0.1950102359,1.1790297397,0.5657651626,1.0790682273,0.9329619629,0.6238351689,0.8112437902,0.8930352248,1.0388701834,1.0878717325,0.7233725415,0.8896629061,1.3345145557,0.2249056273,1.0451549032,1.005471084,0.9743710502,0.3259364537,1.1282033436,0.796406185,0.0446634267,0.0686295094,0.079662925,1.0326260054,1.1880478179,0.1242383627,0.5061124424,0.3000906773,1.1022538159,1.4459248158,0.9121407987,1.1533571168,0.8076472362,0.488533656,0.7349312186,0.402442436,0.2479967906,1.1601250147,0.506060925,0.7267064637,0.0359663139,1.3644034522,0.008400579,0.5167280387,0.7839883497,0.3954572808,0.7580848296,1.3907839533,0.763410212,0.572661179,1.3602417762,0.7168953049,0.0431682244,1.0569902637,1.0102938349,0.7351307297,0.2553044754,0.8771915522,1.3683215309,0.465641381,1.0445811286,0.6579951848,0.6986895605,0.2085440685,0.3357126554,0.6973456812,0.6612605607,0.0283002633,1.3846215223,0.1379424381,1.3903251257,1.3151434815,0.4706030155,0.670680709,-0.5742764674,0.8576010425,1.4459556409,1.1443750606,0.7741032379,1.266490929,0.8468707683,1.3131192164,0.0208247622,0.1319225552,0.8781770973,0.5473211742,0.5676477861,1.0949541616,0.7539351974,1.1988319949,1.1149413006,1.4553852535,1.1785033792,0.6117003577,0.6934543825,1.383520565,1.4605429121,1.0399155628,0.1478696198,0.8897999015,0.2304453179,0.7041727849,0.9517759537,0.8221044902,1.0983491277,0.3046833332,0.3722558738,0.4598109759,0.3035118308,1.4540544969,0.9172268346,1.4086489317,0.2992734182,1.3090060861,1.1391975119,0.216791753,1.4078116042,1.2088190385,0.912782624,0.9623618848,0.9535439979,0.8049607741,0.5959065714,1.159148288,0.7716621214,0.2698357829,-0.8449195905,1.0207751577,1.401452704,0.9050993432,0.3880702705,0.2275858967,0.4690642161,0.8333270767,1.4533224019,1.2336015411,0.5587317372,0.9928178901,1.4402535012,0.1186300379,0.6030361498,1.218318649,0.2174489908,0.2406155937,0.3245021896,0.2522851834,0.8337932383,1.1708846001,1.3852476707,0.969659538,1.3568509518,1.3397257161,0.3979278886,1.1315040494,0.1691118728,0.2721724268,1.0723134436,1.4538142986,0.104941267,1.0402485404,0.5758136309,0.0098490544,0.8891974726,0.0546459313,0.6050162148,0.1617260173,0.6557201712,0.6997672546,0.9825256757,0.2156718649,0.6259326486,1.144483631,1.1758686032,0.8189599208,0.2194552997,0.9658073581,1.3404023512,0.5925173767,1.335538348
biasActivation=1,1,1
[BASIC:ACTIVATION]
"ActivationSigmoid"
"ActivationSigmoid"
"ActivationSigmoid"
