encog,BasicNetwork,java,3.2.0,1,1380615941782
[BASIC]
[BASIC:PARAMS]
[BASIC:NETWORK]
beginTraining=0
connectionLimit=0
contextTargetOffset=0,0,0
contextTargetSize=0,0,0
endTraining=2
hasContext=f
inputCount=111
layerCounts=3,61,112
layerFeedCounts=2,60,111
layerContextCount=0,0,0
layerIndex=0,3,64
output=0.7108478072,0.2409807347,1,0,0,1,0,1,0,0,0,0,0,0,0,0,1,0,0,0,0.9999999183,0,0,0,0,0,0,0,1,0,0,0,0,0,0,0,0,1,0,0,0,0,0,1,0,0,0,0,0,0,0,0,0,0,1,0,0,0,0,0,0,1,1,1,1,0,0,1,0,0,1,0,0,1,0,0,0,1,0,0,1,0,0,0,1,1,0,0,1,0,0,1,0,0,1,0,0,0,0,0,1,0,0,1,0,0,1,0,0,0,0,1,1,0,0,1,0,0,1,0,0,0,0,1,0,0,1,0,1,0,0,1,0,0,0,1,1,0,0,1,0,0,0,1,0,0,0,1,0,0,1,1,0,0,0,1,0,1,0,0,0,1,0,0,1,0,0,1,0,1,0,0,0,1,1,1
outputCount=2
weightIndex=0,122,6842
weights=##0
##double#6842
   -0.0509288191,0.0493715723,0.1032447946,0.0115148222,0.0987909385,-0.0498814739,0.0557335951,-0.1808940066,-0.0085660215,0.0329769826,-0.0037996879,-0.0238339271,0.0727127082,0.1878742826,0.1127928631,-0.0372286665,-0.0064763518,0.159461723,-0.1244326666,0.0014313265,0.09856712,0.0724501854,-0.1029195487,-0.0144844531,0.015730165,0.0615213515,-0.0683596387,0.0328393342,-0.049409547,0.0112006877,-0.0551824852,-0.0175363442,0.0722853195,0.0165966132,0.310379131,-0.0210659216,0.1961638967,0.0625113075,0.0007309152,-0.0289781917,-0.0654458669,-0.0005419175,-0.0082971589,-0.247828184,0.0373642642,0.0096754189,-0.0078948569,-0.0283989548,-0.0824218687,-0.0051501613,-0.0372238726,0.1055335785,-0.0027796258,-0.0157604972,-0.0282744833,-0.067493124,-0.0737818835,-0.080399471,0.1462485197,0.1152835242,-0.3233867795,0.0429187617,-0.0344321754,-0.1025771399,-0.0197094374,-0.0886910549,0.0343878212,-0.0395389984,0.138047711,0.0216362158,-0.0153902837,-0.0422381706,0.0108069824,-0.0653868299,-0.1789041517,-0.0957118424,0.0447147034,0.0142713838,-0.1296762681,0.1124259639,-0.0322218009,-0.0844964527,-0.0747161145,0.1060650775,0.0093810641,-0.0203723103,-0.0409477242,0.118611476,-0.0006789098,0.0394168075,0.0025415292,0.0651665815,-0.0008149047,-0.0871356526,-0.0228326375,-0.2346153644,0.0217044091,-0.1825327048,-0.0634121407,0.0087824636,0.0428594803,0.05992496,-0.010562816,0.0028189305,0.2440329621,-0.024046847,-0.0099510683,-0.0010412029,0.0215522798,0.0895405507,-0.001523178,0.0276455325,-0.0863286242,-0.0066394809,0.0125392137,0.039965757,0.0640027915,0.0797256621,0.0863409682,-0.1002659754,-0.0605786515,-0.1846501843,-21.6815613781,7.6590522595,0.5143128419,-28.0541989831,11.7536342981,4.2206473004,-19.3065247108,11.0989145343,-2.0983970678,-5.2419325966,11.2399440398,-9.0683071143,-10.4070274791,-3.8201470654,1.8080665287,1.6521704355,-2.9712747115,0.9360322482,-27.6350276742,10.3840860439,-10.5439619904,-16.8643619307,7.3280986108,-2.7907546486,-15.5551504003,5.2369174726,-7.0270804348,-13.3277826059,8.8037324419,-2.2265307793,-15.0131843588,2.2527538777,-2.1181622656,-6.9186157889,-2.7228845881,0.8341175165,-16.7390770924,-1.0249188959,3.3230929122,-8.1058038683,6.1111675337,-13.3115364016,-15.5412949467,-2.7552579829,-9.4780208429,-9.0082044408,7.855687143,-5.799306373,-14.1456652538,-1.9750057792,-7.0405242291,-25.0716563355,-11.2641999096,13.1137945957,-13.5088328262,0.0929782432,-0.0504033123,-18.071074793,4.1957038233,0.4875599488,-17.2424797564,4.9811873046,-7.256601805,-19.5609351082,8.6613087063,-1.2035480249,-14.9759440197,-4.0309850413,1.3732891048,-20.7440745948,1.200374566,-9.7584715535,-11.8637044446,-0.2466394084,-8.6504121829,-1.6724020309,4.4676520057,-11.7846865642,-10.8111217088,4.6159254851,-4.7031500484,-11.7574953556,6.2032776391,7.8670136922,-13.963189866,0.4243945317,-8.8585044022,-14.3549144298,3.8597420092,4.8287055329,-19.8686285635,-0.7497999667,0.7373439374,-15.7374589214,9.3056155827,-0.4755377121,-8.9397905889,14.0080352672,-13.359943557,-10.843932219,3.272602825,1.5724071383,-12.2978430024,6.6874589328,2.1025485877,-10.759917411,6.9160108066,0.3924046796,-3.8911672928,2.1556552619,-2.9008415805,-2.8383210029,-91.3908116833,53.7069916961,0.3245673423,-78.1076196773,47.5951571981,-0.875091617,-79.5828805082,58.2353324011,2.0462050549,-89.4053905548,44.3553705299,2.8896770675,-95.9296818547,54.9003686781,1.0028455346,-91.9741009569,52.5554057263,0.6781588347,-85.9180852119,32.2235393086,-2.8465546824,-77.7282109446,35.2334791703,-10.300702593,-69.3857096263,51.3112404534,-19.9420151838,-71.1059173601,44.5137336103,-28.5297043659,-82.8573294117,39.0641936105,-10.4388412385,-98.8972224001,33.2825393015,6.1557979046,-90.0460478565,44.1140829561,9.3089789602,-73.2414077169,34.751523995,-9.4648750636,-56.8136055512,46.9978335729,-28.9292486692,-62.4651694281,39.1151670231,-17.9626039978,-79.8232756688,48.5798469879,-15.7242015964,-83.4724179263,65.4093734638,19.1909169714,-88.168551632,55.5590025688,-2.9966636537,-77.280140802,29.5657008972,2.048499525,-58.023910527,48.411447274,-26.523320788,-62.7860538131,41.0177990204,-24.22314525,-71.3178182778,60.0703077807,-15.1403242022,-89.3921632872,70.6513826612,-15.0950535722,-85.6782657822,61.8827389695,-5.1662641789,-82.7236245742,32.2501187902,-13.5700558221,-84.5545152825,32.6164993025,-7.5904755888,-85.6216454084,33.2381429118,-12.748940815,-82.8757151351,48.6860800054,-19.3426392124,-90.4519093496,57.5817773256,-7.0318968479,-97.2272298506,67.3759576449,0.053047288,-82.6251597107,46.2237777101,-7.4005500288,-93.2680197392,30.4030257512,17.3516716505,-102.3562472825,33.0845577951,16.8226951516,-90.0699592713,57.6448843652,-12.8913780259,-78.370793627,58.4528694646,0.8639788804,-28.6302341077,37.4694448631,10.0151494456,9.0174937608,19.1930045236,-54.4930962091,0.0565047782,53.9645444126,-49.3284364883,6.7064354466,57.5804944116,-49.4690072954,-14.7785780802,16.0146650745,-49.7349197153,19.122820188,35.3613647295,-48.3767213616,-10.3009816792,21.7735447094,-39.6301187214,0.7249474715,20.5052703622,-50.002433966,6.1277255933,27.7221112264,-48.9503989172,-0.625807936,36.5204823719,-37.3977712025,-18.5439865325,31.4225423062,-44.8584275907,-2.7069828698,11.2697445215,-44.7750466188,2.4422968749,26.2639504646,-31.4420075204,-12.6387075027,31.617451557,-34.2851005575,-10.9404597323,27.5426067108,-33.2051136012,11.1040534663,27.2167812545,-34.4792100947,-0.0421401161,32.6771593934,-35.5690597659,-1.8320339629,24.9454360077,-35.9809496244,-2.8390383851,24.4908394335,-31.8415810418,-5.6213188414,38.3804679818,-24.3050683275,-16.7925655034,36.1820745149,-43.2444087836,-7.0954813034,29.0821006867,-43.1381889783,1.4632471447,33.6310515826,-40.0150650105,-6.0003045575,24.7854389674,-39.2855811425,-3.599705358,29.6234097886,-35.4663914802,11.8680222242,25.8834742781,-38.2255470709,5.0151538035,19.6558458335,-27.328972451,-0.0832847376,21.7942074594,-29.5668699049,-13.2532849436,22.8292396013,-40.6947557079,-8.5777135852,29.4535245911,-41.2631245661,1.9582304091,30.5859139509,-29.1888166426,-13.7672536759,3.6337787462,-28.0303625956,0.3483479372,26.1629839826,-43.2927172282,6.2767990442,28.057748305,-48.568844635,13.703868238,31.2347730775,-34.5965162725,-6.5565337269,33.04910756,-35.2987399049,-6.646707968,40.5410838065,-54.1844936517,1.0426046156,34.7622767988,-55.3944930582,-20.4342035971,-20.4286887989,9.1189746437,-21.5802358219,0.9570223107,-5.6098414253,-10.5627074253,-1.4291915132,-1.4156216658,-6.1617253307,-4.2374800817,0.4150021343,-10.6675354763,-7.014247929,5.3451357179,-13.2640887904,-1.6298159234,11.1892427967,-21.0950015928,0.8068374608,-1.4240087941,-9.1924532524,-8.6293050029,2.95151015,-6.5861599523,-6.1007081695,0.8590192274,-2.59582391,-3.1240370141,2.3328681812,-1.1581940786,-7.2174319052,0.6158619399,-5.5478092693,-5.6248862401,-3.9913142633,-11.0329734414,-0.2976079908,-2.7281039527,-14.4654426892,2.7926233165,-0.0539530587,-12.6028501553,-1.5355135959,3.2677799276,-4.2080477588,-9.4150612155,-0.903796448,-2.1245900001,-7.4899008698,0.498767461,-7.817111251,-5.0624961697,-3.4921521678,-12.0452200563,2.3231074722,-3.7006896487,-14.1122754061,0.036916952,2.1128292439,-7.1174288685,-5.8889724084,0.8444850033,0.1245464766,-8.2640022857,3.1487880373,-1.2537240764,-4.1363561413,-1.6401578174,-7.9410848487,-0.8981833685,5.3022344716,-8.5104808849,-5.4219049696,7.6597046906,-10.5334919373,-4.5960713235,2.2421735938,-12.0132660556,-7.6502176735,3.4636875939,-9.8495705525,-6.0466264692,1.0322432249,-8.4030001254,-2.7176559699,-0.7545667073,-11.529266744,-3.6377760122,0.3991005553,-16.8558819052,0.1247430864,14.1838863897,-21.0485742342,1.1969000626,5.1874082978,-11.3768201754,-3.5972698873,-3.2389735801,-16.8280296196,0.5775333349,1.1111934953,-10.955980834,-0.3917164291,-1.5646478991,-12.4254906956,-2.5390417692,2.9339268612,-16.7466382576,1.2578440486,-18.8783932166,9.5113731943,-9.1391822564,-9.9685977562,76.1953589099,-93.9057804533,0.351931631,96.0298666857,-112.8477404444,6.111442284,100.7983397407,-116.0314905758,-4.1356359119,89.3858010825,-64.5960782647,-32.3068687122,76.9907343924,-102.1329949365,-10.1225345216,93.1347321338,-140.8838507538,1.1714411361,54.2896731477,-111.5788363977,-1.7059329879,53.6914969099,-102.5727116187,-10.3755484507,54.1669812162,-92.1518642002,-22.5992654634,66.0766819157,-94.6333133959,-5.5055825537,50.8522874207,-100.414908554,-5.9874030581,124.6259389694,-114.8339068086,-15.107581601,124.6544215153,-78.7107319086,-31.471458807,66.1176942496,-51.1993683399,-24.7607835652,53.6959973389,-42.4493357632,4.4136562145,63.2198405263,-37.5481285835,-20.197243396,79.0800298228,-73.5805480576,-12.3926511379,136.324491371,-84.4054411974,-61.1439723904,144.5555815665,-80.9219312874,-16.6055361626,65.1972601711,-88.6875792864,-41.8293629454,44.0934372107,-70.437561901,-19.9399747524,55.962295086,-72.761882633,-6.2364902931,57.6466725512,-88.1221694431,-19.4195093341,100.7884967853,-116.681563413,8.0328140885,65.7312207144,-117.6641683831,7.891803028,50.5494730571,-96.0043025845,-7.4155327717,46.03473119,-85.6947707237,-48.2479805933,49.4744694178,-91.6530742585,-27.2419462317,62.617867095,-110.4474214702,-4.8136249367,96.1702563327,-115.860582379,-6.5000244465,67.3608780235,-121.9707867264,1.1701183888,57.8115886742,-112.2623649297,8.0148996171,80.3137814432,-89.5687961235,-27.9858195121,96.2249601562,-85.4942772946,-33.1887808753,99.4633561318,-113.0205448281,-6.6741617124,137.3196328462,-157.3579859752,0.9117462672,40.2855398832,-52.1295050558,-12.1457223638,-12.952601213,4.0914837536,-17.9274183092,0.2679170274,-5.1192864152,-11.9414019801,-4.8530109215,1.1485406253,-11.400510158,0.7643301059,0.6268948896,-11.6052534512,-1.6153815478,8.2461945184,-11.5114077489,-1.2836146697,15.6098807762,-25.0809649348,1.4419144493,1.427695872,-13.1972255462,0.2214715828,2.3416641747,-9.4887648346,-5.426052273,2.4840899726,-4.0087342202,-6.4703759127,3.6190916253,-6.9788183506,-6.9892902334,5.7872232656,-10.6063322282,-7.5660248476,1.299525241,-9.989092598,-4.0651013191,-3.2346606074,-10.143879236,0.2388644991,-2.0490189442,-9.1706449683,-0.3418960385,1.1774848698,-0.1189328044,-7.9255222343,-4.7269932191,-4.6330608471,-1.2568355769,0.5155474005,-8.0922299764,-6.3229655223,-4.6879922763,-14.4887937282,-2.1802165755,-1.395764819,-10.598041163,-2.8112360581,-0.874593231,-11.1706733552,-2.8191061903,-2.1632684625,-5.00791831,-5.4410910751,-0.8079744467,-1.6221790726,-10.4409663082,-0.1973280053,-6.3019980192,-4.9866326496,1.1909565546,-8.7927367466,-4.897398409,-0.2341588726,-12.620695692,-0.6902581221,-1.9530105262,-9.2682428657,-2.9771588577,0.259861688,-7.7021020563,-3.7359096576,-0.8601849294,-7.8558403113,-4.3047900078,1.6662805707,-10.1289470339,-6.0897271008,2.5126263224,-15.335027158,-0.7219681365,2.3116326007,-14.6885414406,0.1969071356,-4.3008267197,-9.9165147803,-2.5686136351,0.3781072481,-10.1216180974,-4.7072376297,-2.8274665823,-13.6158659072,0.1303882942,3.0782415109,-14.8032870993,-1.2056854186,7.4397306233,-22.8085410381,1.0673189874,-12.9830721454,6.1182317154,-7.8023596496,-9.7447406148,-6.483616765,3.5296988288,0.9893954971,-2.0357780585,1.6008715909,0.4424058033,-8.7768917168,-6.2818189057,7.0463547119,-2.3602845751,1.465074901,-8.2814317216,-4.5212494857,-3.6090834859,0.2465496806,-5.1865442038,-5.2161996936,0.8882116827,-3.0363270258,-0.8792803795,2.4322173936,-3.902822581,-1.9099962834,-3.1469276385,-0.4333609015,2.7723844047,-7.3098468972,-1.8526864646,-0.1845790417,-4.3529472578,0.3406787801,-0.5172954162,-1.7996485359,-2.6348901959,-6.2542801008,-3.0277214521,-3.5074255761,-1.9678916675,-3.8144317806,-1.2146222356,-2.1694611617,-3.7775731498,-3.0451530234,0.8044060242,-2.2508127887,0.3495844344,1.6557646297,-4.7660510041,-4.4573989259,1.7916145979,-1.5697453866,2.0492873613,-5.8860743386,-5.5565200679,-2.6379623912,-7.4791008848,-1.329835582,-0.9543547008,-1.313863149,-2.3141084845,0.2880319616,1.4420954228,-1.7712559297,-1.9529111173,0.3125043166,-3.8809463406,-1.7260709717,-2.1742687192,0.6464294447,-3.2289100144,-10.8767234964,1.9987721451,-3.9948485097,-6.7176951775,3.9554939249,-1.00810771,-4.0027328551,0.6793024173,-0.3963471712,0.6306578588,0.6972385693,0.470341632,-0.2730949987,-7.4461920292,-0.4307590521,-2.7062879583,-3.4279731033,-1.4432535071,-7.528184594,1.291826902,-5.837076418,-0.0144089422,1.1119729858,-0.8648690717,-1.4489767215,0.1493204085,-2.2375412095,-0.9544551181,-0.1108446254,-3.6285860629,-5.0039347339,-2.7588060107,-3.7621217783,-2.6616149184,-2.1647892217,-5.7986495652,-1.1170086661,0.1881964345,-3.0278672547,-0.3598734887,-3.0825158806,-3.8307258303,-55.9404124334,37.7598323518,0.613044655,-56.95267203,24.807188091,-2.1701418446,-51.3665091255,44.6487252032,-2.8846943805,-45.936265515,32.5891903543,-0.2490266616,-45.4605191072,35.3381630882,-3.0246885938,-48.3875013003,35.0934685059,0.8375280275,-46.5399561624,29.1229603805,-4.8104907239,-40.6833000606,21.9617020645,-11.2797336327,-42.3968835843,20.115887553,-10.6656703847,-43.0532618648,18.7134228599,-14.7165993724,-36.7721813319,24.2472183554,-19.1366663644,-53.7713401653,22.4378586312,-3.472791856,-44.9293429851,32.9030580417,-3.7059321833,-43.1523386573,19.1527562702,-7.6835745836,-24.4882260463,17.1301668708,-14.3600747426,-30.657361839,16.067328311,-12.3524357498,-33.0367552414,24.1354552451,-16.6111267828,-45.7096406562,29.798189302,2.166763836,-51.271486595,27.4461309524,2.3016375323,-42.9273214571,13.9253325312,-5.4113877943,-24.4163925483,22.9393316417,-15.0329865638,-25.5234993283,17.1251859729,-20.4135910324,-37.5715294319,28.684101456,-14.6332932711,-49.470856267,34.9124282714,-11.3762550899,-42.6265895654,31.2987393534,-3.4997422699,-41.4741077886,20.6304647294,-14.4605229724,-38.5068443235,20.739811778,-5.7203460256,-39.0055539344,27.3569207748,-14.9310913373,-40.465603728,36.2566421978,-21.5981453435,-49.0082355461,41.4377493552,-7.4256668318,-46.302682108,30.6172451063,0.9507922872,-38.0511783826,22.6684408938,-7.8806102223,-41.6811254997,32.1123630332,-4.2138306098,-50.2523146368,19.7072132966,1.7162064021,-46.6581067195,39.7177645406,1.3265944309,-63.8218728336,52.5206152094,1.1870607013,-4.5033132697,8.8106117147,3.0836206007,2.2824147819,-7.7350644723,13.2933785157,1.3263014867,-36.3026170205,20.6980284674,-8.4255399898,-31.8939558384,23.8512016675,0.8636611975,-15.269371338,20.4754288156,-7.2977341439,-4.7185803471,16.8346401214,-1.8324130482,-15.2262836204,15.5304617233,1.2346039371,-15.8871319227,22.4668188723,-0.2928214096,-7.8415475552,29.6208694328,-15.9370627031,-14.1816442973,25.8173145578,-9.7259290357,-14.8078028659,25.6360156707,-5.5761115939,-5.2148036175,17.5855205889,-11.1575030485,-19.0939050398,12.9958369313,-3.4232339627,-20.8007447847,5.162195686,5.36474105,-13.9087891025,17.2096669283,-16.1284832792,-14.2782107256,13.4941656095,-7.4111284518,-15.9861083604,17.1532456303,-3.9740068248,-14.5253821589,10.6010630142,-2.2580156869,-27.1026783478,2.0612194207,7.8432914467,-23.8971291352,4.1188646152,1.6187596022,-17.0621848611,17.0749770551,-1.5397779488,-15.6873401202,24.2422319399,-5.2733903004,-17.1809904821,20.8848495837,-4.6078514561,-16.5963942142,8.4587691516,0.7597277488,-16.4371591504,11.5990829055,-11.3944591911,-16.0521276295,7.6224848506,-3.9492055978,-13.6162149864,11.9655487286,0.0110297056,-10.3661889679,15.6528279738,4.1515881851,-13.4062767836,19.0327174794,7.0947962689,-15.3379290684,16.2708861317,-12.3296261504,-17.8929658295,6.0445775854,4.0026149112,-18.6720632271,10.8937147547,0.3170223858,-16.2515947481,21.5140848051,-6.6520303035,-13.6354587086,28.217084837,-6.1781177387,-21.5099572513,7.3239066959,8.7716023852,-16.933952964,8.051903301,2.3646776871,-24.8201593965,13.7909654715,0.0044230363,-43.4072326391,33.5455644835,-11.283364062,-10.7137000867,-3.3759009388,-7.2733731256,1.3470646376,-2.0927514145,-4.7431116654,-3.5294240359,-3.9597935818,-8.904607688,0.9726804713,-6.8724632214,-2.9216019143,-6.3168235355,-2.8588128516,-6.7277388951,-2.2899460626,5.1182642099,-13.2404612376,0.7938209996,3.9482417813,-5.6532613984,-7.8165169905,-2.3390610545,-10.084559695,1.0985097985,-3.6870536632,-8.8810128884,1.6362245425,-1.8252996566,-5.8994274715,-4.9525493173,0.8640198914,-6.1764110488,-7.2950661522,-1.2004090686,-12.7414249603,4.8157015628,-4.8508036047,0.1146612281,-1.8688567532,-1.1070599719,-5.718008495,2.1038039682,-3.2459765556,-6.1911291806,-0.6672443871,-3.0966442684,-2.6670509289,-7.3217585612,-2.6073198236,-0.8946994224,-1.2680789878,0.5635369948,-7.1716927071,-3.6314805005,-0.7047203441,0.064542575,-2.1383938245,0.5310508674,-4.8102329447,-9.382529661,1.6096081198,-9.2820723699,-6.5047838409,-3.0186225808,-3.7763884753,-2.7509406178,2.4067850976,-6.7851018064,-5.3575859669,2.3400048821,-3.7856939288,-4.5831864153,4.652250985,-8.0573725849,-8.3561630238,-4.7251915606,-4.7394118156,-0.7237734632,-4.3957362634,-5.3523593349,-2.1745261074,-1.281994931,0.6839007247,-17.0719850672,-1.1282910609,-2.464517816,-5.2955582583,-5.4495343353,-6.0506421887,0.4708299359,2.4144453264,-13.2330941278,1.0439623728,1.5060521897,-9.3582199343,-2.8968375663,-2.0129267247,-11.7687903366,0.5867763022,2.5991228147,-5.6532810571,-11.6813164169,5.9137343664,-13.0098091346,-1.2951611873,-6.3113542101,-6.9167424688,0.022204606,0.367554203,-1.0355177016,-2.180378014,-2.271918895,18.8930471883,-22.1582870583,0.8503904155,18.6127768652,-14.2810027908,-2.7551866177,6.5415926596,-20.5350899771,0.2713210126,-6.8427901772,-18.0643267938,-4.8678227732,-0.6773188761,-18.3326129023,-3.8260687755,-0.1312459583,-16.2842873204,0.016787901,12.0254008694,-18.3928577579,-1.6623437429,13.1740109078,-12.056535283,-15.4294602837,12.0021174431,-6.8448210745,-14.4561011561,7.1362544272,-11.3310858367,-7.6900127965,5.2966867439,-9.8931283648,-4.9773566441,-4.2365146098,-11.1041005158,0.8668643515,2.4166128275,-19.2364825465,-2.2371580205,5.3714196047,-12.5458766178,-10.5302804188,4.8232563315,-9.6156784454,-8.6560807689,0.4668921556,-6.2773504778,-7.8276188543,1.2357155297,-10.8704417089,-3.980166314,-7.2842056458,-8.9493641759,-0.9711768263,0.7575196128,-17.5744624855,3.9403083926,6.7005255237,-8.8762868724,-5.8209468305,5.6882646017,-2.4260367688,-9.417181628,2.0445187788,-4.5646878885,-6.4646237057,1.9768003295,-14.3457761988,0.7541790053,0.9012836225,-16.6364282342,-2.0038059715,3.8948748441,-18.0527907926,-7.4977512949,-1.7655733758,-14.5945624485,-0.0528832063,0.5519469176,-13.0809976634,-4.6219558251,-0.6045843622,-10.2468132088,-2.65868059,1.0190797046,-13.7173090603,-7.5055629124,2.9765897085,-16.2125427227,-2.1345975009,6.8018970736,-16.0891133507,0.1393889899,6.7983717276,-16.7382497327,-0.5631720727,0.1908085591,-15.9676161593,0.6826608763,-0.9225836382,-9.4904914193,-3.4995149556,0.7551050629,-16.4536710066,-1.8218826272,4.7228628688,-14.8003257866,0.7446538636,-7.3593473521,-0.9627884371,-8.3453198791,-8.6603097687,-0.2174530943,-8.1427162321,0.8194154776,-0.7420552137,-4.5060184349,-0.6990795965,2.6344241641,-8.253220858,-3.3489637446,0.2915496681,-7.6033470928,2.7916562109,0.3129917503,-5.0846928829,-2.0965434872,-1.1188084488,-5.6050216203,0.5386948448,4.4340693212,-1.7476462322,-1.923235878,0.5071844706,-5.4961007639,-2.6966641081,1.7987259209,-5.137945051,0.4387575221,1.1894656184,-4.4381380771,-2.260419122,0.3905730952,-4.4152371203,-1.357703921,-2.6415512803,-3.559107439,-3.2893059844,-2.9012333828,-3.9865055174,1.5428718142,-1.7075511284,-4.2863841152,1.1909701715,2.5183414475,-2.697889118,-4.617361711,-0.9298710435,-4.5740336501,-2.6326466307,3.8611535969,-4.0019026778,-5.101085423,-3.6151147326,-4.2366764131,1.9839148064,-4.5082882465,-0.1674884053,-1.7415947262,-4.016002078,-2.8550660536,-2.9481110649,0.5876499766,-3.1961079119,-2.5638284554,-1.0923796836,-3.7622499139,-3.4666000202,1.7090013401,-3.7168145411,-6.8317291841,-0.3829726834,-1.7620122652,0.0500753107,-0.4292030178,-2.646762987,-1.6379269306,-1.2762165655,-0.372197658,-5.5055874439,1.2198421586,0.3292735937,-5.024441517,1.590408007,-1.067389176,-4.4437649809,2.1396334427,-3.4589103155,-2.2835760825,-0.4793326698,0.8933261298,-2.8491635375,-4.4513990954,-4.3241794889,1.0765340712,-7.1235593933,-4.1065872043,-1.249932253,-1.6113818552,-1.0688632791,-0.3723428069,-1.3630381243,-4.3555728258,-2.4326407395,3.6427184482,-6.7967088809,-3.17352127,0.4743875226,-9.1590837071,0.6932267766,-6.6369455176,1.3340144215,-5.0059658471,-4.5351550117,-12.2108055894,1.0053876276,1.3572271059,-6.1292896844,0.6919030349,-3.3292953797,-10.4965787351,3.183299671,-2.3012916881,-4.4612352849,-3.9578471003,-0.8218335514,-6.6298671441,0.7774008977,1.2930100824,-15.8543452714,5.5071308273,0.0771345659,-10.3734197459,0.5612048357,1.4539361297,-8.3487637994,2.005061826,-1.6055512163,-6.6560257835,1.883100055,-6.4048884565,-5.8229346858,5.5671468243,-6.0559120448,-4.8636049497,1.1277921529,-12.2036099008,-1.9655150961,-4.2030574377,1.0013916523,-11.0181586059,2.1523807753,0.7419859647,-8.1386008504,2.0253477664,-7.5519126253,-3.0850002377,4.5326367009,-10.1179462199,-3.3239416776,-0.9489008959,-10.1003058297,-4.2452346963,2.5481762426,-8.4322254552,-10.1105774079,4.3350170602,-3.1524496791,-14.35007585,6.2157557929,-2.3590199724,-7.7374286629,2.8946014284,-5.2130069221,-5.294605193,0.0536104495,-6.948665991,-3.9372969318,0.4615575445,-1.6699801079,-6.8249521165,2.8878464605,-9.3235039498,-3.6141368407,-2.0779521606,0.1139640856,-6.937017993,0.6634216885,-2.0483319382,-7.8240245808,-1.0933747294,-5.0453884096,-5.5639122781,-1.9176906498,-2.125650347,-3.1119126032,0.4813614123,-12.4609150925,-5.4522551687,2.1960538978,-1.8893766211,-7.0357811349,-1.5856031213,0.3601006739,-13.4204007387,6.8918232927,1.0319724272,-10.4729900531,3.1835219504,-3.7381039869,-5.5887144665,-1.636105866,0.1741021416,-4.8669133164,-1.5811150058,-0.6972126832,-8.8139433689,5.0414828794,-4.5807225281,-8.7859519174,-2.5293062875,0.7156865976,-2.6812467249,2.3318203806,-1.4044922105,-2.745851712,46.9059994047,-86.921484047,0.1859832298,73.0826544704,-79.8320232128,33.9920913913,106.3019929228,-71.6231576061,-26.2197852163,50.1869016471,-50.698648038,12.5688617476,43.9365931848,-65.2843653795,-9.2645810386,58.6354038431,-67.5066300803,1.1409474815,46.4677788295,-68.0579600878,0.9974336416,38.1053089997,-73.7107497307,4.7401800578,45.0476454686,-52.7209844581,-6.6508925578,50.7511797311,-51.6428476874,-16.1723812895,24.2723788759,-71.439830736,8.3078949476,53.0274182085,-57.9508559631,-11.0488932171,52.7846379703,-42.8741180848,-25.3216992609,43.2304626425,-40.2450883036,24.1925533208,35.2949524609,-39.6351114983,18.914839663,54.6199913348,-38.200880542,3.5092213977,41.2474808581,-50.2618556887,5.8280294414,57.2628187439,-53.5860441715,-16.7429285481,66.3844382445,-38.273072785,-20.3955794793,47.8956821748,-65.7559564987,-3.3737508088,37.9726998166,-48.2128434972,1.002812578,48.6066545095,-53.8359049641,0.6872823576,42.5143300293,-59.8163018608,11.2985348104,57.8034422599,-59.4333887659,23.4526438823,54.1244001187,-62.3176264851,3.5354974153,46.0715770795,-50.1062303069,2.5065695947,30.6148024318,-50.4080864844,-6.3741637869,40.0265298279,-61.739333419,-3.6703895185,53.1123556694,-65.4128465308,6.1115606425,73.9414357196,-51.7571227326,-13.9466894476,42.7878574016,-62.2735226506,1.2800701155,50.9364035195,-85.4083713366,8.9924640554,44.6364992666,-76.2189566887,34.1469735339,73.4009582219,-53.9981400045,-15.3640845191,75.2516713544,-43.7504472873,-7.3670810923,79.1883490186,-69.4121185699,1.1727018869,44.5368163506,-66.7093804163,-22.8134330054,-23.6455886378,-21.3827047473,2.3715721411,0.7752122643,10.067499182,-1.8667123531,-4.9377935055,-1.3533090096,-4.8829815434,2.305712422,-2.5086476343,-9.0284094416,4.3292501286,-9.9030115606,-1.7613178458,0.8302974831,-3.9785165996,-3.2830718223,0.8154874622,-5.531593775,-1.7052131152,-2.3754674539,-0.2254575248,-3.8062588463,-0.8777798131,3.7712209359,-3.0115767464,0.2877863108,6.5632739976,1.7573379194,2.4040758979,0.6374157033,-3.2732755565,0.9725092646,5.1796710055,-3.6103436494,-1.7078494622,-1.6297515934,-0.6878373988,-2.769473055,-0.5471191958,-0.2612027243,5.6438373158,7.6755251262,-3.1872431583,1.4931678399,4.6557763663,-0.8526900848,-4.090785973,-7.4282407491,-5.3197465284,10.0635835754,-2.4362843728,-5.0468312116,-2.6437769144,0.9066350888,-7.6405225053,1.923717561,3.1694955693,-4.8094386749,3.3945498412,9.3532279927,-10.7288245428,4.74107438,4.2762891957,-5.0539596604,5.3032119564,-0.6396170518,0.2730549574,-0.3222200735,4.0180206764,-11.0820547965,2.0052905491,4.3481344421,-7.880154703,-0.1286583934,1.203635024,-4.9212279665,-5.6888171301,-0.9051113193,-8.0335375367,-6.0234017162,1.602940258,-9.4450470021,-3.2827284893,0.6226536571,-6.0032229462,-4.1375917067,4.6458375779,-7.5756714674,-8.4088484681,2.4165855238,-4.0529711787,0.7973659564,5.0018824013,-4.5143024458,-1.6337101414,-6.7914476002,-22.735230754,2.9333490256,8.3699815321,-15.4090296898,-5.3172443129,10.6448237348,-4.055965269,-12.2993136852,-13.9959932822,-3.8350188155,0.9912685951,23.8706818098,-34.2127588088,-11.0357812048,-12.2049476104,-84.6958555945,87.5404376309,0.3208981757,-127.9999437014,127.6632019628,-8.230617858,-128.7137386695,134.3871768102,-10.0946931251,-103.0772408719,79.1840254349,6.292176392,-97.4135454515,68.1857734455,7.5977221489,-91.1232181267,69.4617843474,0.1183297867,-85.0809788229,93.4765827656,-25.1301781696,-92.5523838624,93.5363162701,-18.8218355334,-98.7430598027,108.7414309367,-2.0011814274,-98.4215754351,99.4995163023,-24.3204688434,-85.7480638122,70.1866392369,-13.7261449298,-103.0102300883,45.6785960243,9.4560295703,-99.64118863,39.8133831862,35.7484810189,-81.3504265879,56.9113349368,-27.8297948889,-85.0868964465,61.5708216529,-27.6511251452,-79.7340344406,69.964273527,-24.8744675282,-88.7214437721,53.1979099935,-25.1243078619,-90.3633486404,50.355126348,39.115117134,-109.148805383,48.7834805746,19.7491286536,-102.8522469346,61.6730356791,10.8369138724,-88.1753992901,84.2899092887,-7.1763177457,-97.5784874708,72.9289979629,-14.6372150176,-95.2717563934,62.2138217007,-8.2523398681,-108.5553409507,92.5207189726,-42.5804445548,-110.9066813912,92.038623698,-19.1885979906,-91.8392313237,69.1479225442,-23.484381714,-87.6146047296,68.344917692,11.9156219774,-95.3322926585,71.7205796843,10.1951190644,-106.1177489135,65.811476544,-8.8569984211,-122.8443914967,87.7169673686,17.3061815112,-108.0147027706,90.78885889,1.402676235,-110.0617713477,104.6399755232,-15.1712767438,-96.7138160815,113.7876663045,-18.5046767628,-124.7822720011,71.000382837,35.1719595798,-122.8287548128,81.6944475708,17.842669967,-116.5210179047,115.7115721219,0.7638629719,-89.6243723868,84.4454558326,-5.4409530467,-6.149662617,4.4982530695,-17.11794266,0.4271869065,6.4560123977,-11.2991398133,-2.6185623447,1.1797946743,-8.8062329942,-2.8427363217,-0.0912947436,-13.3445889098,0.7568370851,3.0368267399,-17.6205153909,-2.0668557914,2.932699038,-17.5569227271,0.2418181773,3.642173264,-8.1260955277,1.1107160157,4.3397596687,-11.3720731627,-8.3661903324,6.2400340235,-10.3073241916,-7.8870710812,4.7120498802,-10.1119921838,-6.8800458528,1.8718327526,-12.5608893864,-2.9728936579,5.1386359356,-13.2561483148,-2.5214306185,1.1997132197,-11.1681043165,-3.4028135167,1.8393630771,-7.3610702859,-8.2882651785,3.9624042326,-10.3342924328,-6.239435089,1.7533692195,-7.8574194037,-10.2646221304,3.6131754475,-12.8202521077,-8.6865782397,-0.5402129752,-15.9060457906,1.3936023945,3.9996947187,-13.046062756,-2.8242331928,0.8065477868,-10.1762398956,-7.3515377036,5.5030313457,-8.5536179889,-10.1255363647,3.8119710042,-5.7529397292,-12.3260578809,3.1141443654,-13.6059212959,-10.6156874717,-1.312342486,-14.2375567333,0.2290564047,2.0860604032,-14.6290456826,-3.1001586003,2.8034250809,-12.3153191428,-8.3282850706,2.9626008301,-12.5214320552,-4.1824932158,5.7937884671,-10.1714297634,-8.5504941927,4.5975744321,-13.4098714214,-4.5514665758,2.9073121799,-10.3792553724,-4.0931954457,4.4255936464,-17.6812611328,0.4649471749,-0.9190187375,-16.5604048254,-1.5662747528,5.3009043835,-12.9658506256,1.6360825902,4.323002805,-11.4243099695,-1.6609347372,3.5330615206,-13.7842157941,-4.3663954288,5.1251197384,-13.2495650976,0.4513951694,-0.6386017999,-2.4367186795,-3.6423551688,-5.7957400897,12.6054354253,-30.8886775706,0.5440872143,26.1049673377,-32.9804411937,14.5700585156,35.7437010266,-43.8455055718,-10.9918757379,27.2579145946,-33.1566270354,5.779586074,20.2569730886,-39.173113163,-4.63231606,22.0223660083,-35.5576075752,0.934799225,9.8389240313,-40.3140452313,5.6968449974,4.3307039126
   -39.0599306795,8.3251035279,11.7156794691,-32.5527427351,-2.5112481618,13.8388681049,-30.5251834152,-5.2396592081,-2.0099985724,-41.9162563365,14.4169755931,25.1999645023,-33.2365291135,-5.4470721427,22.612633283,-30.0192703595,-8.775025658,19.2669879527,-18.0792015051,3.5107232145,7.7073890452,-19.2383438811,-9.8303958284,19.259627718,-23.3890418514,-0.9081354695,8.231970555,-30.0623981443,-0.6898673156,21.542352674,-31.5521812958,-2.7379574188,23.9042634881,-20.3098053425,-9.7666505544,16.8996781404,-34.6910891102,-2.8072085904,10.9625688377,-33.7958063393,3.1710801118,16.7509890016,-27.252168467,-9.0912703318,7.4402671916,-31.022738627,-4.7597575411,12.3761868684,-35.1689958201,11.8991427137,14.7887264492,-29.9724871485,4.9197713037,15.5991518123,-28.1697680637,-3.995537285,11.084636395,-25.3861865905,-16.6905274905,11.4878727344,-36.3572985134,2.0272026714,9.7090267423,-32.7559260816,1.8374240843,21.3003957104,-29.8140371797,-7.461706939,8.9211150944,-28.4015031451,0.9572486682,12.209346235,-30.3604860187,6.6769311065,11.7252702727,-31.2010828588,1.2611096059,23.9628287975,-28.1108887073,-6.4953247472,14.9815788344,-31.2391710813,-3.2705589082,27.185806453,-31.8870751014,1.13189393,16.3786750213,-28.2416963742,-11.0164742559,-11.9300242709,2.0773599784,1.4645524557,1.0343512603,-7.7986675196,-5.5953275844,-6.6161817516,-12.9625596685,-8.0045809591,-5.5188578069,-10.4831579498,-2.1014079214,3.6116963841,-9.874474327,-2.4769458673,0.0537767378,-4.8447994835,-0.6379005782,0.2972415022,-0.1995755335,-2.0185360938,-0.8796935742,-9.4726468825,1.4433841646,-0.9257237352,-12.7026732927,-4.1026506676,-12.2274144104,-11.5531971479,-4.5883564931,-4.9413427361,-4.5141582101,1.879602005,-7.0762605145,-18.4326149009,-7.2731919384,6.517512852,-8.8761507501,-0.6947297371,3.0891597284,-10.7916259201,-1.0483196113,-5.5054784818,-10.2918549441,-0.3268898807,-10.5022899965,-12.349437335,-6.3792150345,-5.5806178645,-3.1731499797,-3.2680746023,-6.2718712057,-13.2313303917,1.0533260247,-0.8522744556,-12.4047787766,7.2222873583,-8.5028484362,-8.9564030595,5.2782570233,-11.7923186012,-11.1495709019,-5.9227142642,-9.1264183646,-11.8384104151,-2.727529881,-3.7058748107,-8.1132100127,-3.7434478714,-7.1014194199,-8.7905670041,-10.4841714724,-3.0606988945,-7.5306938287,-0.3801856506,-4.9688176454,-10.3278485421,-1.3362950924,-1.8570394281,-6.7379954575,-2.2006584189,-12.1304765686,-2.1454684581,1.0339133873,-12.710349137,-3.5897627988,-2.0040875226,-4.55621007,3.2965169825,0.3037798814,0.3657385956,4.4718556887,-5.0854052397,0.3628878284,-14.3145900347,-7.5812097303,6.7368822427,-13.6409162575,1.4240891069,-0.8417831422,-16.8529862421,1.8294813859,-8.0671408897,-10.7808897733,4.0173692597,0.0788672327,-9.8955409872,6.6387268138,1.3529917535,-6.4660714169,6.7733813467,-0.8523743799,-2.1873464855,16.6059730134,-24.6131350497,0.6171866827,13.1493626141,-10.6428443014,-7.9831592542,-5.7027121823,-17.464857383,-2.5365616388,-3.3755509327,-10.5863317223,-8.7677997724,3.6031453685,-10.9332718321,-6.0871482399,9.9466755252,-22.7747513182,1.0718558558,14.4662755027,-12.7719779124,-5.8100614975,6.7721131968,-8.2099362278,-11.2992697848,6.9373702832,-4.0734074866,-8.012622004,5.2951946955,-8.774337137,-4.9638245357,8.362583262,-9.8386430627,-7.1323335167,4.7156177472,-10.7401323804,-0.8051985433,2.4029674183,-11.0933903652,-7.5265835896,4.0771348481,-11.604700128,-6.1993048249,-0.4396474378,-11.3732312511,-2.2248523359,1.5475868274,-6.2594859094,-9.5190433533,2.687881434,-8.9490307482,-7.4585405692,0.8617994342,-11.7185485714,-0.9528049933,5.6333599414,-15.1910772054,2.9572735404,6.3963845683,-5.8695376297,-5.1458896843,5.1066759085,-6.643999248,-4.0731798926,4.1496617188,-6.2939370293,-6.6186046785,4.5131407882,-12.6790787438,1.3714888339,-1.1007936471,-15.3947722371,-3.3978439212,0.7773256846,-8.4439406999,-5.8215539467,-2.6076928994,-15.8902957255,1.5463065439,-0.8717456311,-9.7893360748,-6.1964946803,0.4022675139,-12.4733445511,-0.5627075928,-0.5395680172,-11.1850761817,-3.2619062611,-0.0533589625,-8.6381191922,-5.8104812878,11.245230794,-10.7681941996,1.2854781301,5.6493973339,-11.540336575,-4.409454757,0.0870539651,-15.4074030412,1.3816045764,-5.8702095513,-6.3258813916,-8.0699160045,2.7791950069,-15.637055779,-2.4163645602,0.9016462252,-11.1990238559,0.4353503564,2.6798549652,-3.9953889445,-1.8128714785,-2.3224374664,9.807780107,-50.4861521069,0.5359391245,23.6976252116,-39.1884074773,-3.5123264001,44.5872692885,-42.9691160275,-20.5170587959,34.4338047587,-47.9759596388,-7.8546868555,13.5083166684,-54.1826110149,-7.7588588914,26.8342274974,-62.9460432509,0.9173454432,13.9760610543,-48.4472042635,-12.3413599509,14.6754435103,-43.7800119964,-11.2206317213,28.7160698989,-30.3013958574,-25.0338595921,28.8448862323,-28.2818001005,-16.4129247428,5.3870517428,-45.4695041704,-6.8505109703,19.3340356277,-47.8179399952,-5.0695357305,10.42492903,-43.4639650017,-5.0349939179,13.7346756697,-36.6399365253,-24.6359302527,9.6363922531,-23.297656484,-19.9889116226,14.5642222985,-24.586771464,-22.5147413519,4.9778401719,-40.4147391348,-23.5181958266,18.4023164876,-38.277499678,-17.8353248961,19.1890860339,-45.7962578744,-13.1412969077,13.8678201913,-42.2664019023,-13.694365919,16.8791588,-25.3288604909,-20.954532316,14.4163724199,-17.5226414716,-16.8182915931,8.2645010888,-42.9825845886,-5.5814195332,16.4264370749,-40.2188534587,-5.9136528867,13.4976179148,-49.5253405653,-2.0929469934,12.1917657047,-41.1247799692,-16.0359276105,11.9324219366,-39.5926845939,-13.3804196057,13.7565564182,-40.3343887404,-7.819081552,6.2816381193,-45.0723042348,-4.3159030795,7.344360034,-45.5364335314,-1.1549770022,17.8026415047,-51.495586884,0.9111281351,13.8582446265,-53.4021519218,5.4201879747,27.9569057951,-42.3676795631,-13.8923382437,25.1180192918,-41.3899225162,-7.5216560999,10.7465490675,-46.3119588902,3.0478298172,22.2630970863,-50.3958968292,0.7377007467,2.6648273519,-13.9645175578,-12.6913490785,-14.0962615263,-11.5995577502,5.4294929957,0.197396995,-11.4685785189,4.4628625521,-4.1488322708,-9.7652834856,-1.2924181571,-1.6434805541,-2.6625320213,0.7314096465,7.3688231071,-6.8795568048,-7.9744881218,-2.9101541246,-4.921191885,-0.3486816605,0.7994935849,-8.8947195389,-1.5874773291,-4.4974111313,-7.792824961,-3.5442659201,-5.3441437278,-9.27648824,-7.7777445078,4.166189968,-9.8356452268,-3.7563707465,2.185069958,-11.5860284417,-6.4474911305,-1.9296750414,-9.2587815192,-4.1181487908,-4.4730858698,-8.4017726294,-9.3146243052,3.4943770232,-5.3581129093,1.9098295176,2.3264754688,-3.4207052731,0.3686073741,-17.5826221883,-3.646363504,3.5964884001,2.4429067424,-7.6777894617,-6.3099759336,-3.8617385963,-16.172274289,-12.5175718448,6.4652512508,-9.7598588602,-7.6880517801,-1.097805549,-7.6815199954,-8.9645338578,-2.1888350849,-9.8129879453,-5.5993756711,-0.2098012467,-9.3696765708,-0.3105870064,-9.0227160785,-4.7388332879,-2.7053885216,-15.807570105,-9.360948463,-1.3834869557,-5.4348886972,-8.5382841438,-1.5686853343,-1.5664841249,-5.9109918642,8.8339637183,-8.858146791,-5.2379166799,14.0837161584,-13.356061195,-5.1285515774,3.2547821629,0.5711648758,-8.3949821511,-0.5121382657,-3.3206245237,-1.3894582598,2.6780235687,-6.0457032303,-7.3587287376,-10.1255869287,0.7219812436,-18.724633909,10.7642318908,-1.9650702357,-6.7903797344,12.680271129,-13.5495018589,-7.1286604492,-0.6445959151,2.6305916453,-3.7889576981,-13.1287622673,0.2142567688,-3.9174804057,-3.5714689778,0.894172558,-0.0204355568,-0.3912693171,-1.5275544166,-2.3674405165,-28.6701109268,19.7514293592,0.9876713334,-19.3233390423,10.1472952968,-1.4087872061,-18.2893420894,4.0527103453,-3.6343883228,-22.0738061938,4.3109340158,2.0984109653,-22.6287016071,7.6350240663,-2.6048173299,-24.9705697163,13.8303474321,0.2690905688,-19.07221323,8.6339302317,-0.1509512192,-15.5293103788,7.6915444079,-4.0899347569,-15.1659657723,3.873041377,-3.9942614259,-15.691254716,4.6892645836,-7.5689270988,-16.2667957913,5.2687916911,-4.68572135,-19.497876027,4.5360040931,-1.2309311478,-16.8567983986,8.0016029939,-4.0887518666,-13.5684266918,4.9645887899,-2.781716134,-9.65479707,4.1579413467,-7.8427035825,-10.2216231634,4.1979164749,-8.5650682744,-14.9811187706,6.0209290552,-3.5007550537,-16.4142685967,8.7273310915,-3.6483575429,-19.7007177103,2.5998305222,2.0058455863,-14.2286219618,4.5745113652,-5.0036809208,-9.9409087598,1.9449011192,-8.8162181001,-12.028338319,0.3782292475,-5.0568400744,-15.1942314848,7.5969713723,-5.6464874953,-20.8402564438,6.5717377234,-1.2697260563,-19.5930943425,7.4880140222,-3.5925575081,-16.8986047096,5.5900932106,-3.3068316359,-16.2457593784,4.1439310856,-5.3904176277,-14.493033913,5.2093259423,-9.4300203733,-17.8572593496,8.3584084087,-4.074040613,-19.8989083609,7.8539434046,-4.1019720613,-17.8636160738,10.3245423582,0.8722934477,-15.2185694621,7.5186283855,-6.6623679503,-23.0669224161,6.4957995115,0.626681446,-25.7108501328,5.5091217492,2.5487594283,-23.290751975,8.6790709658,-2.6836358688,-20.82291593,11.2888002863,1.0866796292,-8.3729636876,8.1040061867,-0.2817447406,-1.2503902155,12.0368079646,-41.5944108248,0.1070931933,23.4128368273,-48.9543519983,2.8862579323,11.1811031404,-42.761420272,5.6770225848,4.2719989187,-35.7136461075,-9.3255226267,-3.673060934,-34.0986654743,-2.9698618248,9.7077225204,-42.5738277651,0.689466043,0.1400172923,-42.7995224984,-0.4939564366,-1.5632734372,-38.9888305946,-10.014581562,5.9662933549,-32.5457281823,-13.3716595766,7.4303605782,-36.4945755088,-15.9250356933,-3.2966363828,-37.0441564888,-2.7449870228,10.6357173859,-39.2394374091,-7.2095874317,11.7418529089,-26.9685050666,-1.8692605654,7.7906230643,-21.698398896,-11.1690160221,7.3021623333,-10.3891750466,-13.5581638623,5.7479009782,-6.8320635116,-17.2794228851,8.1530821632,-22.5379010136,-11.4368493191,19.3956314536,-33.19162553,-11.5886645945,12.2852207317,-24.3371518234,-14.6082719157,4.9308704192,-31.1392302854,-19.4715536575,5.1382585608,-16.2681085061,-23.9961355698,3.3126181692,-15.6762922156,-23.2957488302,3.3884362184,-28.9496055242,-12.3049366941,1.2669311313,-40.2598265573,-3.2852841759,9.9139265881,-36.1850526875,-2.1165991126,5.4758250471,-33.7104662945,-13.1980951118,7.7505286128,-31.4931061757,-15.2671933749,6.6546080108,-34.4235114101,-11.1812554957,8.5010394029,-32.9731328616,-10.1516702655,13.8217081818,-29.4807800737,-6.0312754186,13.745272215,-55.0972874024,0.2898159408,7.1337826053,-49.8460924313,-3.0892647408,5.3449239526,-42.8185950958,-11.3647570957,2.0469411894,-39.013743545,-12.1041802622,9.962993848,-37.4053280575,-9.888207044,24.5827247088,-41.3295979667,0.7421994483,8.625629178,-15.3819780436,-7.0664791039,-7.0350244179,1.5785528408,-9.3146330002,1.2973140564,-0.0074990149,-6.0600510691,-5.0042175272,-0.6141916858,-12.6124682531,-2.4200888024,1.3004581058,-1.7404381804,-9.0574451909,-2.7667759947,-5.6742143957,-3.8369819834,2.5467444099,-11.817945636,1.1612789278,1.0093064595,-5.8779825296,-3.3231335458,5.5047715004,-4.4506905848,-9.0655905414,-0.3940467353,-4.8137526661,-6.9077752571,2.476276542,-6.1939970548,-5.4431651906,-3.1795413336,-6.7554095255,-6.584824987,-2.9803657767,-7.0720724276,-5.308506334,-0.6066023716,-5.0820975864,-4.7401838912,2.3660889393,-5.6909267794,-5.8137621245,-0.7557653678,-4.6904391714,-6.4620200528,5.8122803624,-6.2620673979,-2.6998255223,-1.2111820738,-7.6511993737,-3.3767156816,-0.3971789414,-9.2409564319,-2.0326156553,1.73785343,-6.7563677184,-1.2089953884,3.2813868186,-4.9487594453,-11.6250337335,-3.733564459,-1.9236351281,-6.5561404128,1.8737246472,-4.6241530075,-7.3716953409,-1.2413197369,-8.377464065,-6.1974912226,4.4452077979,-7.1195655369,-7.3936591458,-3.7378835581,-10.4121626583,-2.9401427248,-2.0291605872,-2.716089078,-4.0785126754,-1.3457106491,1.6262920171,-9.7009431383,4.6326960797,-3.5786491053,-7.9834805012,-0.5124323716,-2.4760819535,-2.2863173314,-0.208200249,-7.4017356603,0.3854596841,-3.5774329118,-9.2166240169,0.3235757538,-6.7053465499,-5.9402780836,-0.6658216372,-3.0919475322,-4.0390479754,-0.0703904444,-1.9812815532,1.0530203905,-6.8431573474,1.963805692,-6.5737220258,-4.1464341098,-4.517803758,-0.4067803205,1.0020857127,2.5555987574,-2.8849306866,-2.0474613873,-3.9260599649,133.7404873384,-164.7010967382,1.0613773599,121.5964405695,-136.1517644215,7.1932146819,135.9917415468,-149.5132002137,-10.2884621239,90.8267955276,-104.1209504602,-15.7402648472,85.0484224079,-111.8570502956,-13.8994390751,82.0097750009,-132.5967381583,0.9443080522,84.8491844937,-132.0582576137,4.1563887153,74.371727889,-122.026324622,-6.5083224932,74.3694058172,-115.7552750123,-34.3394466651,77.0838708439,-109.1701196896,-11.4046153515,60.6828099904,-111.9926831528,0.8436950115,104.0300638687,-103.1820870486,-18.5403490024,120.3621286204,-85.9949091108,-32.4621510694,71.8644835267,-68.8623083018,-8.3221693463,63.3216882147,-59.0253451096,0.1399331773,68.9934608844,-64.5053501137,-11.258659017,79.3898143677,-74.9866046005,-10.8348556964,113.6304791175,-76.3984301228,-55.6010951302,128.1125644747,-77.4909361157,-30.615476486,79.0670473022,-98.6164442591,-22.6852096214,59.7181085171,-83.621936986,-15.6629628909,68.1220732971,-88.236038055,-13.2955875531,68.5567502951,-99.452621547,-3.9960332438,94.0288775162,-114.1349809364,17.6231936598,79.5647913504,-124.7657754022,5.028097577,59.861530145,-95.5374398118,7.6711097651,52.0307492913,-92.2192569893,-34.1619271101,56.5552165688,-100.4141468615,-27.2571111037,70.4272060977,-113.2064038538,9.1572155443,80.694094529,-112.0649683482,-5.9817196644,79.9752851706,-132.4989195423,1.0435198551,71.3122405294,-131.1942793473,9.2400037784,85.6967143433,-109.609383911,-15.4078010961,94.8359563895,-90.1771721168,-35.3368557812,98.0925965298,-120.4056869533,-7.5341565763,130.9187095025,-140.8363000019,1.0688794229,102.783579098,-82.9708113545,19.4658991013,18.1818529882,-14.6864169243,-7.3325262293,0.4916207197,-2.4505553817,-4.4607817483,-0.8389434417,3.5846549037,-0.4398625302,-5.3000021318,-0.3297451469,-3.3590630017,2.9238048406,-5.8054233529,-6.3008713973,-6.5047456993,-7.2941478898,-10.0321555688,0.386918942,-0.1169290374,-2.9528720938,-7.2412412723,-4.6884784352,-0.1888505376,-5.2222234246,5.1022699149,7.0421609963,-11.8858883995,3.8661011228,5.8345964951,-9.8889135113,-0.4633857006,-1.0091975997,-9.1091946723,-9.3962142969,-5.5523957028,1.645966781,-7.3989935153,-2.374835682,3.3293385336,-4.4113319387,-1.5921300439,-7.7444839625,-1.6534287815,7.3988399063,-9.5373919912,-2.2994504396,1.3251498216,-10.2387099156,-6.4203987773,-1.414620054,-11.8822660624,-7.0852858501,-3.525617647,-3.8715729265,-10.0291678823,-2.1626252322,-1.7434148608,-3.7347851196,-1.0877685178,-0.1338662582,-0.6760199316,6.5894216853,-6.7568471047,-1.8346950477,2.4143241736,-8.621615771,-4.2115034903,0.0570824367,-2.0586307124,-3.7957601766,-4.7436303138,-5.7806708677,-5.9233141683,-6.1672812595,-2.6093242366,-1.709468001,0.1828275477,-3.8094693562,-2.2904718725,-0.571170703,-2.0651387454,-4.4727971523,-0.8141959815,-2.8486229244,-2.5035228512,-0.9263424246,-5.4157675491,-8.4433764895,-3.9189519296,1.3511471564,-10.0565783082,-4.0728567417,1.0865570601,-4.3485783238,-7.3393852254,-5.1506442724,-1.3383160505,-4.9880511108,5.0654404875,-5.3553170622,-2.0193222003,-1.216808552,-6.2556756461,-0.4034923978,-1.6171273509,-6.6234924659,-3.5973582338,0.7777578702,-12.998801406,7.4105907055,-7.425678531,-7.6505960682,-13.152656613,6.8137942794,1.3061774102,-11.3819971812,-11.0316489069,-5.6531125191,-6.709599735,-0.9571068524,-2.3462237815,-7.4094161812,-4.1769999753,-3.7991858631,1.4295568326,-4.0364638185,-1.8418894726,-5.2670688237,0.6158936284,1.0895082267,-16.394335614,-0.7179196496,3.3466937893,-14.7060845832,-8.2401532343,5.1592097885,-14.3716497942,-11.9048351385,-3.6758189282,-10.3813986124,-7.6544384838,-9.6100586133,-7.7278339368,-7.6316363215,-0.6901800927,-7.2204214578,-3.9486088466,-0.6020208704,-1.6598651286,-5.8603500122,-8.1068057393,-5.2688319444,-3.1411685318,-8.9623066515,-4.0608484838,-5.1061929203,-7.1598780926,-5.4243330402,-8.3094618354,-6.2281808007,-5.4050072086,-8.504515686,-3.5220521945,-5.4320837744,-2.430600385,-17.0013928414,-0.1249463282,-0.2161530163,-10.5594206096,-5.5881587116,-5.7426214005,-13.8024200352,-8.3499336218,-9.2432990203,-7.0831958898,-8.0901288526,-10.7827477334,-5.6964804631,-10.3024953466,-5.2490760633,-13.4298325675,-15.0400036044,-6.630786191,2.1998618201,-3.9391663691,-1.1806785746,5.9598942582,-0.702474912,-4.1412409494,-10.0149110469,0.1005122685,-3.7726219474,-9.9165764462,-5.1768315664,-2.9868841758,-12.518178529,-7.3797522048,-2.8840504022,-9.7655721529,-2.2816175368,-4.4801055681,-4.6672673829,-3.8268615234,-6.3975107645,0.3226957417,-8.9623836934,-9.3563651454,2.2871580075,-5.3447010917,-10.3010595187,-7.8551242316,-5.0111326658,-7.8038076962,-9.3838490126,-12.2662025568,-2.5552825499,1.6748552257,-6.068281983,0.932078743,1.4032956883,-5.5702701002,3.6425774324,-3.4252928468,-4.8285974672,3.3216633332,-9.8719836567,1.3464248901,-0.2266609209,-11.2068379068,5.0713018005,-0.4463574353,-9.4712644716,3.3524455746,0.5161306654,-8.5304910072,-2.711858773,4.4148842382,-3.8665964784,-5.7060835109,2.1620066616,-12.2940854645,0.2178104062,-4.1253828172,-5.837924866,-0.5598274436,0.7621055464,-3.9085861433,-4.5250403154,3.0725791182,-3.4061642434,-10.1082830382,2.2013126887,-2.0100901229,-8.2582819231,0.3560401528,-5.3814855933,-2.5819352694,2.1874003256,-8.0309341794,-1.1794353493,-0.2168169469,-4.1545624418,-1.3218138875,0.8529214904,-3.7488680907,-8.3648859095,2.4097541136,-0.6216104655,-3.5871961474,0.0515514715,-0.5009286565,-5.6238770608,3.4069948819,-2.1100632061,-6.1023684716,-0.6521819938,-2.9187038851,-5.7693011229,1.4292099924,-1.0050982963,-4.8746181844,0.0151025255,-4.1175898126,-4.6665216802,0.1910213392,-0.1151087785,-7.5119755837,0.186699844,-2.5001409645,-5.4038243976,1.5078210385,-2.9876910776,-1.2050761233,-4.3011220498,-3.8574759237,-1.8266672968,-1.731887859,-8.1115441232,-2.650271234,0.5204501876,-6.2085469518,-1.5998205113,-0.9296182271,-5.152619225,-1.54518989,-1.8371561744,-5.4384868576,-0.9504415694,0.1712359105,-8.1726345984,0.0075506336,-0.2052380084,-3.527033903,2.0320972378,0.4818720041,-9.3621731975,0.2571609772,-2.4305295611,-9.3582176489,-2.6502258222,1.7028422238,-5.6146382148,0.0253353485,-0.8883959294,-2.1161606794,-5.7480357637,0.7548352081,-3.0828251535,-0.792499476,1.2919843925,-5.8310355927,1.0700269011,-7.4968415964,3.05205157,-4.8848307705,-5.0895505039,5.672073325,-14.5821610531,0.429915889,2.054947754,-13.1811131829,-3.9542252485,-1.9768264353,-12.6071288684,-6.2288901008,7.919983482,-10.1219510668,-10.0920147508,4.0322212775,-17.6327081116,-1.321369429,-0.3028971728,-15.7033112437,0.0288328817,7.3815109829,-14.2793421558,-2.4471541,3.8764979174,-13.0836084425,-4.9657554556,2.3335265906,-12.8596699972,-6.1235152251,2.673891602,-10.1711728248,-4.5318940635,4.6746122108,-13.0208121673,-8.1136392295,7.458180949,-15.3545091388,-2.1558451605,6.8864473022,-8.372121588,-7.5193293903,3.5530648841,-11.4805604689,-5.9843887432,0.5057570114,-10.6823308576,-4.4893210424,5.2248716655,-9.7362538955,-5.627129082,2.3065220794,-13.0636551266,-5.393278671,2.2719305924,-17.547058731,-4.90051164,3.8404889829,-14.5566088529,-3.7211946234,5.7868771746,-9.1922012636,-10.7029760514,3.4064000316,-9.338437569,-8.490891395,4.6877306159,-7.1429876388,-6.1939575948,1.4175618123,-17.616959964,-4.8790029906,6.3464082542,-20.9705351049,-5.6573996671,-0.1300063308,-17.533518508,-3.1066222374,3.6646006637,-15.6029470676,0.5408954936,4.5315674334,-11.6860072738,-5.4322549109,7.7077909567,-13.6498543706,-5.2581506517,5.1777671108,-14.264617152,-7.9266046293,8.1855181395,-20.0368744568,-2.6280456757,0.9108400625,-13.2559334008,1.4421890581,0.0859302731,-13.631652727,-1.4526711952,5.5798958659,-10.6065756997,-5.4676601348,6.2371808909,-14.6745281245,0.0707596846,8.7564529891,-14.5884610167,-7.6671551263,3.1147830665,-15.7009381436,0.0191563652,0.9218159901,-3.5773304942,-3.0018801195,-3.9559990209,-14.8792024078,9.1404014109,1.306442879,-15.375653921,7.8500106837,-2.9301281822,-17.2279668618,10.6013716722,-2.1389035408,-21.145406226,6.8582419785,0.7420935031,-17.835488533,10.2504755061,-3.9013582337,-13.6916905928,9.6631375516,1.378420966,-16.3638789655,6.0293589304,-0.6139255185,-16.1218126798,6.0040067232,-6.1548831195,-13.3887949618,7.5441151037,-7.7382163846,-14.4082302757,6.1153722286,-8.3724203675,-13.4097362436,6.4452361571,-9.3281986549,-15.4998003788,6.4345072154,-1.2925248369,-18.2343966172,8.3332475259,-2.9140408872,-17.9321798668,1.5929191058,-5.0008928651,-13.0185243388,3.3355698561,-7.1966509934,-11.7051471377,2.1138436187,-9.2462505127,-12.0518641778,5.2277727578,-7.9264030094,-16.7968143578,2.4265997195,2.5878091963,-18.642315179,6.3711745694,3.8823689542,-16.3427133763,4.3610602715,-4.036662284,-9.160350381,7.5033113053,-11.339917308,-11.1527675321,3.164989587,-9.1102426852,-11.3849181017,4.2771377999,-9.4416601866,-16.1363591287,8.0801944459,-2.0398275633,-11.3271954563,9.4445224256,-5.805730592,-14.9628263637,4.3433829634,-6.9841667073,-15.6140048252,3.166657023,-2.4132251898,-14.6229187385,4.7046342178,-10.4558761333,-15.3733499662,5.4990189184,-7.7656839917,-16.907672356,10.7669814604,-3.639070376,-13.8126603185,8.5603558907,0.0774060628,-12.3050464081,8.5226263479,-2.74189107,-14.828818993,7.0990292468,-3.3384242582,-19.1196373519,5.5272774026,-1.1477441098,-17.3914848269,8.9207950234,1.1343145583,-17.0103215465,13.1295203955,0.4790717762,-4.5768831383,5.0430952017,-0.3575650599,-0.3862736058,1.2659487884,-3.969435072,0.6331202407,-5.2238488994,-6.0718009256,-4.6993989685,1.141131854,-9.5690392111,-4.3723064843,5.572851913,-5.4248200393,-5.3757037817,5.9845876187,-10.4328307848,-2.3290194499,2.9592422571,-9.406830789,0.8206146943,-0.6373650643,-8.963461043,1.6017668024,2.3758414006,-10.0249036699,-2.8027893514,-7.2163486968,-15.323499517,7.7770965437,-0.8984306458,-11.4311964888,-4.0444401658,-3.5622239941,-7.0028619538,-3.315151174,1.8278129133,-7.8815589013,-1.2906928098,-0.0634987768,-8.350326084,-6.0773058518,2.3599557161,-5.6973471635,-0.3749942519,-0.4686971463,-6.7754683425,-2.5329073849,0.7632307587,-7.2643722641,-3.2963895303,1.0804265432,-6.1918353686,-6.1271725887,0.2607435574,-12.8034061937,-4.8238623682,1.6428824904,-10.8594082484,-2.3940308797,-0.7386050217,-5.4982162037,-2.716353124,-2.6623799763,-4.8982329239,-4.6028430683,-3.2055947116,-5.6635542949,-0.6697536292,-1.0877361475,-5.0351228945,-8.7908126907,0.8283472073,-4.1711203297,-4.8732315997,-0.3485400437,-4.3388242283,-2.5662933624,-3.5386572508,-3.1870619942,-1.4002998656,-3.7081623688,-1.9593152644,-3.7582830207,0.3760918458,0.4565461942,-6.7877548502,-0.0665288555,-2.1185491704,-6.9358707008,-0.0919666936,-4.6858825712,-2.5013960419,-5.7127118483,-3.0882750759,0.5037434483,-4.2698159275,-3.1267718302,-0.5216648808,3.3075570492,1.5015586017,-8.4311880349,-4.5163682676,-6.6519958689,-1.1848460278,0.168321652,-3.5952856287,-6.3148258993,0.5572447012,-7.684285952,0.4133544453,-0.1661371071,-0.7536823658,-2.4537818526,-4.3748264401,-73.357030754,25.2641122976,1.1994829239,-94.2471154926,116.3919353454,-9.9641219813,-83.9717525945,119.2544538289,-27.9532877613,-90.991195347,33.0185405584,38.526931365,-84.3333884672,23.8558245436,5.3610454564,-87.0570740694,39.8880488352,0.7407273263,-77.5949157789,50.9592742691,-6.7625077593,-86.5001581429,69.2246887734,-12.9875218755,-76.305930919,100.2562723196,-25.4131426483,-76.5635347228,91.0537046673,-39.6240332149,-85.9312462911,42.3050744213,-6.9951913311,-99.4233132558,31.634665223,1.3954125751,-116.8259069934,40.5157067645,23.5337008484,-82.8616644182,33.1338811075,-9.8794770091,-82.8588934285,51.2862467882,-22.0879905046,-68.340042052,52.013907608,-28.5402022415,-92.4750158146,28.9106496144,-9.4609349137,-96.615358336,30.2240434206,40.1702468066,-123.1635302414,41.0760116782,7.9586053097,-93.438453071,36.6296483558,11.2220495482,-76.118333509,54.6257830904,0.0298777296,-79.7958647009,55.7219912939,-27.5551079675,-96.4046748786,46.1154864126,7.9906521626,-102.7065835697,66.2901783493,-25.0993177718,-97.7130896733,61.6573920672,-7.5867891055,-82.8309805035,42.2127458752,-12.6758883811,-74.4846251313,49.0443406336,5.4805850828,-77.3515274326,40.710738457,-1.0996711014,-96.2534217458,46.4359750799,-3.4069088429,-95.1915856909,69.134967369,-4.3780329561,-101.6544246127,71.8791693822,0.7390550937,-94.7483765805,77.1615930107,-18.474073411,-81.517898396,39.9830870093,12.5359451733,-101.3525039071,23.5627777945,32.6806594328,-112.0812751096,62.8712162317,5.0664077061,-81.0684126426,79.5809286837,0.7564506885,-38.8371642294,38.938555867,-1.0032675077,-0.2569732548,-0.719539251,-8.2774669476,1.0981614314,0.306562323,-6.1050956651,-2.1798222776,0.9116819845,-6.7279362591,-1.0818077435,0.8147972636,-6.4643462166,0.6227260222,0.3705153304,-2.7611493775,-0.990311097,-1.8646283322,-5.7589603976,1.291146697,-0.2792938366,-4.1368850071,2.5353192675,-1.2733902269,-5.8403851686,0.0272565087,1.8717078211,-3.0548902748,-3.4256004301,1.7867763771,-3.7810313189,-5.8763538643,2.8280147746,-4.1272132147,-0.0820019124,-3.8344791568,-3.6962260868,0.0191935276,0.4137825254,1.095266842,-3.419482246,-3.5966015718,-4.8872143543,-0.2291020689,0.6740865244,-1.4410335303,-0.2496783306,0.8389383445,-5.7934519652,-2.9730371779,4.2113227563,-2.409280331,-3.1647054189,0.7334438988,-1.5848550692,-2.6933567864,-2.7693858763,-0.6317986059,-1.750935157,1.1268408535,-5.2346509924,-0.1178265937,2.4088380404,-3.2268742666,-0.6866865031,1.9445235019,-4.9663693211,-5.2891727101,3.635454094,-4.2295367616,-1.124935779,-1.8383674899,-4.3737619025,2.8616586581,-3.4157666438,-2.0511682246,2.7721683569,-2.08968744,-5.3242576687,-1.8216098757,4.2988227787,-3.4704509041,-1.9684991798,4.5340536686,-6.10320233,-5.6489749186,3.7811156761,-0.7013222089,-4.5411069151,-2.9866525173,-7.5325592107,-0.3059236756,-0.0547667284,-5.2460891469,1.1702944039,-0.93548544,-5.7073614753,-2.4485138384,1.2328525879,-8.371370752,0.2271443134,2.3346292722,-5.8350414382,-2.5130790921,-0.7965681554,-3.9265182443,0.08949904,1.5897107962,-9.216238903,0.7164233747,-4.6383308968,-0.1370833719,-4.136064914,-4.4063706823,25.6175942125,-46.3140403869,1.2403638953,104.4630692974,-104.9126277917,35.2762362763,113.1429155679,-111.1825850116,17.5797939197,75.7264387525,-63.6270471271,-0.5274761124,38.2245440939,-66.9307822161,-6.4177573113,53.6611837078,-69.8666173702,1.0030445989,21.2888319014,-76.7925757475,19.8317961147,38.3593969748,-88.4266497686,4.3141241716,37.487732408,-101.5112530828,20.2235764426,42.4091317694,-97.4919223653,18.5712234173,23.0284763579,-85.8714891169,20.1771248954,88.9266534466,-78.5897658544,-16.2877332667,91.4795949458,-52.0268459115,-33.2754874216,58.18825641,-38.0467665879,17.4570173004,52.8442026033,-48.8910828276,21.969286842,67.7235127936,-48.500714626,10.9567352179,60.5507062395,-61.5536180012,21.4105938551,88.1437485092,-57.8827268919,-52.4990986887,99.6484772845,-62.186253564,-22.0232936027,57.5051630138,-79.4878481015,-15.3880475746,37.7735120208,-74.4195086065,1.6991833364,48.2769581205,-79.361697413,4.0100144432,50.175367994,-69.7430732499,-4.0927373804,45.0815296126,-79.4325335558,41.6267423537,51.1988330745,-81.2193491294,11.9397991466,50.9680051569,-61.7951034268,-5.7390664394,38.1635097152,-64.6360072461,-25.0206745565,38.418002627,-73.885288339,-16.5572930032,56.1020691125,-82.0707749452,1.6811869485,91.6850881743,-73.2215263889,-8.3038856803,39.7859735701,-71.0526554632,0.8134385798,47.9986950114,-82.6042121731,11.4388460439,52.7982638777,-89.0815902306,-1.8583166395,75.4073093816,-72.3798786051,-26.6287531847,86.8165175433,-75.4700267883,-9.5413861947,99.5873434389,-70.2861746966,0.7549458862,49.6130610634,-74.1569666997,-25.2391874436,-25.1808020462,-10.6313119493,-4.965492972,1.4377714164,-5.0834810906,-15.2232792676,-5.9844948699,-3.9265217223,-10.8924013611,1.3728478643,3.488239151,-14.1553765662,-1.1789981086,-2.6024465137,-13.3270129073,-0.3276945771,-20.6235514596,-1.0453204407,0.9898778771,-7.8258218016,-14.2946002425,4.2584792828,-8.6885898868,-14.8833685752,-1.2827086459,-3.6923127468,-22.5456836479,-0.4084653717,-6.4012002201,-22.9607389872,-5.653068817,-2.4153358777,-10.891574887,-0.1126848656,-1.0582031797,0.533593212,-7.8727206122,4.6510400883,-8.566470642,-4.1210352064,-1.1153488015,-5.4945946018,-7.0125900803,-0.0517762924,-8.4596052125,0.6091374358,-7.7749001374,-14.5006154637,0.5749666472,-5.051286426,-8.9503274761,-2.1685342362,9.8236390667,0.6308448662,-8.0652652139
   3.9881644139,-11.1519619145,-6.9764619188,-6.9056194099,-11.1509295048,-0.7643010563,-0.9449540261,-12.154817625,0.2855923959,-8.3666409991,-13.6590350125,-4.804800327,-6.2585729549,-10.4194488739,-0.9463901582,-16.0222100711,-7.47478373,2.4846680605,-2.1064218902,-10.3346844748,9.7592633081,-4.0972526673,-4.6906794334,-7.4652281632,0.6970201792,-7.9452796692,-7.2043801876,-3.1371124686,-9.4803800967,-4.9366692891,1.8372897043,-6.6380506258,-7.1378900244,-4.7274027463,-8.2285006664,-2.9962441674,-9.2332814883,0.4578831387,0.7513224791,-5.3525507827,-7.1813421178,3.7017642245,-5.2104232589,-12.0123255951,-2.5089694881,-11.2908243097,-11.3474714991,-1.9640421238,-9.7502923223,-6.185432031,-0.5664860201,5.008196653,-12.3025496159,0.8973991291,1.0734579464,-2.438398672,-1.7898800677,-3.2431084394,8.0396700039,-41.6195483476,0.3031944555,28.3129029678,-30.897369126,-2.5096244166,31.3799275636,-30.3858267146,-18.2253984581,14.1723264342,-39.4845578974,1.0661409701,5.0490942567,-38.8328181398,-8.7939645047,14.8531680187,-42.4063520478,0.3955423733,3.2126664204,-35.3415469574,-8.2901503787,12.8927057186,-27.4388809704,-10.7553463979,23.8985674581,-17.6404062416,-23.6485114737,21.0299251002,-21.101684749,-9.6563800745,1.3456646879,-33.5325524941,-2.4158408889,12.2616530577,-34.3023798044,-5.7190890012,4.9651309957,-29.5821518661,-2.6398114572,12.8569895811,-24.3217458057,-15.1651422509,7.7981631292,-10.1959789427,-15.868692665,12.1940527138,-18.2971323745,-15.2346821949,3.2994130337,-29.2662473009,-15.2483674493,12.1863997115,-31.0017840101,-12.1779526534,9.5787106318,-27.4309915659,-11.9505099292,13.0342446409,-27.9770980474,-9.7475611287,10.0448025154,-18.6476901923,-13.2035378727,13.2601804345,-11.7202567191,-16.6971035765,6.0758405207,-30.398260023,-3.139393706,7.9413966013,-29.6449259759,-0.6229690345,2.2594062354,-31.077936409,0.5742472955,7.0419204531,-27.1560048285,-8.2065194381,4.3761730273,-26.3928591518,-7.9077084717,7.6331553547,-29.6729779842,-1.5825767247,3.8866125088,-29.368791386,-0.8915227439,2.8545521205,-28.644584877,-0.3072682563,11.5696345206,-32.9741172198,0.9496383178,3.3840093649,-35.8528841072,2.4069048511,9.6884871365,-31.5732971153,-4.8831731913,8.1462016217,-27.2062543808,-6.1759388098,4.4209880483,-29.8121717287,2.7369243949,20.0869068162,-34.7590925883,0.9097923881,8.9207551063,-14.0036989751,-6.4190896241,-8.0639023536,6.692907128,-25.2462019717,1.1488977797,3.4298825202,-21.2169322514,3.1626567557,4.3437829579,-24.743438251,-0.5715346425,7.1812096937,-12.9045699868,-4.5775404627,0.9902761405,-14.4186153813,-6.1230978881,9.0196748549,-20.6348271706,1.2447370205,-5.6102615768,-17.3428518189,2.5776454629,3.8693077707,-18.6831956918,-5.1024731997,1.8415727041,-14.6826429553,-3.3050352317,-1.418755123,-13.727027849,-3.760559731,-2.3375455003,-17.7404833487,3.2223491121,-2.1656286516,-17.8925030872,-6.979162824,4.2641957123,-17.9209965993,-1.5962180561,4.6846593148,-10.6007221384,0.2049077717,4.4473167343,-6.166992351,-6.1662781763,7.0886779007,-4.1208299318,-2.54631774,5.2993004316,-9.0410002594,-5.1986442462,-1.2173684414,-15.1481318794,-1.9643234398,3.3635523659,-9.9591974366,-6.3137595853,3.5054248913,-15.402764611,-8.3016297001,4.6995648431,-9.6063991319,-2.6556267569,1.6395826952,-9.6940719823,-8.6989244441,3.9939936094,-10.7988722336,-5.0727104645,-3.2162937404,-16.115078629,0.0854628763,5.7028666058,-17.623011636,0.9942134969,8.4982692625,-13.7914469881,-5.3123767457,8.0718053059,-10.7728949639,-7.9623273615,8.790997665,-11.4319592965,-5.8813173106,10.6035821063,-13.2562107098,-10.6308634081,9.3987824256,-12.9964851726,-2.0741521628,10.4730985209,-28.5832302034,1.3456354313,5.2293141604,-21.2818574073,1.7197228074,6.0273173863,-17.9999472489,-2.0986047661,5.4515228341,-17.2168246418,-5.5432271066,6.3432834087,-15.6196346488,-2.9801637298,19.2984912487,-33.8697640636,0.1636013465,3.989784607,-8.6165387424,-6.2215346152,-6.9055463531,-2.9692699901,-1.0526902118,1.3672218101,-0.0079848351,-13.4240617607,-3.0410091169,0.2469226443,-7.3498909411,-3.1853670708,4.8228761089,-5.4073572789,-3.5568163354,4.4804618157,-12.9243237522,2.0298626067,4.4886577131,-10.1673506621,0.180166996,-2.1422708696,-8.8278677821,-2.268312792,-1.7332063308,-13.6619408208,-1.1860111444,1.0017311069,-10.9860321732,-1.579183957,-0.3679309143,-11.1719349247,-3.102886722,2.0397801128,-9.8316175107,-0.9584008964,0.7005072277,-11.3207075132,-0.6751043089,3.9745999945,-15.0269516306,-5.7884316232,-0.2889341874,-9.1421895615,-0.3360003867,3.1664997128,-4.743216004,-7.4624045182,1.075280752,-2.2185081497,-5.552291296,2.5426998044,-6.6790283534,-5.8120124126,-1.303036691,-8.3235130945,-4.7674039146,2.4541669984,-13.7874509692,0.6052524184,0.7077962232,-7.293510562,-9.7006980671,-0.607748896,-7.9702068491,-0.9302809459,2.6257875503,-4.0291961471,-3.5781575661,2.8789461625,-4.0484648113,-7.0660591453,-1.7859481694,-11.4488517496,-1.7689026563,0.1596271588,-12.5013647437,2.3420723396,0.0014617938,-9.5981566414,-1.3536582258,1.8647212356,-11.0354014281,-2.4822811322,-1.3287101698,-5.2478764485,-4.2351423743,-1.4690037296,-8.354555893,-5.1076953938,1.7344816453,-10.5738991032,-2.6100527543,2.9873306152,-13.0211191322,0.6727996439,5.005014397,-14.0721461039,1.8084348317,4.5867460027,-5.4815422621,-8.4851653819,-0.6705530479,-9.985672094,-1.0263572964,-1.5234509439,-6.8969556739,2.5273816233,3.7492252405,-7.5129925951,0.8200343811,-2.2882678818,-0.4382961185,-2.5010370987,-4.3398503081,2.8779172953,-9.0827481933,0.8823142194,0.2646717475,-8.1479071841,-3.3122496364,1.2986478577,-12.6341210701,-0.2775271744,0.3884780541,-6.0709067846,-2.2357426653,-0.144118562,-6.2895331158,-4.7641258834,1.268398023,-6.5718881127,1.2227938352,4.7434463215,-7.5025587891,-2.0298232372,0.6925018155,-10.3851636741,-1.752407766,-1.222610446,-8.7699202743,-4.1033692836,4.7369357334,-10.9887032827,-5.6003496138,0.434900775,-9.154250568,-3.689267022,2.186404499,-8.9304128902,-2.4072154196,2.0295297705,-4.7550925444,-4.9624486903,1.4430315948,-4.9874380206,-2.9573709455,2.7065135757,-6.1084401199,-4.1349237424,2.8019070026,-5.9936760598,-3.8167499974,1.3383821434,-7.9504048066,-5.305178595,2.4144005517,-10.723105927,-4.3759165212,0.3765269455,-6.0301056962,-1.8291224098,0.9122402629,-5.7157032527,-8.8955051738,1.0255445594,-5.6353370979,-5.6225370903,3.3112541311,-6.0883258589,-9.6076051653,1.0197109387,-8.3982643763,-3.260666638,1.4115411772,-10.311227275,-2.440000192,-2.4767745663,-8.1110676112,-1.7668027183,0.4630180266,-6.5834026856,-3.2133722721,1.8806276863,-4.3500994069,-7.1794080622,3.0248332076,-3.3604396484,-5.354073661,2.2851726887,-4.5648956532,-4.7760642083,0.8002286121,-12.1926323444,2.1560606731,-1.6500753731,-5.9409796084,1.0108375176,1.0063148951,-7.0617310693,-3.7683672808,-2.1350089425,-1.6432866941,-5.2215095736,-2.7957294498,-5.9504037008,-1.7198628635,5.7300655163,-8.2951604631,-1.7476640976,-1.1934838193,-3.9144661855,0.5339837731,-1.9031550805,0.2371979761,-3.4177778119,-4.0398467281,18.406826387,-20.965611506,1.3471808432,58.8633064633,-72.6187624826,23.6184752733,48.4705751698,-76.0616851292,22.4415518474,36.6872682346,-15.3079311446,-33.1717278043,10.7767178125,-37.74267513,0.1913370838,33.8949803798,-62.1398961091,0.8928784561,11.8004386761,-64.9352479692,13.6401230982,16.0586634573,-65.4712393608,9.2170577106,8.2391149675,-62.7710336331,10.2931574158,11.0404266604,-66.5136667623,13.0713815571,21.4162982537,-59.6311623637,0.7669577636,87.2397170009,-76.2349744386,-0.8429924244,85.9369157203,-38.2894186828,-25.5270281566,36.2107949735,-14.7705670404,-6.1300052665,27.1611570776,-21.4497415548,19.8980244795,36.2210400034,-13.52409702,-17.2593465144,55.9462161428,-39.5969052046,5.5738279526,105.9104040572,-41.7402103609,-65.2907867177,93.3240231301,-48.0552640784,-23.6083047392,38.5422048639,-57.2131509324,-30.4874158003,10.800400547,-55.4680011018,-15.6092669461,23.6841847755,-58.3786406862,-0.1101631097,41.5052536216,-57.3389511355,-20.3027704045,24.0551478487,-73.7287180076,32.5748658009,25.2458742325,-69.2255099135,10.5035346854,34.1794876078,-58.3139201336,-17.0128286974,22.9169614933,-50.1405236974,-40.664077157,25.7366124724,-64.4783640091,-33.0757919266,45.116419866,-66.145936857,-9.5666146592,58.7045388638,-64.7479406925,-7.5810394979,28.0510177069,-69.2340542911,1.356012631,33.4761884997,-71.5426704745,5.6333484323,38.4158928008,-73.0245862638,-21.6232051545,73.1105121775,-61.0573627652,-43.4374021364,73.8502080115,-75.9187662069,-8.6609921559,50.7159683366,-54.8521427313,0.0982421986,24.7019499953,-36.7723110756,-13.2130002714,-13.562587373,-8.6737379813,-2.6253558329,1.1701729824,-5.8935139451,-1.7819804249,-5.7134847595,-7.079432727,-7.6734877453,-1.2802751677,-10.3321877117,-8.7758647635,-1.2951509898,-11.4240355609,2.9495247583,-8.0626658764,-21.119108858,7.7937935328,0.1644896901,-7.8343188772,-4.795070804,-0.5050663837,-2.4500100617,-6.1532576763,-8.2419719461,-1.7045843809,-6.4000857287,-8.0847202399,-3.7677738664,-11.4471384688,-2.9967619281,-9.2540923562,-6.5179050264,0.4611933568,0.0374735053,-2.8243683753,-8.0940174795,-6.3946574519,-0.5458373042,-5.6389124472,-8.4670811148,-4.1315755856,-5.7708594457,0.8956718759,-2.4092385583,-5.4201083847,-2.7470739166,-6.4165738916,-2.3336921471,-2.8360346785,-3.6229806502,-6.2724234506,-3.8832513911,-1.8648077466,-7.7474054445,-5.4637043221,-8.7679412528,0.9977663754,-7.3407121442,-6.8474229561,-8.8294551644,-3.6335108419,-3.8267294013,-11.6974125206,-0.0487723584,-8.7646841672,-7.0904551134,-3.9808327406,-8.5407587442,-4.330606565,-5.3116253159,-8.0676418013,-1.989364233,-9.5087469057,-5.7644756079,-1.1077760655,-9.8718916029,-5.473087952,-4.3262499195,-7.8341503112,0.5462243131,-2.9607467245,-5.5229872193,-1.9359126645,-7.8124344106,-3.7738548806,-3.6577381957,-4.5012092972,-6.8022796995,-4.5601733876,0.132000151,-5.5368658083,-8.3544672591,1.2746002441,-12.1016217119,-4.8705091119,-4.1101074308,-10.8851215809,-4.7490561801,-2.3111975172,-11.5204637118,-3.1888447531,-2.3789352813,-5.5915907909,-0.0670963854,-4.4765662932,-12.9547183914,6.6390515545,0.6074038971,-2.539531461,0.5977030639,-1.3145863477,-2.4063145886,5.667252142,-28.9148576098,0.1706543038,18.3471963312,-26.5942141729,-1.5123608725,18.9685187503,-31.731779626,-4.4671527537,12.7997261905,-24.9117992426,-0.9468713986,12.3233658922,-23.2881509448,-4.10830665,7.0346733738,-19.1945548746,0.4016426637,9.367275976,-29.0590030303,0.9311563787,5.809685612,-25.8219012755,-3.4777636303,9.1887176825,-22.6294895157,-8.627199767,10.0427843852,-22.9958793012,-4.3176436375,2.1961790992,-27.1169535132,2.5911371567,4.6964568953,-18.3191423723,-8.1319959258,8.4384153416,-23.1369640728,-6.8808794399,9.099900151,-17.257804438,-3.2711529615,9.1580272316,-15.7784637505,-7.5518498615,10.2491145785,-17.1011162612,-8.8065507375,4.2777301343,-21.0332387238,-3.6756336008,6.7024381379,-21.100061408,-3.7369387906,7.9151735344,-20.1334853561,-5.5113452679,11.6785448642,-22.1625408257,-11.6486598653,8.3656811685,-18.8140792213,-4.7837346183,8.9442893675,-21.5637867885,-5.6881084515,6.4576862522,-20.0999244606,-5.8718562371,6.0207529741,-29.3907080968,0.2971675624,13.3488378168,-25.4773014553,2.7970193188,13.55283519,-15.8826155352,-11.7731583588,7.7300469475,-15.8581137705,-10.2199096235,12.0083428928,-15.4571605428,-10.9426450256,6.5387263092,-21.8400125439,-0.2281383084,11.9582830146,-20.4872904512,-6.6097710399,8.3823746621,-30.3820475694,0.8397172521,7.0354795604,-27.9023633414,-0.5344126467,6.8759484794,-28.211312309,2.8174675266,5.7762781143,-24.7947187229,-4.8510751927,12.5762973818,-21.0089299193,-4.2989086327,24.5324893603,-25.64185764,1.0359851454,9.9744490556,-13.9417615432,-4.7097665238,-5.222293652,-2.7213526944,-1.5039100572,0.0641037428,-0.6717100566,-6.5114816018,-0.1162901026,0.5755805285,-11.6118788997,-5.1831974061,-3.6261358114,-9.8019202304,-4.669816981,-7.1047495675,-5.6621817481,-1.3267889135,-0.2938320833,-9.3242211219,1.4336240718,-0.6751008578,-10.754314138,0.655291509,0.9165001144,-8.0685565217,-4.5466968412,2.1373453436,-7.9116458281,-4.4343761231,0.1256350651,-6.8463562667,-4.817809219,0.6315077182,-11.4454074744,-3.0240428827,-1.8780407694,-4.1151113194,-1.944792594,1.7930404853,-8.1414481127,-6.4795785291,-1.7727778683,-5.1175431358,-1.6965593991,-1.7716093056,-7.7962934829,-4.2602217387,1.0525558509,-7.2707648225,-9.5597778139,2.2210485502,-7.5357830309,-8.4313615654,0.2500692014,-5.8717859644,-3.4009015674,2.2455387318,-7.8579714295,-4.4782770585,1.2128474429,-3.4217953752,-11.4110594347,2.6027306665,-8.2624477683,-9.0154560697,-1.5946659654,-4.0065125413,-5.8654575721,0.3409522589,-12.2794394632,-3.2937457294,0.0336034744,-8.9979152289,0.687812057,0.4183458046,-10.9320284253,-3.5813449465,-6.107728392,-10.6514397562,0.4946855047,-0.3917680769,-7.0041625097,-9.4089553241,-0.1197879864,-11.3793518208,-6.8871806484,-0.9985289465,-10.7749554832,-4.518879126,-4.8923990352,-9.2057028383,-4.9299156429,-12.1484581256,-0.5581336963,0.4830383843,-1.0898750357,-1.2828338471,-5.6088821952,-0.5537054168,-5.8093998732,-3.1303157829,0.3282951275,-0.5486792064,-5.5192599601,-1.8315850366,-13.9836905469,-0.6429352264,-16.7592426753,1.7623260612,1.3148803115,0.5869804002,-1.6685907695,-1.7236917348,-3.2359168145,-114.6991915406,63.5963974693,0.050352137,-110.712933034,126.1963291272,-0.6984459062,-107.4746196287,136.2108833729,-11.3893926495,-135.8865540685,60.1015905544,36.9082654324,-132.9699940204,55.4199693283,9.2455912379,-132.3566436753,71.8411566839,1.043202854,-110.2357238275,65.0904086737,-5.0368133715,-110.8552267141,72.3055066393,-13.2761087605,-102.5059340312,101.0207406312,-12.6293052795,-103.1006410289,93.1739894628,-40.6874304159,-116.1043092764,67.5961805325,-12.6013725446,-136.311450955,50.287409611,6.618051231,-123.9377097976,59.6675884777,24.5392486378,-103.2006909929,53.4216256865,-4.2097370746,-100.2883950735,71.4355037152,-23.7289922363,-95.1293165581,72.809440858,-26.2497486197,-114.222442266,66.163413084,-10.7549522506,-125.8606360002,67.0108737517,51.0077614545,-120.3526363581,59.9659925348,10.2299142977,-117.3817876393,50.2313924426,6.1278124416,-100.5478535174,68.0897539847,-8.4501695981,-102.804786687,71.2475902827,-34.0025566949,-117.3566558113,82.2333292334,0.4783340333,-133.1365961546,113.9521211699,-30.509732137,-135.3771678715,93.4685174149,-6.7403058074,-115.9282845301,55.8851457971,-15.8891460286,-110.9299402995,58.7291385453,2.9469231772,-113.7317998805,56.9358960498,-7.6412075923,-120.517296496,76.5500123001,-23.3805086126,-129.7936238961,112.6810586356,-10.2490801579,-134.8392958552,113.5029315079,0.0350964228,-127.1078803019,96.6776373986,-17.9400051738,-142.1157995807,44.8670184637,23.5381278182,-142.4153301235,39.8774539422,34.3204769446,-133.7989600945,99.7879122785,-12.6591463379,-112.6538201296,117.4994058886,0.0116183881,-66.1335596171,75.1547318411,7.9660665738,8.1660402645,-39.9027975355,64.1667805285,1.3046961247,-92.2507468487,82.6834807893,-20.7500353317,-106.3464397562,97.7555070422,10.851431498,-79.052193315,68.7250018332,-10.7477840048,-67.3732955286,71.2282016482,11.1237897759,-68.2096888355,58.6451585537,0.9518415524,-53.7568258912,79.6975436139,-15.3010465804,-52.8929388329,84.521258301,-16.7696319471,-65.1936384354,84.4952995079,-6.5638968161,-68.4196925146,77.9436092191,-13.715669137,-37.9990723508,78.6304658432,-22.6501319853,-62.0997887519,44.0868590892,14.949463272,-69.4037386404,44.2194176708,29.1574001368,-54.0012578804,48.1014229087,-25.6768710122,-46.6311682108,49.5882225379,-19.486896051,-54.8281257844,55.2596893208,-20.0338695252,-41.8031614291,53.2675324301,-22.0661262886,-53.874285058,48.6974872256,14.2161311421,-84.534021771,43.6482278856,24.830378847,-67.4077108679,55.854710626,5.0389618508,-54.9938176216,68.620448481,-13.4668647741,-59.1504024618,59.9561163053,-11.2612082151,-53.5216389615,52.5240628679,-1.4751722832,-64.9571112462,60.2535293065,-29.5938000214,-67.879126395,67.1286184733,-17.1047196383,-56.9812878766,43.7104107466,-3.3109213322,-45.7112172915,56.2870578387,-3.4555194567,-54.4213931978,57.4175668386,-3.0348948173,-60.3646717981,59.3985676429,-14.511092811,-77.6135374681,46.616895646,13.2388835506,-57.2411310339,53.2764335252,0.585678546,-63.1417361716,75.0930167215,-19.5250133228,-70.7908392545,83.5898194151,-14.0184891685,-87.1061584351,57.8250369937,13.11910305,-77.5717498906,51.9399647691,8.50420882,-97.0947959906,78.7490767014,0.4141645954,-77.4810705663,69.7262017413,-9.535948165,-11.0478863772,12.1376479247,-37.3078250429,0.7617277052,4.915237778,-42.705143167,-17.4287070278,15.4070005117,-27.4204277639,-20.9228113748,21.0129192715,-25.7015604581,-19.6115447942,21.077496719,-42.4447560238,-6.2208997777,6.9524420279,-32.4126933896,1.1443513538,8.226499143,-35.2785368242,-11.5880952039,2.7952245157,-34.3491182015,-11.1287396431,4.9212870309,-29.5339807571,-23.1010835856,9.0822364166,-21.4652375943,-16.8479817185,7.6926039848,-32.744574097,-14.7746639989,28.1287129867,-30.6241445627,-7.9463203184,21.2572248874,-29.8182947669,-19.5854947008,5.7014548319,-30.3692034099,-29.9038672433,4.066371874,-27.3855387895,-18.8628074035,4.2897537152,-15.181262732,-18.1245225119,12.4369679222,-36.8498428207,-20.6309533938,26.6000335525,-45.815919874,-5.9629488312,15.6079639843,-42.770711021,7.727473795,1.8468203838,-34.2415490131,-29.1280297226,3.0515583394,-24.110311368,-12.4614534818,3.6248298453,-18.8177590553,-14.6262076063,3.0630760968,-32.3716136812,-21.3449922301,16.1616200262,-42.5491381851,-2.2184629192,9.9938901419,-45.4728550589,-7.3880816358,4.2055416588,-37.5710881871,-14.022268827,16.432705778,-25.0150881781,-23.7664058617,15.0822503832,-22.8414473681,-17.9524554619,4.4775385225,-36.350362498,-13.3273890462,2.3313579624,-41.057813345,-6.9568177911,13.2596938858,-45.8738734036,1.1749923604,7.8119203761,-47.856737901,-3.1701002647,35.2639619132,-23.1345829923,-15.5638928034,32.4747196372,-35.575710466,-10.7362261426,6.8130400355,-47.3945443766,-4.4907789601,18.2676916762,-46.8895281347,1.0502902559,-29.6827913732,11.7639720718,-17.9809813492,-19.8559574081,7.5465581829,-21.6487604855,1.0650638667,0.2707469429,-26.1623175868,-6.5793364059,2.8573655103,-22.3604918778,-0.7360653665,0.226932966,-22.8274993988,-6.9769477955,18.7964455098,-24.8179529302,-0.2105991391,32.5059374285,-48.0107331613,0.6905482049,0.1095277874,-21.0600058431,-2.995604088,1.8707647825,-19.9614790539,-3.67629383,6.5633878971,-15.616707113,-6.5098487306,8.2704568534,-16.5897661436,-6.7015473143,13.0325717915,-16.7160360114,-12.4264469737,13.8306422063,-21.1066790477,2.1707599153,3.8801982978,-21.8477350386,-1.9958235063,1.1846046484,-18.9876848891,-6.1326143782,1.3148687186,-10.4273906209,-5.2250817702,1.0830240583,-12.5686626401,-5.1027460486,5.7780669502,-15.1866675905,-7.6756056723,0.9311222866,-24.2182262489,-6.4228165984,5.7183242617,-22.5972473578,-5.120870059,4.5295726855,-17.5077077787,-3.6286036653,2.723021109,-8.9740024682,-7.3470234421,3.0940850175,-10.3846455758,-7.3133833686,5.8426189348,-14.6279434954,-8.1383634782,6.3768813961,-28.0932828882,-2.1223467374,3.7811249631,-23.8231221448,1.6278742553,0.8661418411,-19.8541210351,-3.1202973183,4.3255038538,-15.8793036376,-5.6309154365,1.5878931788,-17.2419176048,-3.843868522,4.7835721913,-21.8587600207,-6.3762746153,5.4317011652,-32.4818940363,-3.1733871847,9.4943785175,-18.4942556907,1.2101374808,2.7302173348,-21.5253350493,-2.3659180324,1.8176700623,-25.3231332887,-4.083348736,4.2775108361,-22.2660290283,0.9168779712,7.5506924806,-26.5314187999,-6.8410312651,11.3454794136,-27.0083931979,0.4209057668,5.4266640149,-10.5328366692,-4.445659563,-7.0777387397,-8.9617201118,-0.9690293321,1.0941640363,-9.2320684061,1.1148399449,-4.5718632219,-7.5025890703,1.2858374395,0.5251253318,-8.6898504118,2.6136066385,0.3288263112,-10.7147285886,4.1761201715,-0.7634251045,-8.2762541718,1.8533559524,1.4323983911,-2.9745834806,-3.2866530562,0.607535799,-9.7563484866,-3.1078090675,-2.2265088413,-10.3876768682,-5.9457540696,3.1262996784,-6.369933222,-2.7782466231,-6.6653693787,-6.0567563653,-2.1594747974,-4.9444337092,-7.016052612,-3.117604189,-3.6016399072,-0.7309754587,3.0662887448,-7.5870927619,-5.1682579283,0.5950633197,-2.3990066234,-4.0152069981,1.1957900005,-3.2282310755,-6.2083108672,-4.3654871774,1.4288438198,-6.2906613213,-1.7749997578,0.793164594,-1.5562722549,-3.5212268615,-1.5051556913,-10.254078719,-5.7971673209,5.5864784652,-1.4287350981,2.5656538294,-12.0637091318,-5.1268810219,-1.9832894442,-5.2125203293,-4.8314715109,-2.7037953429,-11.3588245468,-2.7580591655,-3.6648478616,-4.7157291563,-4.7907887112,-8.04343592,1.9779959784,-8.9041832678,1.6433537577,-3.4466683335,-5.3981334349,0.5053404139,-7.9039660841,-8.5651609668,3.4400990765,-3.4297642104,-3.7100481431,3.0137973987,-11.2851656088,-5.25833747,1.7043645159,-3.6695645625,-4.2992539296,1.9899203295,-7.3600172051,-9.3474471234,-1.9134014717,0.6175560296,-6.2475720847,4.3897867071,-5.5009671443,-10.1056008299,0.509590601,-4.0035849292,-6.6307222797,-3.6532573458,7.0987536902,-2.9141974278,1.9750515455,-6.345576057,-4.9272077137,-0.1148507228,0.6950084884,-5.2081654898,3.9262925864,-1.5480623464,-2.229686676,7.1172640381,-15.772595589,1.204443491,1.8201785919,-19.4275733845,-5.7360889103,-0.5232801847,-24.8100486019,1.6994911427,-0.0324488585,-15.0507443056,-6.465284309,0.4455394187,-14.1590323137,-5.0038043453,5.1939442862,-24.3961682966,0.7369100272,4.8770415862,-21.2674033821,-2.7725389607,1.3040513442,-18.2128054049,-3.14336873,2.0949393364,-16.4132925919,2.3080653975,2.1935549429,-18.7172925467,-4.2138690144,4.7994293878,-12.2971497959,-4.7130038612,-1.8244756576,-22.5188974979,-5.1074188536,2.8686321481,-11.6424820298,-4.624863564,2.8780833759,-10.649517818,1.4222770946,7.4543063086,-5.4586484102,-3.7639590488,4.2230854612,-9.9487028938,-4.9722761243,8.0809119707,-4.5557969188,-9.3694388524,6.7294319073,-19.0366559762,-6.7470492081,-0.8766951353,-10.4113281125,-2.5853289164,2.1118816388,-13.4060021856,-5.391705799,6.8492943636,-8.4849597231,-6.1360981249,0.722760469,-13.9982686298,-3.9212610785,10.3434140351,-9.1180615975,-10.6422172561,2.0030119881,-24.8255003552,-6.7091666836,-0.6253959821,-16.8805647011,-2.0049279083,-0.9676740165,-14.9063333155,1.5263623966,7.4941346142,-5.9103283889,-8.5258406657,8.7678393949,-9.2110965708,-11.9227971588,13.3701805631,-8.8122631514,-13.6521131656,10.4632680984,-17.1045620971,-3.9695299864,5.0123294193,-18.7775061597,1.3629746123,0.1156315878,-24.3935155591,-5.7532958757,-4.5492527315,-14.0425204539,-3.5453829457,-9.7101692231,-14.8393041444,-5.7561635249,14.2595710147,-17.6453080522,-5.4446847838,15.6383560309,-31.4147009011,0.9243150526,2.1128464709,-7.4531955295,-4.7380275612,-7.1422354598,20.4878559156,-20.9384777836,0.6653109468,12.0675947273,-72.7416619415,-5.1940893759,4.6808648886,-57.8794780327,-9.2851922763,28.8233554801,-26.9568258417,-31.0785035199,25.4507039175,-42.9792956109,-14.144665732,27.2842230615,-55.8080925708,0.1879555122,5.2069738152,-53.8174922555,-6.5345546598,4.5003711263,-52.5821037559,-15.5274625782,2.4440117441,-59.8454909699,-24.2042661457,3.8751378064,-48.2240170966,-18.0797394317,13.9471184956,-56.6372074366,-2.6870348977,65.9269913161,-70.3132556374,-5.7394592865,48.0907270656,-46.998108025,-18.4299469392,28.5385061666,-18.4578582547,-51.2958532689,11.1203295108,-23.7132186045,-23.3030707254,20.2116611562,-5.808249109,-27.8280046081,36.3206139078,-42.4271669858,-21.9892878048,81.5893718931,-66.4349144,-28.1454655438,44.0815481484,-49.3412990169,-6.6780659504,17.2517133316,-50.3730166788,-35.947867264,3.179965497,-34.8087052568,-19.3002998662,8.4521000042,-35.5297175526,-13.3921127523,21.0320857535,-54.8456481016,-23.6612450692,30.1854542703,-77.0294114322,0.8017617886,11.1075199344,-67.3259898998,-7.9637301631,25.9348803929,-51.562860387,-24.3931852222,27.1386928299,-41.0928165061,-38.2879058897,25.0294116939,-41.7634952412,-22.9830624167,17.6053354459,-54.5264856354,-14.4154526468,13.7192021866,-64.7929903188,1.027457816,23.8386080658,-76.415369358,0.8969072502,17.4025986596,-67.5396418093,-1.7362730831,50.5191911339,-35.7277064174,-35.7769240369,52.8788346897,-41.3815182816,-29.4835456715,29.5534431975,-76.4164932216,-2.4425850246,33.1370062138,-66.0865174839,0.8403453321,-7.1422580965,-0.5557762078,-8.3412998879,-8.8296987122,55.6696895372,-85.262708073,1.0958747661,83.1690012561,-86.1844450508,7.6653566539,92.5804615361,-98.39739872,17.7344220002,71.854891672,-60.9458771513,-6.2191798722,58.2335160193,-81.2121670607,-12.3681315259,42.436386152,-70.328002143,0.4386303638,32.349299784,-92.34678459,31.3887345621,39.6803552377,-91.0677352904,5.6357722204,40.7908012297,-86.126769591,-2.1745068867,44.795204035,-85.2408650423,1.1804521881,28.3886993144,-85.4042155594,13.1074985816,47.6551613873,-55.0500517909,-28.6109698292,85.7943204608,-56.487847599,-35.8205321159,50.4511191202,-40.3274010901,6.1497692719,50.8515555134,-38.6160385852,19.059577868,54.3505772095,-34.6257135742,8.9109493357,48.6836664129,-62.4196672141,15.694395555,40.4593688672,-52.8183466327,-26.8163226858,93.4491755947,-61.8067595234,-19.1226031152,52.0011746984,-75.1325190056,-18.9122436056,40.6023962303,-63.9969862162,14.0719795925,46.0559314139,-65.6923902637,-9.7478102264,44.5798111407,-72.863442945,-1.5198714883,49.9539769963,-73.6018226285,22.8512024908,46.4077975726,-82.9773481217,17.6645249114,52.5407081604,-68.0127958323,-2.7020670289,48.2471622561,-66.0585018776,-33.6914198199,51.7818245506,-76.0376031876,-6.0753644425,55.2589369557,-84.4635078924,2.4390296093,96.5638580411,-78.5772479281,-12.4777533717,37.9395834272,-86.5701354253,0.0410908581,42.673149762,-90.3001583902,17.33567517,83.6370697699,-98.1627551981,1.687321155,101.6115049162,-89.0993846663,-22.4850922331,97.578442093,-84.535938697,-10.1344502122,133.5600149448,-119.7512731322,1.43421426,64.0369976786,-59.7596120343,3.2922553771,0.7016126096,-15.7605736678,0.488784452,0.6459687392,-10.3364954478,2.4932949567,-0.1066254905,-8.3081781508,7.4689754029,1.2867147941,-10.2061593299,-4.216102467,4.5512643336,-6.842213459,3.4968437893,-4.5659395753,-19.443059355,7.0871798271,0.3817067479,-12.8234695419,3.2572546121,1.0598939328,-5.3946367261,4.3219203675,-10.2440555617,-8.2992432536,-1.3895682094,-3.9271599575,-8.1559900173,-2.9115526552,-5.7798237204,-8.7703732461,-0.8940706065,-1.2151654337,3.1806010803,3.8074362542,-5.6095376849,-3.6696328059,4.6885992536,-3.1152954759,-2.4351455461,6.8823840428,-9.0163116936,-8.2630985135,2.5073603601,-0.5395825322,-5.5500402506,2.6173799251,-3.9932335313,-11.6581167077,-5.0475148908,-1.4164802783,-4.6808785465,-1.7203805549,2.4199756762,-6.5258633916,-2.1517742782,3.0052031803,-11.0476476742,0.0874245638,-1.5604719169,-8.1486735175,2.0629558584,-3.8765190001,-8.3902472653,-2.4546533172,-4.70958229,-11.2426681837,-3.2431778782,-0.7480561732,-13.0031793025,4.8800234026,-7.0802463598,-6.8318304621,5.36349871,-5.4601785283,-5.4743631401,4.3808852923,-5.0920500056,-5.1514822572,3.8529349682,-7.1139231259,-9.1976883937,-0.4408672528,2.2465985994,-3.5784767203,-0.9971839717,-6.5058021697,-6.1690891814,-1.7260632365,-4.2217223159,-25.787880579,9.2998631589,1.3478771828,-9.6344582271,8.8517548107,-10.2608538613,-9.0292586476,-0.7849231873,-0.4261664516,-11.7856841678,-3.6612165688,0.9468204149,-9.2044902533,0.7633543119,-7.7435261229,-8.4622961198,-1.5994975263,0.1402243652,-4.9824787085,3.2097522594,-3.8048128173,-3.0572759701,-2.7778273621,4.7114187697,1.4378692444,-8.2047188031,-2.9678845096,-3.6734055689,-6.9607311502,-5.1739478835,5.3191129215,4.7697426098,-0.951113911,-12.1551631044,-2.3225822725,2.7840778831,0.6238781023,-8.5458585921,6.3958022113,1.3644827194,-3.3374923428,-0.4714281612,-0.2712001603,-3.5170940833,2.8508652376,-6.1479525871,-4.9709957738,2.0324100262,-4.7187780429,-5.6756652096,1.8525997476,-0.2536443595,-3.1999996652,2.4106549373,-6.5177028234,-3.9770558504,2.0582656043,2.0381580626,-3.159959717,-5.0620284866,2.4788710405,-1.5112472115,1.6290977981,-12.3520173559,-4.0373989904,1.8504471176,-10.1168601947,-2.4784177917,3.5038176208,-9.8391041643,-4.0315623819,3.8744339495,-10.4419110565,-5.7775087281,-1.4454544273,-5.3511223422,-8.7899608827,-6.9972237486,5.0542291573,-3.9353444484,2.6845286984,-5.9890449944,-2.9753322584,4.8869003524,-5.954402501,-3.2527123712,7.6089208184,-5.1150841358,-4.5396823783,0.5030539691,-5.2923340518,-4.00676296,-3.4347901495,-1.2459283679,-6.4954335704,1.9965827888,-7.5691291853,-6.4943876556,-1.0626065339,-4.4588790054,-6.8640493599,-0.3874531825,-1.3705058794,-5.4764884669,1.7352820648,-4.9764233566,-4.6968044952,-0.5966748255
   -5.567681632,-7.4957900395,-6.9181557125,1.4152622362,-6.495682347,-2.2032624642,0.1114882052,-5.2426011146,5.4326642401,-3.1451911712,-5.8905269254,5.4340890675,-4.4052429816,-4.7341333453,3.1175436342,-1.987464149,-7.4699817965,-5.9625873241,-1.3680769759,-7.0710443679,-5.6516773464,0.233421383,-12.6004752238,9.8743622175,-4.3772146667,-5.4602839277,-9.5664746451,6.757290406,0.49030933,-0.4898405432,-10.1231003175,-5.7331354575,-12.2688057568,-5.469266734,5.7503219942,-5.3038303363,2.1228556458,-3.0196786662,-11.8901413565,5.2018251426,1.0604727971,-2.2813421036,4.1079010566,1.1956803792,-10.8894991931,-3.5228188808,1.0939951955,-11.3019712399,0.8197898064,-3.800577074,-12.6179398078,-12.4589934689,-1.3934093082,-11.2094791106,-8.2150565104,2.0375723237,-7.2301345228,-0.0959089137,-5.4847314934,-2.1786247648,-7.9289316357,2.938082268,1.7989815075,-2.5247903217,-5.5132120948,-0.7944026329,2.1228269359,-7.1787540141,-1.5594745587,-2.5927809192,-7.1499015614,-2.1377660116,-1.0333537352,-4.0860457472,-0.4253616104,-4.5273289511,-1.4805072574,-4.646330527,-6.6482642296,-1.3060771036,0.4316033375,-7.7880290086,-1.5693726842,-0.6015983598,-1.1589898122,-4.0466051105,-7.4328034969,-6.9917241231,-2.854636979,-6.7830678997,-1.0652349958,-1.4785320993,0.7326586495,-2.7730959108,-10.4814363643,3.5118645811,-4.234041664,-2.3021897869,-0.0679627526,-6.5848781616,-3.0530387159,0.4396161349,1.101162702,-11.3381424005,-6.7299235318,-0.3221217534,-3.1576327352,1.3713341557,0.9692425361,-11.6756993091,-1.3740643771,-0.646144377,-2.4062838702,3.3431739766,-7.7950585085,1.4757862979,-1.1326117491,-7.9488072177,0.7147385644,-2.275215548,-0.2818296567,4.0870439665,2.2240525174,-0.7887488662,-10.1947404399,1.5478153742,-3.0957023242,-3.1263961762,1.195591233,-2.161249687,-5.610225783,-6.8649955518,-4.5726152514,0.3049047577,-4.2384309279,1.9290696906,-2.1221430961,-2.7953574613,11.5278593138,-37.1076553486,1.1662069141,19.1797724562,-17.1792612322,-4.1600702351,10.8880332504,-13.0355402756,-13.1692769713,-4.7502678124,-17.9792977887,0.0322070019,-0.0568018356,-20.8132600996,-8.0880410802,-6.3499495388,-18.3246368265,0.4597628259,12.4316934966,-18.1317638438,-0.6374041801,13.9361234015,-10.2849898427,-10.8569505271,14.2238729836,-4.5411174456,-17.0166720998,10.8354434477,-11.2214463167,-7.9470324388,2.5243272388,-12.4841900348,-4.8244855859,-2.1872069402,-12.2469356537,-7.8438104061,-3.163510382,-13.6866992637,-4.5163688089,5.0396113365,-9.0315475296,-9.0264992034,2.8709760138,-7.8691195927,-8.6403553457,2.7687247959,-10.0094618712,-6.798112373,0.6452764012,-12.6442991009,-6.3090279703,-2.8688290005,-9.3161123066,-6.8600718582,2.8428337991,-13.1652886014,-4.8258813117,8.731437442,-11.2855697546,-2.4148828807,5.8238430726,-7.6512942867,-8.8110637712,6.9687140636,-9.5190612405,-9.4191208152,2.4120618778,-12.9402391864,4.8872609032,6.0354061005,-14.6364304734,-1.3721479737,-2.2275617947,-19.2497533104,0.0004914901,-2.5916360188,-9.7935435836,3.3340356469,-0.4435645393,-12.1755788656,-5.1294897245,0.6753298753,-14.7146132776,0.3527917107,3.9113637859,-14.2375779069,-1.48010436,4.1826164301,-15.482535607,-4.4770348929,-1.8927819702,-14.4467321025,0.9333431986,-0.839721054,-18.2664613567,-3.5553306744,1.2091771109,-24.5981897994,7.0804396767,-1.1613447671,-12.6257124804,-3.7042656989,4.3226125841,-14.3514132235,-1.9572020823,12.932322496,-23.8114801875,0.8563103215,8.6596327428,-13.126000012,-4.9596265094,-5.8288790171,-44.8508252498,33.0052050843,0.8396669287,-35.8099133151,13.904675088,0.226224742,-31.8353166558,7.5393673007,0.1088659924,-30.4543791462,12.5159963842,-1.7345359899,-34.317786883,19.320819643,-4.3541482543,-36.4443220581,19.1956043455,0.0759041742,-35.4882653364,12.2677498136,-2.5475836158,-29.8642932036,7.5918700491,-8.072851978,-27.6044302043,3.9016139917,-5.6572215268,-26.5323988638,-0.3537621647,-9.8186795518,-28.9910810273,8.5166976752,-4.7503016707,-30.6539831254,8.9961232649,-2.2674571288,-31.0673481902,15.8157402646,-4.4720778235,-27.5018712311,9.2196915646,-6.1988316305,-17.4638802782,5.366969833,-10.4403738214,-18.0178837384,3.6643557579,-10.3840300531,-25.9274430369,12.6348882388,-10.9704499433,-24.4468605235,13.8013381711,-4.0451585601,-32.0826832358,11.5095566772,-1.0998937537,-28.4544530469,7.2107154346,-6.7970270978,-15.8146548586,7.4560161457,-12.773022859,-19.7641627292,4.9826832132,-13.0045439064,-26.2665050157,10.9620988599,-9.1185381015,-30.9792718061,15.6435993682,-3.8855916611,-30.6413566067,16.4328123889,-4.5087844,-27.2264412189,9.3130515564,-11.3934929878,-27.0543103315,4.6488185876,-9.8813359328,-28.556056345,4.2629412207,-8.3297692314,-29.9208010333,12.4304393093,-11.4252246865,-30.7323522809,17.4065155789,-1.9319197213,-37.7687913483,22.8920929574,0.1230872742,-26.6755201942,9.1230332576,-5.7532326467,-36.6086038974,13.3836195667,0.3621442277,-40.4279061614,10.3783337643,-0.0189962365,-33.2024913873,17.9973016784,-0.4755283015,-41.8567681699,27.806110183,1.1402799628,-10.7935183612,9.7109529809,-1.2731225371,-1.0088686695,-17.6548158395,13.603905524,0.5393023811,-5.5765990488,4.6922720043,-4.4236155177,-15.5641711085,4.1192372208,4.0966079108,-6.9226322458,3.9683632888,-7.4502557224,-9.776359343,3.7616019174,1.6799563146,-14.6256854419,11.7397558291,0.9961468972,-9.60818576,7.5545684096,0.6754586487,-8.4624275537,-0.5923787612,-0.0764649178,-9.2369336746,-1.3243150616,2.5722903052,-9.7907923343,4.8873353247,-6.6975656251,-5.4568253155,3.2240890837,-5.6243672974,-9.2689500078,1.2869054917,1.3622858338,-12.2981279768,3.4861211491,2.4780273585,-8.9662610424,1.2623861063,-1.8297304987,-8.8696897949,0.6208960041,-2.6576638088,-7.3348778496,0.2111451817,-5.9500030881,-5.7690388562,1.9931489089,-6.7657351458,-8.9567660826,5.2451148469,0.1049375448,-12.1616582996,2.3479476541,1.1786567928,-6.936474802,3.9580009026,-3.2431855984,-9.1208918669,-1.0420905055,-0.5196661341,-5.9264337831,2.5377208324,-2.7049339894,-5.2388085154,2.2851106892,-7.9998565991,-9.4064041513,2.7309021621,-1.3429606112,-11.2249609,3.3053737392,-0.878899754,-6.6552923204,2.5544221084,-6.3952723841,-4.3554842435,-1.6565453861,-2.8784787221,-3.0040646631,5.3192487628,-12.3858975135,-7.3396090667,2.9625072256,-1.749834672,-10.3706941595,-2.3088428668,-2.4416156356,-6.2446558385,2.9094265881,0.0588596,-10.1233311233,4.1584089091,3.292055651,-7.1411582635,1.1969384219,-2.680757881,-4.9284347104,3.777587129,-4.2011963559,-9.9868019079,0.1092089792,-0.6548037339,-8.4404440575,0.3030299939,0.0466621642,-10.2432519382,8.6056665619,-1.7344327063,-4.3923808437,61.1072026355,-62.2300964689,0.9790613492,149.0355414202,-135.649460665,34.5959912051,120.0541493816,-150.4670627555,34.2543895483,98.2226543927,-88.9313042199,-11.7333754943,62.5492752593,-84.216052318,-18.5303019632,73.0905014928,-94.6080053911,0.9586299804,41.569644778,-106.4178786964,34.9149056626,51.4872350368,-125.7449527093,19.3773011287,52.3655005924,-134.9129441457,24.2663462886,56.4434771556,-133.1550643925,31.96597933,40.4086958185,-110.9177921506,14.8914836356,126.1759711644,-100.7293254142,-19.4862906233,141.1647680331,-65.8086950305,-48.9399609285,73.5050240214,-53.057261302,5.4500842038,70.2533960312,-60.0420236182,30.9722711563,84.0869114766,-68.4597999861,9.9489077495,83.7393556958,-74.9815780422,29.7164175516,139.5993393379,-73.9928862596,-69.050687881,156.3826046727,-76.9652321714,-35.1836770686,79.384069591,-102.5612467599,-23.4361140065,58.020953392,-96.1247257226,-7.9001908765,62.9596897882,-101.840832325,10.0386140235,72.6292415593,-93.1087499904,-20.7073824861,81.0495619018,-109.3479153253,45.6843779294,74.5450590537,-106.0873875242,21.0483335684,64.356822278,-90.2135851177,-9.2014419516,53.8947574073,-89.1355829708,-36.3348111151,55.7817754666,-103.9757899048,-34.0042760611,78.779996026,-107.074171237,-1.2419517973,123.2287759958,-104.0210062767,-5.1733307241,62.9386697684,-96.6271336311,0.6044565092,69.749317034,-107.0548920488,14.1609687256,70.9701797608,-108.7711718752,-7.1280473951,102.2136815901,-91.7816738405,-44.5942841276,117.3845134147,-100.5820317181,-6.403268373,136.4842327069,-114.710521879,0.30814101,63.815497006,-96.4381504162,-33.1500225325,-34.4510896069,86.971536551,-99.6903525516,0.2289085245,131.4391705432,-131.0226046851,14.1899221937,111.3029880023,-150.8605897712,30.7738005294,101.8999650871,-72.7646519133,-33.9617269355,84.9543558947,-103.9953169112,-16.378066087,85.9223653049,-120.2883297689,0.643027593,71.9141106798,-137.8506216076,17.0850901613,71.8202511235,-132.4806470323,3.2087909223,71.4760103384,-129.553454767,-7.8560639717,74.0202918852,-124.7402728469,8.7474070869,61.0374845713,-128.3089243425,13.4412029671,130.4487345629,-116.3783652256,-22.8060746046,155.0030227395,-92.9603746413,-36.693109342,74.8911297918,-58.1425472595,12.0057363197,78.2938751438,-44.1250859333,10.44262537,82.5007792674,-50.5135473273,4.5102782926,93.488114092,-80.3147386386,-2.2231792079,157.9501545092,-80.2094057322,-74.1161613041,144.4802498864,-90.6102280019,-42.6864607023,87.8846569747,-107.6568544601,-26.0273907131,63.7839516562,-95.3176988166,1.5499791607,77.4760101323,-93.7733057689,-12.6726549661,81.5678029513,-111.7110771521,-13.3604214372,117.2000706313,-130.0202941091,31.3330341381,95.3861726223,-134.7190827999,19.1912174676,76.610483925,-99.8572427864,-9.4545220128,53.7807890775,-97.5020794207,-31.9154304692,60.3959923431,-107.4152130369,-24.4426187805,84.9818767384,-128.8489874524,4.520300164,119.1701559722,-136.0764967917,5.9029925546,87.436703382,-142.5539374868,1.1076903161,81.5089791548,-132.3348439138,22.512037739,110.3004342408,-111.5833798367,-17.2069764414,121.6903276699,-106.8188485212,-34.9364072494,138.0462384403,-129.3921800931,-8.5905452345,195.4954658712,-196.7933710079,0.7729454409,86.3422241945,-106.4339207866,-20.2130782631,-20.258949359
##end
biasActivation=1,1,1
[BASIC:ACTIVATION]
"ActivationSigmoid"
"ActivationSigmoid"
"ActivationSigmoid"
