encog,BasicNetwork,java,3.2.0,1,1379837792289
[BASIC]
[BASIC:PARAMS]
[BASIC:NETWORK]
beginTraining=0
connectionLimit=0
contextTargetOffset=0,0,0
contextTargetSize=0,0,0
endTraining=2
hasContext=f
inputCount=51
layerCounts=3,13,52
layerFeedCounts=2,12,51
layerContextCount=0,0,0
layerIndex=0,3,16
output=0,0.9999999987,1,0.0000000011,0.0000000297,0,0.0000093518,0.000000048,0,0.0000000079,0.0006968283,0.0008488244,0.0000342354,0.0000001538,0.0022936053,1,1,0,0,1,0,0,0,1,0,0,1,0,1,0,0,0,1,0,0,0,1,0,1,0,1,0,0,0,1,0,0,0,0,0,0,1,1,0,0,1,0,0,1,0,0,0,1,0,0,1,1,1
outputCount=2
weightIndex=0,26,650
weights=7.0936791791,8.0455881994,-0.8983367894,9.5208898294,8.5884447126,-0.5278529281,9.1230818061,10.4647893202,10.9204509659,9.3375193384,8.3861283138,10.091119343,-27.581339235,-6.9159568802,-8.5262021827,-2.9662434727,-11.0555139014,-8.9961650954,-2.3000870635,-6.0701323087,-11.8743379299,-11.3472994246,-11.2743338236,-8.0862265941,-11.9895348367,20.5383494365,8.1311723938,-36.8710719746,0.8246543121,-3.8530670053,-9.1841811213,-14.1658677001,6.9057764931,-29.2991744572,-5.2271137973,-28.5987936496,0.2929605681,0.2461807573,25.1811539514,-41.5753419271,-10.6148572995,-0.6349069188,18.9055065992,-47.0149948592,-18.6656715788,9.4397924286,-17.7106820383,-18.0122420216,12.6827588604,-21.66638847,26.0947690148,-12.8152443879,-42.0011631019,2.4970430318,4.3784613556,-34.816240359,-21.7314150222,-16.679598245,10.902740189,-8.4053360621,-1.8699344352,-15.9113332385,22.9173191504,-51.2248148634,0.6502118658,-22.1909800378,-19.6259913383,14.2635133851,6.5505064308,-29.988564591,-2.9987200605,-24.7645072872,-3.7207746358,1.2294848438,-32.6116248565,4.2840314712,-28.2819379554,-29.1064153533,9.0000098256,-35.6240271264,0.9232470802,-3.1002202823,-8.6667064295,-14.2286904499,7.8647766278,-28.1357403024,-6.1248138614,-27.3619525252,0.6383407078,0.6088973657,24.6575730342,-40.9096179898,-10.5045543146,-0.4074805016,19.0514362492,-45.7546957124,-18.477419476,8.4198765209,-16.9763365745,-17.8491603753,13.3912246649,-21.0681031434,25.9852582575,-12.24233761,-41.3795772464,3.0154331715,4.3967453014,-35.0947053105,-21.6681892707,-17.0163687107,12.0188953179,-9.103243081,-1.7549065103,-16.5421720322,22.5714315291,-51.0964537893,0.5657806653,-21.8031283996,-20.0710113242,13.9198892591,6.2818254333,-30.4678153485,-2.2101609492,-25.3053948138,-2.9320968418,1.3456029231,-30.9274811614,2.8766801341,-28.6346205665,-28.058431502,-0.6821351826,-35.8463278557,1.3382530145,-2.8064911875,-6.5649929356,-25.129570202,-1.6111484533,-28.3604721554,-5.2743622355,-27.6194083033,-9.1636898536,0.423988164,14.3378508213,-40.3455533956,-10.6569671,-0.4214038311,10.1671586441,-45.3773900483,-22.5300802987,8.5411952267,-21.8659680566,-21.3311668041,9.0879813304,-24.0629407739,16.6487793799,-12.3679699394,-39.4812863661,-2.565140138,2.2772490086,-36.7160798907,-22.1196621647,-16.912997886,4.4757027153,-10.4621857186,-8.8852315338,-16.8920516097,13.8247529228,-51.1189192937,0.4648563512,-21.5495424292,-19.4076236855,4.5057988997,-2.6340699262,-30.7740519844,-1.8740587547,-24.6192027841,-13.0638133199,0.3424895029,-34.9396738131,-2.2984784126,-36.9990993976,-38.4723476654,8.6327236555,-36.1444797714,0.4065782976,-2.7407999803,-8.4553539334,-14.8337437669,6.6341229163,-28.5285099697,-5.5735830125,-27.249225597,0.2700079943,0.8958838251,25.1779316282,-40.7457716503,-11.4937319757,0.5745561452,19.5544788153,-45.4324100096,-17.3880192541,9.4994964966,-18.313540851,-17.3030518488,12.9032151559,-21.1535721087,27.0961055417,-12.4353357087,-40.4774886995,3.4668828849,4.3940103013,-33.9418277627,-21.5664037237,-16.9313270896,12.1635862491,-8.3919121555,-0.934588331,-16.2323129442,23.3230934647,-50.9904976711,0.962940923,-21.3850958532,-19.0046556575,14.1231642874,7.3963427012,-30.6519518267,-2.5075513411,-24.6244283669,-2.7795771915,0.670914777,-32.0174902317,4.29944758,-27.441511211,-27.2059382129,8.0771990709,-35.8755372821,1.350021382,-3.0426770189,-8.8121483007,-14.0508391622,6.2725800894,-28.3281192292,-5.7956859095,-27.7438162055,0.2580283777,1.4285415289,24.4766027421,-41.2735594368,-10.5848296692,0.9070923324,18.7759694953,-46.1497134923,-17.0072152953,9.6825895054,-18.2790966395,-17.2099228704,12.2980191311,-22.0036750459,27.617735933,-11.9493031753,-42.005005732,3.5895346107,4.3838143729,-34.7352132139,-21.1847129401,-17.8116963025,12.0189369349,-7.6162065483,-2.1523079124,-16.921085467,24.3688932387,-50.8134166743,0.4286896558,-21.3476207422,-18.7728429963,14.3227559949,6.720532788,-31.1517092569,-2.5538641932,-24.9563953037,-3.26890329,0.5070464662,-32.3493419701,4.048582297,-28.3372786386,-28.3517958764,-1.3237929915,-35.2175744584,0.2334786861,-2.9296699903,-8.3664171641,-25.4432741224,-2.5578495327,-28.7667143484,-5.6426542605,-28.4437408834,-9.1279935799,1.2963982316,14.5936329247,-39.8751987047,-10.2469522365,-1.5376826011,10.1634796239,-46.3896757194,-22.9664072665,7.848679397,-20.8468742091,-21.2155219387,8.5925955413,-24.4778530464,16.1717133307,-12.7250498791,-40.5770960433,-2.4708168766,1.8162123569,-35.982136207,-22.6663200472,-16.7318970404,3.7030681488,-10.6013997728,-8.8667979707,-16.9594771798,14.4988931342,-50.8619874346,1.2214313434,-21.5828678034,-18.9302169704,4.4137003291,-3.3297338679,-29.5462702169,-2.7091642533,-24.6523621613,-12.5064866148,0.9384254553,-35.5916026165,-2.2354459979,-37.9946622425,-37.2130447649,7.109019396,-35.129384283,0.2566761396,-2.7014943653,-9.4546878396,-13.5952105109,5.7519734599,-26.0582458191,-5.3428401374,-25.2040054394,-2.1328789818,1.0719707355,24.1517384771,-40.1219153172,-10.8514202042,0.2390555948,19.5082381467,-45.1563436127,-17.5304951515,9.2587111436,-17.4623717553,-16.035630237,10.8648045103,-19.4302990626,23.9755181601,-10.9834098779,-39.1918430408,3.7149192479,6.2065448189,-36.7180358448,-20.1301224774,-16.5105983391,11.6272601202,-5.5666148944,-3.699712049,-16.5865343639,25.0171925313,-51.4993514365,1.0558320194,-19.747985635,-19.6749245361,13.911735306,4.3100085199,-32.1541867157,0.5881232004,-23.2273563636,-3.8220343396,0.9995638848,-31.2957760574,4.3014162826,-27.1725032317,-28.4221192812,9.175800803,-35.2887481902,0.4015963474,-2.7610565131,-8.1271004118,-15.1984032374,7.5377679843,-28.2699350599,-4.59182227,-26.832186038,1.4718375823,1.0973250207,24.6536603716,-39.7235158113,-10.6428363324,1.5316434887,19.0690127658,-46.1156719481,-17.9395037488,10.2352009956,-17.9627603373,-17.3094162446,13.348234957,-21.6015308934,27.2587645562,-10.7955999328,-41.3087196888,3.2828690261,4.6088000407,-34.0302156284,-21.5438132345,-17.1017707009,13.6447832403,-7.5024378647,-1.6161629289,-16.2857680972,23.6314282749,-50.7933472533,0.561042668,-21.0551315259,-19.8306627664,14.5728204857,8.1216847871,-30.0791743037,-3.3190946662,-23.2692911261,-2.1743975157,0.6350500019,-30.7863627676,3.9015161297,-26.920294757,-27.0796709066,7.2029675727,-34.733082233,1.1071309019,-2.0521764104,-9.1368947947,-15.037732277,7.8211133199,-28.0288665109,-5.4187378878,-26.77256232,0.1681915499,1.166753744,26.2846559287,-42.0195110149,-10.8945977967,0.8177519989,20.0823594896,-46.3935278605,-16.5706798207,10.4221189693,-18.6125397312,-17.8878441554,12.7715446403,-20.5383811641,27.7611728487,-12.1330532897,-41.8748268277,2.9590512621,5.5934954057,-34.1518078454,-20.617393029,-16.1168067575,11.9776089847,-7.115995549,-2.5504518315,-16.1465075368,24.8029342019,-51.3953135652,0.6620827309,-20.1404105357,-19.0659769354,14.8000672763,6.6781121853,-30.633701379,-1.013490551,-23.4091539008,-3.6783151534,0.0091607876,-31.0419200866,4.3399418771,-27.4515966961,-26.645772135,8.5957359763,-34.8568089336,0.6274187695,-3.2944650434,-8.3244552011,-15.6932558737,7.2199147407,-28.3537058583,-4.7739746917,-28.2752982517,0.7580401524,0.5710990253,25.2840242392,-40.5482215419,-9.9886796943,0.9771760304,18.4701880448,-46.2284079038,-17.9730141563,9.2351569248,-17.6540422659,-16.9851211359,13.4900592046,-22.1334440262,27.1022123746,-12.1786259498,-40.9120913511,4.6211220785,4.4264413507,-33.9483622385,-21.8925361481,-16.8274238386,13.403569599,-8.7698714339,-1.6400466078,-16.3054178238,23.8106985171,-51.2792598212,1.0099906418,-20.4726750425,-19.6436029111,14.7573070722,7.636584916,-29.3702107552,-2.2489534336,-23.3783931317,-2.505507652,0.2910756672,-29.8686523737,3.861907418,-27.3489878463,-27.7833054189,7.5228320458,-36.1376268171,0.8623600386,-2.333658794,-9.8395182575,-15.3582646551,8.3552095864,-29.6765093914,-5.216159247,-27.8593795166,0.5764009055,1.3188654891,25.4152057956,-41.5840849763,-11.4580989156,-0.3820496606,18.6836601145,-46.1258153835,-17.7198663355,9.4298572319,-17.7620923833,-18.5224937938,13.9606758075,-21.6379005657,26.6602022339,-11.6908836744,-40.7622672528,2.8130039979,4.6501905473,-35.4797322353,-21.5666660305,-16.5099726851,11.2057940477,-8.4443001576,-2.3398667824,-16.0939882416,23.6912107613,-51.8083308638,0.7439000605,-21.3770811175,-19.6046151588,13.9563160687,6.2298928095,-30.8851332465,-1.7540744588,-25.29758837,-1.7566482813,1.1588289527,-31.5863574833,4.5001274639,-28.3941396962,-30.1840470674,8.9701440488,-35.1816606977,0.8212124279,-3.236277263,-7.5206802675,-15.4960910293,7.374611575,-27.2104433631,-5.9530563634,-27.1301459707,1.6558795408,0.2975402201,25.557047718,-39.9221223097,-9.7848577486,0.8871660987,19.1473701501,-46.2088670712,-17.9157914404,9.3221879076,-17.2178606939,-16.6672481326,13.1292178261,-21.8563160517,27.1756206605,-11.4427418819,-40.4550726357,3.3504601787,4.1118478785,-34.4900140039,-21.1728398076,-18.1022064737,13.7842316228,-8.5014389691,-0.7975719241,-16.5444057845,24.9141029904,-50.5629525004,1.2389638061,-20.8231421085,-18.8440136229,14.1340694922,7.1501681257,-29.5014600849,-3.1967049782,-23.4840958255,-2.1963858717,0.8200135308,-30.026006034,4.5781151489,-26.8551141887,-28.3812189239
biasActivation=1,1,1
[BASIC:ACTIVATION]
"ActivationSigmoid"
"ActivationSigmoid"
"ActivationSigmoid"
